{"encoders": [{"n_features": 15, "sizes": [2], "activation": "tanh", "lr": 0.00390625, "parameters": [{"weight": [[0.011831437237560749, -0.012545249424874783, -0.08594773709774017, -0.1488192081451416, 0.18110674619674683, 0.07116597145795822, -0.10839147865772247, -0.72551429271698, 1.255828101420775e-05, 0.09260987490415573, 0.007719619199633598, -0.2986392080783844, -0.11175721883773804, 0.024333307519555092, -0.16707375645637512], [0.05641097202897072, 0.058042604476213455, 0.010836221277713776, -0.16898681223392487, 0.5802669525146484, 0.1562107801437378, 0.038556717336177826, -0.28848281502723694, -0.2996985912322998, 0.1182686910033226, 0.030159160494804382, 0.025665441527962685, 0.10047416388988495, 0.13067586719989777, 0.06506062299013138]], "bias": [-0.08612154424190521, -0.09740494191646576]}, {"weight": [[-0.0260618943721056, 0.5526577234268188], [-0.017653413116931915, 0.600437343120575], [5.341443749390349e-26, 1.3067524035816815e-26], [-1.1556851704533084e-24, -2.929323298416332e-25], [0.914630651473999, 1.4603066444396973], [0.8396124839782715, 1.3974978923797607], [-2.198905470875133e-22, 2.1063761572149795e-24], [-9.393765520133124e-25, -1.1302134829124461e-23], [0.9148380756378174, 1.4967952966690063], [0.8586103916168213, 1.3878203630447388], [0.047795370221138, 0.30732786655426025], [-1.577638864517212, 0.8918273448944092], [-1.514734148979187, 0.874317467212677], [-1.5653934478759766, 0.8766451478004456], [-1.507377028465271, 0.8716588616371155]], "bias": [0.04136405885219574, 0.04892681911587715, 7.547047783985472e-29, -2.3898306930589315e-25, 0.2056298553943634, 0.16439376771450043, -1.349750790708376e-23, -2.493773323209761e-24, 0.2098262906074524, 0.16488754749298096, 0.2152707725763321, -0.045907262712717056, -0.05043182149529457, -0.04463758319616318, -0.0457674004137516]}]}, {"n_features": 15, "sizes": [2], "activation": "tanh", "lr": 0.0009765625, "parameters": [{"weight": [[0.05224301293492317, 0.027378829196095467, -0.08594773709774017, -0.1488192081451416, 0.36125171184539795, 0.41646820306777954, -0.10839147865772247, -0.72551429271698, 0.18057100474834442, -0.11162165552377701, 0.056561827659606934, -0.2798944413661957, -0.30180299282073975, 0.04123153164982796, -0.39365023374557495], [0.221943199634552, 0.10411743074655533, 0.010836221277713776, -0.16898681223392487, 0.601961076259613, 0.29013413190841675, 0.038556717336177826, -0.28848281502723694, -0.27766841650009155, 0.12525711953639984, 0.09486044198274612, 0.03486897423863411, 0.038679879158735275, 0.24649834632873535, 0.48677605390548706]], "bias": [-0.14057330787181854, -0.25412729382514954]}, {"weight": [[0.15646521747112274, 0.57500159740448], [0.15341177582740784, 0.5750938653945923], [-6.044675927534943e-17, -7.049729488544434e-17], [-1.9914859876735136e-06, -2.6913583042187383e-06], [0.9816403985023499, 0.854534924030304], [0.3609450161457062, 0.6404482126235962], [0.013359885662794113, 0.0040118517354130745], [-5.397267159423791e-05, -0.00013221624249126762], [0.6892538666725159, 0.5637429356575012], [0.779550313949585, 0.6761192679405212], [0.1393817812204361, 0.31412914395332336], [-0.747072696685791, 0.8542938828468323], [-0.7800702452659607, 0.6438459753990173], [-0.8136910796165466, 0.45449966192245483], [-0.6111689209938049, 0.8363015651702881]], "bias": [0.1411038041114807, 0.1275937706232071, -2.7714909762354582e-17, -2.966217834909912e-06, 0.2763552963733673, 0.16491958498954773, 0.002699951408430934, -8.652741234982386e-05, 0.15986792743206024, 0.18409031629562378, 0.2628856897354126, 0.07324856519699097, 0.014391749165952206, -0.025498012080788612, 0.10951533168554306]}]}, {"n_features": 15, "sizes": [2], "activation": "tanh", "lr": 0.000244140625, "parameters": [{"weight": [[-0.1739416867494583, -0.18790175020694733, -0.08594773709774017, -0.1488192081451416, 0.4265645444393158, 0.34775295853614807, -0.10839147865772247, -0.72551429271698, 0.24594329297542572, -0.2931816279888153, 0.2378552109003067, -0.12289316207170486, -0.18598277866840363, 0.19621102511882782, -0.27601712942123413], [0.20016160607337952, 0.02697617933154106, 0.010836221277713776, -0.16898681223392487, 0.28132569789886475, 0.25788024067878723, 0.038556717336177826, -0.28848281502723694, -0.5982736945152283, 0.07320535182952881, 0.1824648380279541, -0.04420299455523491, 0.034540217369794846, 0.2221735268831253, 0.793870747089386]], "bias": [-0.18236467242240906, -0.3181602656841278]}, {"weight": [[0.14679382741451263, 0.2648504376411438], [-0.2469334751367569, 0.20446395874023438], [0.018634194508194923, 0.010211201384663582], [-0.04252832755446434, -0.04236933961510658], [0.7815761566162109, 0.9709599018096924], [-0.27509406208992004, -0.07806991785764694], [0.3967660367488861, 0.1222643256187439], [-0.05794559046626091, 0.017317108809947968], [0.07379661500453949, -0.1604682058095932], [0.4918811023235321, -0.08127923309803009], [0.3004208207130432, 0.32723233103752136], [-0.024638358503580093, 1.0520448684692383], [-0.5339852571487427, 0.21791929006576538], [-0.33462318778038025, -0.07621357589960098], [0.06681619584560394, 0.519932746887207]], "bias": [0.2927815020084381, -0.0023627120535820723, 0.004762792494148016, -0.03826194629073143, 0.284761518239975, 0.4721774458885193, 0.08337819576263428, -0.05043025687336922, -0.1627439260482788, -0.02442523092031479, 0.28509077429771423, 0.16971032321453094, -0.10997489094734192, -0.11103294789791107, 0.2727540135383606]}]}, {"n_features": 15, "sizes": [2], "activation": "relu", "lr": 0.00390625, "parameters": [{"weight": [[0.1194794550538063, 0.02892259508371353, -0.08594773709774017, -0.1488192081451416, 0.3740485608577728, 0.3464774787425995, -0.10839147865772247, -0.72551429271698, 0.19353599846363068, 0.1715124547481537, 0.051937077194452286, -0.17239220440387726, -0.008245709352195263, 0.1488199084997177, -0.045565180480480194], [0.07559528946876526, 0.05792595073580742, 0.010836221277713776, -0.16898681223392487, 0.5591922998428345, 0.16593463718891144, 0.038556717336177826, -0.28848281502723694, -0.32065966725349426, 0.048227474093437195, 0.034265320748090744, 0.11652471125125885, 0.19174014031887054, 0.29762428998947144, 0.20349374413490295]], "bias": [1.2572447061538696, 1.1899775266647339]}, {"weight": [[0.15082328021526337, 0.20666565001010895], [0.17467255890369415, 0.2230081707239151], [2.7885807754231047e-26, -2.5888085304492877e-26], [-1.5984576109814368e-24, -1.776440802847854e-24], [0.8832616806030273, 0.04911543428897858], [0.815298855304718, 0.02763226442039013], [-4.054538371278833e-24, 5.149075087271548e-25], [9.188519320034172e-26, -2.3314512882870834e-26], [0.887201189994812, 0.051219090819358826], [0.8355732560157776, 0.04008070006966591], [0.11926520615816116, 0.08473178744316101], [-0.5199880003929138, 1.1890095472335815], [-0.4960756301879883, 1.156301498413086], [-0.5211246609687805, 1.1866763830184937], [-0.5210936069488525, 1.144369125366211]], "bias": [-0.4377358853816986, -0.48964762687683105, -7.682839615463875e-27, 4.9385804723106436e-24, -1.1608015298843384, -1.0763705968856812, 4.9599175820750615e-24, -4.148760509444109e-25, -1.1713511943817139, -1.126110315322876, -0.06698724627494812, -0.7638049125671387, -0.7643237113952637, -0.7589738965034485, -0.7022520303726196]}]}, {"n_features": 15, "sizes": [2], "activation": "relu", "lr": 0.0009765625, "parameters": [{"weight": [[-0.13099032640457153, -0.11618900299072266, -0.08594773709774017, -0.1488192081451416, 0.6247510313987732, 0.7504284381866455, -0.10839147865772247, -0.72551429271698, 0.4440678656101227, 0.16301320493221283, 0.04633297771215439, -0.3424224257469177, -0.395663321018219, -0.02541271038353443, -0.49117574095726013], [0.0655592605471611, 0.04539099708199501, 0.010836221277713776, -0.16898681223392487, 0.6113704442977905, 0.24600209295749664, 0.038556717336177826, -0.28848281502723694, -0.2682623565196991, 0.057237572968006134, 0.12268634885549545, -0.018083909526467323, 0.032703910022974014, 0.24212698638439178, 0.6823570728302002]], "bias": [-0.019310027360916138, 0.34576186537742615]}, {"weight": [[-0.05274244397878647, 0.18452335894107819], [0.00818031094968319, 0.3208902180194855], [7.165935116793636e-21, 5.741299073017176e-20], [2.259586653963197e-05, 6.232419400475919e-05], [0.4461134374141693, 0.56950443983078], [0.33193790912628174, 0.20588476955890656], [1.698347018574964e-11, 1.282670150648535e-11], [5.703143415303202e-06, 1.2107111615478061e-05], [0.4796451926231384, 0.5479816794395447], [0.49360549449920654, 0.5958952307701111], [0.0060005998238921165, 0.18196703493595123], [-0.29891374707221985, 0.9011905789375305], [-0.3093262314796448, 0.7754557132720947], [-0.3334644138813019, 0.6021438241004944], [-0.35320913791656494, 0.7570914626121521]], "bias": [-0.005869694985449314, -0.1890462040901184, -3.750984904471244e-20, -7.947049743961543e-05, -0.5002955794334412, -0.1463027447462082, -2.2788234840809274e-11, -1.8944067051052116e-05, -0.571256697177887, -0.691563069820404, 0.08396035432815552, -0.2925705313682556, -0.22719219326972961, -0.10662201792001724, -0.10699067264795303]}]}, {"n_features": 15, "sizes": [2], "activation": "relu", "lr": 0.000244140625, "parameters": [{"weight": [[-0.25549301505088806, -0.2701053023338318, -0.08594773709774017, -0.1488192081451416, 0.600764274597168, 0.501741349697113, -0.10839147865772247, -0.72551429271698, 0.42021119594573975, -0.16992077231407166, 0.10604958981275558, -0.10058441013097763, -0.1643599271774292, 0.21762418746948242, -0.2556658089160919], [0.031171314418315887, -0.11289822310209274, 0.010836221277713776, -0.16898681223392487, 0.25630512833595276, 0.25169140100479126, 0.038556717336177826, -0.28848281502723694, -0.6232984066009521, 0.06572321057319641, 0.1103559359908104, -0.12166707217693329, -0.012262973003089428, 0.14920665323734283, 0.7428911924362183]], "bias": [-0.5293809771537781, -0.16203559935092926]}, {"weight": [[0.11388413608074188, -0.09515977650880814], [-0.27187392115592957, -0.20294944941997528], [-0.0017406806582584977, -0.01204141229391098], [0.06063811480998993, -0.028328564018011093], [0.6073702573776245, 1.0057262182235718], [-0.10334505885839462, -0.552766740322113], [0.3185587227344513, 0.04546457529067993], [0.04945969581604004, 0.08307909965515137], [0.0640549585223198, 0.09246746450662613], [0.6751450896263123, 0.07896129786968231], [0.1745680570602417, 0.06305217742919922], [-0.20835892856121063, 1.124244213104248], [-0.5777066349983215, 0.19699718058109283], [-0.36564403772354126, -0.11658348888158798], [-0.4568260908126831, 0.6073509454727173]], "bias": [0.2975166440010071, 0.07864228636026382, 0.0025636369828134775, -0.03551777824759483, 0.06466104835271835, 0.46363064646720886, -0.08095309883356094, -0.056141432374715805, -0.17298531532287598, -0.1363094300031662, 0.16934318840503693, -0.15193654596805573, 0.03133773431181908, 0.038573965430259705, 0.25686198472976685]}]}, {"n_features": 15, "sizes": [3], "activation": "tanh", "lr": 0.00390625, "parameters": [{"weight": [[0.09655562043190002, 0.13113611936569214, -0.08352619409561157, -0.14462628960609436, -0.06484024226665497, 0.0588793084025383, -0.10533758997917175, -0.7050731778144836, -0.24038450419902802, -0.36261746287345886, 0.04775530844926834, -0.01798195391893387, 0.002415187656879425, 0.025736847892403603, 0.0035635032691061497], [-0.043656643480062485, -0.024079864844679832, -0.5653104186058044, 0.18888351321220398, -0.16371583938598633, 0.011488144285976887, -0.5183650255203247, -0.11378677189350128, 0.18975475430488586, 0.032815657556056976, -0.029224401339888573, -0.030689548701047897, 0.22254125773906708, 0.382236123085022, 0.14318819344043732], [0.2704164683818817, 0.2644934058189392, -0.224363312125206, 0.2909437417984009, 0.5066209435462952, -0.2163904905319214, -0.07677849382162094, -0.10223467648029327, -0.3697667419910431, 0.2989863157272339, 0.14770282804965973, -0.3935841917991638, 0.01899881660938263, 0.39386096596717834, -0.03157281130552292]], "bias": [0.02644847147166729, -0.11321507394313812, -0.06268788874149323]}, {"weight": [[0.5616634488105774, 0.02493799850344658, 1.6272306442260742], [0.5178015232086182, 0.02790611982345581, 1.6461477279663086], [6.181439804464617e-09, 3.487479055541698e-11, -4.048765489539363e-10], [2.3908959018000128e-25, 7.088127436994296e-24, 5.854297705269794e-24], [-1.6616623401641846, 0.04238228499889374, 0.7627081274986267], [-1.6381725072860718, 0.04774656891822815, 0.5693932771682739], [-2.6100646340595007e-23, 2.2544910083941576e-22, 1.1845402066860167e-21], [-4.764034144955076e-07, 5.211954885453451e-07, 4.630708644981496e-06], [-1.6669381856918335, 0.040658313781023026, 0.7649652361869812], [-1.637305736541748, 0.04194757714867592, 0.5788604617118835], [0.2294502705335617, -0.02473793365061283, 0.860874354839325], [0.220402330160141, 1.6214699745178223, 0.1328428089618683], [0.1867617815732956, 1.6310466527938843, 0.11966761946678162], [0.23466940224170685, 1.6668773889541626, 0.1430947184562683], [0.20799797773361206, 1.6311976909637451, 0.13257867097854614]], "bias": [0.035564079880714417, 0.04042283073067665, -2.865084280934127e-10, 1.2567715817853656e-24, 0.09230240434408188, 0.053751446306705475, 2.133028390877723e-22, 3.5711804002858116e-07, 0.09225024282932281, 0.05366703122854233, 0.20450013875961304, 0.16285187005996704, 0.15859781205654144, 0.17110289633274078, 0.16295456886291504]}]}, {"n_features": 15, "sizes": [3], "activation": "tanh", "lr": 0.0009765625, "parameters": [{"weight": [[0.20687268674373627, 0.1922467201948166, -0.08352619409561157, -0.14462628960609436, -0.1333036571741104, 0.06021127104759216, -0.10533758997917175, -0.7050731778144836, -0.30879953503608704, -0.5841835737228394, 0.10637356340885162, -0.17915169894695282, -0.031978752464056015, 0.14828692376613617, 0.10299841314554214], [0.07368846982717514, -0.25056344270706177, -0.5653104186058044, 0.18888351321220398, -0.10463006794452667, -0.005410086829215288, -0.5183650255203247, -0.11378677189350128, 0.24854929745197296, 0.04349080100655556, -0.08672460168600082, 0.18379488587379456, 0.3977001905441284, 0.701373815536499, 0.09210455417633057], [0.6061378121376038, 0.4979060888290405, -0.224363312125206, 0.2909437417984009, 0.6355155110359192, -0.06745824217796326, -0.07677849382162094, -0.10223467648029327, -0.24312569200992584, 0.44148051738739014, 0.3506541848182678, -0.18631716072559357, 0.19796256721019745, 0.7206296920776367, -0.7530332803726196]], "bias": [-0.05661316215991974, -0.13754115998744965, -0.45458492636680603]}, {"weight": [[0.6146253347396851, -0.06978098303079605, 0.936285674571991], [0.44123342633247375, 0.06202032044529915, 0.9211645722389221], [0.10902873426675797, 0.0030954775866121054, 0.017094438895583153], [1.5650211793172275e-08, 3.4267327464476693e-07, 2.4145187182966765e-08], [-0.9516122341156006, -0.043869830667972565, 0.544273853302002], [-1.083146095275879, 0.01831837184727192, 0.40793919563293457], [-0.0013053813017904758, -0.0013225723523646593, -0.004373176023364067], [0.08123607933521271, -0.00033071532379835844, 0.12448941916227341], [-1.0456565618515015, 0.04682626947760582, 0.5381948351860046], [-1.0708320140838623, 0.02682531625032425, 0.4028647243976593], [0.29069843888282776, -0.05107090249657631, 0.47068339586257935], [0.1252111941576004, 0.8998755216598511, 0.06986050307750702], [0.18880502879619598, 1.0722146034240723, 0.10076247900724411], [0.26376527547836304, 1.0863548517227173, 0.11214949190616608], [0.22977590560913086, 1.0579766035079956, 0.0888761654496193]], "bias": [0.19222941994667053, 0.21753761172294617, 0.006738028489053249, 6.053232226577165e-08, 0.08792013674974442, 0.03548898175358772, -0.004172653425484896, 0.045468058437108994, 0.09650063514709473, 0.03523079305887222, 0.27996325492858887, 0.10191725194454193, 0.1336848884820938, 0.14808791875839233, 0.13337001204490662]}]}, {"n_features": 15, "sizes": [3], "activation": "tanh", "lr": 0.000244140625, "parameters": [{"weight": [[-0.1085851714015007, -0.12056761980056763, -0.08352619409561157, -0.14462628960609436, 0.03998542204499245, 0.013187235221266747, -0.10533758997917175, -0.7050731778144836, -0.13548699021339417, -0.6385327577590942, 0.2591227889060974, -0.043034713715314865, -0.0883639007806778, 0.2836114168167114, 0.2393595576286316], [0.14777618646621704, -0.21746504306793213, -0.5653104186058044, 0.18888351321220398, 0.016536569222807884, -0.037564218044281006, -0.5183650255203247, -0.11378677189350128, 0.3696996569633484, 0.01253991387784481, -0.00852750800549984, 0.1660192608833313, 0.28925028443336487, 0.6866210699081421, 0.000888163223862648], [0.4889465272426605, 0.3426539897918701, -0.224363312125206, 0.2909437417984009, 0.6826613545417786, 0.3246304392814636, -0.07677849382162094, -0.10223467648029327, -0.19602321088314056, 0.8341303467750549, 0.000995142268948257, 0.025018084794282913, 0.2929801046848297, 0.9124351143836975, -0.726769208908081]], "bias": [-0.17540685832500458, -0.2120664268732071, -1.020310640335083]}, {"weight": [[0.6598827838897705, -0.3077174127101898, 0.3889528214931488], [0.3235783278942108, 0.47322729229927063, 0.4399316906929016], [0.6227509379386902, -0.3017014265060425, 0.36240124702453613], [-0.08249317854642868, 0.09899590909481049, -0.06875967234373093], [-0.29721471667289734, -0.3340519368648529, 0.29393085837364197], [-0.49529674649238586, 0.011800142005085945, 0.6044269800186157], [-0.08877257257699966, 0.04535636305809021, -0.24106214940547943], [0.28250953555107117, -0.07959872484207153, 0.4613284468650818], [-0.5654610991477966, 0.17197249829769135, 0.22787155210971832], [-0.599769651889801, 0.0318247526884079, 0.20762303471565247], [-0.035296764224767685, 0.1407250314950943, -0.018081601709127426], [-0.10679817944765091, 0.29437804222106934, -0.07339302450418472], [0.5053788423538208, 0.7407412528991699, 0.040721237659454346], [0.28533127903938293, 0.569616973400116, 0.34545308351516724], [0.6997779011726379, 0.5395224094390869, 0.3704618811607361]], "bias": [0.1350981444120407, 0.31414759159088135, 0.15914492309093475, -0.019721101969480515, 0.03904479742050171, 0.23815611004829407, -0.22457362711429596, 0.22792190313339233, -0.034546323120594025, 0.0018456527031958103, 0.1385127604007721, -0.06504224240779877, 0.14414645731449127, 0.2845292091369629, 0.28587237000465393]}]}, {"n_features": 15, "sizes": [3], "activation": "relu", "lr": 0.00390625, "parameters": [{"weight": [[0.12807442247867584, 0.10267219692468643, -0.08352619409561157, -0.14462628960609436, -0.09197285026311874, -0.09624254703521729, -0.10533758997917175, -0.7050731778144836, -0.2686817944049835, -0.2720480263233185, 0.06041054055094719, -0.16991165280342102, 0.012507469393312931, 0.1259300708770752, -0.11574838310480118], [0.09564124047756195, 0.05114615708589554, -0.5653104186058044, 0.18888351321220398, -0.21116511523723602, -0.06397941708564758, -0.5183650255203247, -0.11378677189350128, 0.1419605165719986, -0.02092880755662918, 0.03536607325077057, -0.04448406398296356, 0.26255807280540466, 0.49353066086769104, 0.11178106814622879], [0.5594289898872375, 0.457412451505661, -0.224363312125206, 0.2909437417984009, 0.42230120301246643, -0.05028841644525528, -0.07677849382162094, -0.10223467648029327, -0.45580998063087463, -0.08035212010145187, 0.2712971568107605, -0.4430534541606903, 0.2235884964466095, 0.5079673528671265, -0.31369271874427795]], "bias": [1.0520950555801392, 1.1298155784606934, 1.3598209619522095]}, {"weight": [[-0.179786816239357, -0.005073448643088341, 0.9049592614173889], [-0.2379995435476303, -0.014842444099485874, 0.9042177796363831], [3.2364808610907403e-09, 1.4384462510008689e-09, 1.4956086369366517e-10], [7.01383251694058e-24, -8.014512830405202e-24, 6.817234870116503e-25], [-1.436448097229004, -0.24493634700775146, 0.39805057644844055], [-1.355505347251892, -0.22530615329742432, 0.3016996681690216], [8.430856155428046e-07, 5.530379212359549e-07, 1.5920801388347172e-07], [7.276694923931913e-19, 4.519960436234095e-19, 7.017681409686832e-20], [-1.4353952407836914, -0.24526798725128174, 0.3995417058467865], [-1.3632373809814453, -0.23361627757549286, 0.3079826235771179], [-0.1279459148645401, -0.04161529988050461, 0.4801371395587921], [-0.21656593680381775, 1.1846050024032593, -0.11773103475570679], [-0.23532427847385406, 1.1513655185699463, -0.11961044371128082], [-0.21338091790676117, 1.1902222633361816, -0.11564710736274719], [-0.22704586386680603, 1.1545504331588745, -0.12032610923051834]], "bias": [-1.0831115245819092, -1.0008150339126587, -5.994263307940173e-09, -9.945507163196344e-26, 1.2600834369659424, 1.2556623220443726, -2.012699269471341e-06, -1.569646970237509e-18, 1.2565042972564697, 1.2663719654083252, -0.3088333010673523, -0.9503523707389832, -0.8955416679382324, -0.960145890712738, -0.9015693664550781]}]}, {"n_features": 15, "sizes": [3], "activation": "relu", "lr": 0.0009765625, "parameters": [{"weight": [[0.055000077933073044, 0.0517805814743042, -0.08352619409561157, -0.14462628960609436, -0.2912384867668152, -0.22292658686637878, -0.10533758997917175, -0.7050731778144836, -0.46663719415664673, -0.8810271620750427, 0.2921423017978668, -0.0743122547864914, -0.12763336300849915, 0.2404756247997284, 0.17880184948444366], [0.034940190613269806, -0.34969767928123474, -0.5653104186058044, 0.18888351321220398, -0.08257279545068741, -0.07096822559833527, -0.5183650255203247, -0.11378677189350128, 0.27057453989982605, -0.022182725369930267, 0.17367272078990936, 0.3592582643032074, 0.43767794966697693, 0.8962065577507019, 0.1977890580892563], [1.2700122594833374, 1.1447323560714722, -0.224363312125206, 0.2909437417984009, 0.6726725101470947, -0.16144625842571259, -0.07677849382162094, -0.10223467648029327, -0.2063138335943222, 0.32136112451553345, 0.6185937523841858, -0.017508389428257942, 0.22150197625160217, 0.8579937815666199, -0.8260349035263062]], "bias": [-0.10013027489185333, 0.1364518254995346, -0.27612969279289246]}, {"weight": [[0.2009986788034439, -0.13937914371490479, 0.552483320236206], [0.08757785707712173, -0.13862445950508118, 0.5371484756469727], [0.039928339421749115, 0.01034495234489441, 0.005615859758108854], [7.630057439200755e-07, 5.532176601263927e-07, 2.5105171630457335e-07], [-0.8676761984825134, 0.011087611317634583, 0.1831084042787552], [-0.792568564414978, 0.018779292702674866, 0.10763638466596603], [0.011420034803450108, 0.006908572278916836, 0.004178027622401714], [0.002279604785144329, 0.0011833346216008067, 0.0007163877016864717], [-0.8588321208953857, 0.030049176886677742, 0.1847040355205536], [-0.8153880834579468, 0.00952425878494978, 0.11082974076271057], [0.09602478891611099, -0.04348410293459892, 0.2916788160800934], [0.1610560268163681, 0.7648712396621704, 0.02679607644677162], [0.05493517220020294, 0.7093181014060974, 0.009575001895427704], [0.10454187542200089, 0.7370158433914185, 0.012893790379166603], [0.0411420539021492, 0.6850170493125916, 0.0038939611986279488]], "bias": [-0.5120018720626831, -0.4041553735733032, -0.04768819734454155, -1.5922560123726726e-06, 0.3027859032154083, 0.29146337509155273, -0.024023516103625298, -0.003976328298449516, 0.27285316586494446, 0.31995534896850586, -0.08740635961294174, -0.6758664846420288, -0.5278288722038269, -0.5777825117111206, -0.4679107069969177]}]}, {"n_features": 15, "sizes": [3], "activation": "relu", "lr": 0.000244140625, "parameters": [{"weight": [[-0.19797822833061218, -0.2109675407409668, -0.08352619409561157, -0.14462628960609436, 0.17045223712921143, 0.11666955798864365, -0.10533758997917175, -0.7050731778144836, -0.005076644476503134, -0.534930944442749, -0.17823319137096405, -0.019694345071911812, -0.07860014587640762, 0.29002895951271057, 0.24842064082622528], [0.0727134421467781, -0.2948162257671356, -0.5653104186058044, 0.18888351321220398, 0.11373154819011688, 0.04193476215004921, -0.5183650255203247, -0.11378677189350128, 0.4669019281864166, 0.09225934743881226, 0.03315130993723869, 0.12147361040115356, 0.2402811199426651, 0.6419717669487, -0.047078702598810196], [0.5057128071784973, 0.39306557178497314, -0.224363312125206, 0.2909437417984009, 0.3581430912017822, 0.024729091674089432, -0.07677849382162094, -0.10223467648029327, -0.5205973386764526, 0.5337240695953369, 0.0847407802939415, 0.2626038193702698, 0.5037602186203003, 1.1557189226150513, -0.5040154457092285]], "bias": [-0.438113272190094, -0.35527604818344116, -1.235019326210022]}, {"weight": [[0.6852051019668579, -0.2761387228965759, 0.4316725432872772], [0.3334134817123413, 0.49368226528167725, 0.3635534346103668], [0.6763234734535217, -0.4303993880748749, 0.2539146840572357], [-0.10457687824964523, 0.1288331300020218, -0.062240537256002426], [-0.19021093845367432, -0.3422219157218933, 0.24944444000720978], [-0.5604311227798462, 0.03592260926961899, 0.3936961889266968], [0.23060230910778046, 0.14645114541053772, 0.0049200705252587795], [0.28687819838523865, -0.07751521468162537, 0.38934001326560974], [-0.27467310428619385, 0.17084136605262756, 0.30730125308036804], [-0.5097797513008118, 0.044470224529504776, 0.1915229856967926], [-0.3085806965827942, 0.12027443200349808, 0.12276887148618698], [-0.1397131234407425, 0.315199077129364, 0.033005230128765106], [0.5862560868263245, 0.6595178842544556, 0.12548470497131348], [0.2444610595703125, 0.4516489505767822, 0.49460506439208984], [0.7167004942893982, 0.41491302847862244, 0.4230768382549286]], "bias": [-0.07074637711048126, -0.04267282038927078, 0.043635591864585876, -0.01119154691696167, 0.024159302935004234, -0.04006001725792885, -0.20540572702884674, -0.056308213621377945, -0.10064572840929031, -0.044716726988554, 0.13734935224056244, -0.1010163426399231, -0.045655056834220886, -0.06392571330070496, 0.03239399567246437]}]}, {"n_features": 15, "sizes": [4], "activation": "tanh", "lr": 0.00390625, "parameters": [{"weight": [[-0.09717032313346863, -0.07679737359285355, -0.08129841834306717, -0.1407688856124878, -0.0546862818300724, 0.11284397542476654, -0.10252807289361954, -0.6862677931785583, -0.22587275505065918, -0.4574187695980072, 0.28223446011543274, -0.08702808618545532, 0.04260338097810745, 0.13358864188194275, 0.003169371746480465], [-0.18522396683692932, -0.06297902762889862, -0.5502327084541321, 0.18384569883346558, -0.08768630772829056, 0.1342245191335678, -0.504539430141449, -0.11075190454721451, 0.2553118169307709, 0.007929067127406597, 0.10318506509065628, 0.0097432192414999, 0.18861256539821625, 0.27986767888069153, 0.13215868175029755], [0.18524964153766632, 0.20541785657405853, -0.19907262921333313, 0.010250039398670197, -0.23686188459396362, -0.0774339959025383, 0.14265617728233337, 0.03647100180387497, 0.1298210769891739, 0.037527523934841156, -0.15987208485603333, 0.2092391550540924, 0.10426100343465805, -0.003798999125137925, 0.12009693682193756], [0.1462315171957016, 0.1424725204706192, -0.19175642728805542, -0.18468843400478363, 0.2564074993133545, 0.06675475090742111, 0.41849032044410706, -0.48533889651298523, -0.10291898995637894, -0.05274367704987526, 0.427895188331604, -0.16340208053588867, 0.006756878923624754, 0.16095101833343506, -0.022783692926168442]], "bias": [0.09103110432624817, -0.10736135393381119, -0.03724824637174606, -0.11998839676380157]}, {"weight": [[-0.5040532350540161, -0.9126538038253784, 1.4172507524490356, 1.0130075216293335], [-0.4958168864250183, -0.852917492389679, 1.3526997566223145, 1.070369005203247], [-1.6155180526666868e-09, -1.5555338128692142e-09, 1.593699394675241e-09, -1.6949057712878357e-09], [6.324554760794854e-06, 3.953256054956e-06, -6.119755198596977e-06, 1.126853112509707e-05], [-1.2782502174377441, 0.6271374225616455, -0.5900071263313293, 0.6394617557525635], [-1.3295605182647705, 0.5873692035675049, -0.5029432773590088, 0.3361230492591858], [3.1064153981318075e-21, 3.2163948766844146e-21, -4.1646786891036835e-21, 8.537567785674914e-21], [-1.819054871732667e-24, -9.882098030596613e-25, 1.386178691260536e-24, -8.472469660067477e-25], [-1.2726550102233887, 0.6557181477546692, -0.6118360757827759, 0.6388088464736938], [-1.3412338495254517, 0.5781386494636536, -0.5023618936538696, 0.3416900336742401], [0.7680423855781555, 0.4012749493122101, -0.6563647985458374, 1.7006739377975464], [0.29771503806114197, 1.1824324131011963, 0.9882442951202393, -0.13458511233329773], [0.29070550203323364, 1.1917494535446167, 0.9226728677749634, -0.12492888420820236], [0.3106459081172943, 1.1717565059661865, 0.9706805348396301, -0.12196604907512665], [0.31279149651527405, 1.1883189678192139, 0.9292313456535339, -0.10462619364261627]], "bias": [0.11517511308193207, 0.11947663873434067, 1.0510617376446874e-10, -4.1634021386016684e-07, 0.2156248241662979, 0.1812906116247177, -5.748408905961977e-24, 3.639369850153811e-25, 0.2160734236240387, 0.18265333771705627, 0.14082230627536774, 0.11010685563087463, 0.10107934474945068, 0.10870662331581116, 0.10366976261138916]}]}, {"n_features": 15, "sizes": [4], "activation": "tanh", "lr": 0.0009765625, "parameters": [{"weight": [[-0.14776702225208282, -0.1813526749610901, -0.08129841834306717, -0.1407688856124878, -0.11756551265716553, 0.005375034641474485, -0.10252807289361954, -0.6862677931785583, -0.28836938738822937, -0.6293593049049377, 0.43231096863746643, -0.02705867402255535, -0.056597474962472916, 0.2789299488067627, 0.20108479261398315], [-0.16752715408802032, -0.05149330943822861, -0.5502327084541321, 0.18384569883346558, -0.041554905474185944, 0.23230776190757751, -0.504539430141449, -0.11075190454721451, 0.30221185088157654, 0.2798512876033783, 0.14911605417728424, -0.025961313396692276, 0.1767800748348236, 0.48047059774398804, 0.5405455827713013], [0.6266394257545471, 0.10207431763410568, -0.19907262921333313, 0.010250039398670197, -0.2926316261291504, -0.0876583531498909, 0.14265617728233337, 0.03647100180387497, 0.07505663484334946, -0.016781345009803772, -0.2417280673980713, 0.2600160539150238, 0.08741724491119385, 0.01643548347055912, 0.27358806133270264], [0.34843072295188904, 0.20182257890701294, -0.19175642728805542, -0.18468843400478363, 0.34202438592910767, 0.09878844767808914, 0.41849032044410706, -0.48533889651298523, -0.019411632791161537, -0.1147954985499382, 0.6864614486694336, -0.3107726573944092, -0.004117858596146107, 0.05272208899259567, 0.008357320912182331]], "bias": [0.16959530115127563, -0.1406373232603073, -0.002165749669075012, 0.01952476054430008]}, {"weight": [[-0.32341569662094116, -0.2666109502315521, 0.9814873933792114, 0.6872043609619141], [-0.3689573407173157, -0.2894911766052246, 0.9811239838600159, 0.705194354057312], [-0.01475514192134142, -0.007249142974615097, 0.010890252888202667, -0.01221955195069313], [-0.011463825590908527, 0.0007155888597480953, 0.00040739524411037564, 0.030390065163373947], [-0.8001583814620972, 0.18971948325634003, -0.21537929773330688, 0.3265027701854706], [-0.780448317527771, 0.6109254956245422, -0.37491750717163086, 0.18716591596603394], [-0.0018132710829377174, -0.0007817926234565675, 0.0015188747784122825, -0.003085530363023281], [-2.1913259401484808e-11, -3.903411448236138e-12, 1.4773833198478137e-11, -1.1212048650621753e-11], [-0.592882513999939, 0.6101487278938293, -0.48205047845840454, 0.44162118434906006], [-0.8678431510925293, 0.5698024034500122, -0.31063613295555115, 0.08897601813077927], [0.631860077381134, 0.2722376585006714, -0.41385844349861145, 1.1059328317642212], [0.32724541425704956, 0.744268536567688, 0.5560287833213806, -0.14808425307273865], [0.31408873200416565, 0.8005414009094238, 0.4946803152561188, -0.21610228717327118], [0.4316716194152832, 0.626481831073761, 0.3290518522262573, -0.17584232985973358], [0.25111493468284607, 0.7670383453369141, 0.5697318315505981, -0.2439822256565094]], "bias": [0.01944350078701973, 0.021967114880681038, 0.003673038212582469, 0.0002704798534978181, 0.12375637888908386, 0.15477518737316132, 0.0008262532646767795, 1.404985329467312e-11, 0.11749034374952316, 0.1799660325050354, -0.054397087544202805, 0.032071806490421295, 0.04302002489566803, -0.012874025851488113, 0.06330882012844086]}]}, {"n_features": 15, "sizes": [4], "activation": "tanh", "lr": 0.000244140625, "parameters": [{"weight": [[-0.1514439731836319, -0.16416996717453003, -0.08129841834306717, -0.1407688856124878, 0.0252067893743515, -0.014888265170156956, -0.10252807289361954, -0.6862677931785583, -0.14558598399162292, -0.6492958068847656, 0.2816353738307953, -0.007364090532064438, -0.06433294713497162, 0.298530250787735, 0.2567477822303772], [0.1524374634027481, -0.213572159409523, -0.5502327084541321, 0.18384569883346558, -0.0053921109065413475, 0.4119056165218353, -0.504539430141449, -0.11075190454721451, 0.33838632702827454, 0.460933119058609, 0.048269424587488174, -0.11199089884757996, 0.02277516759932041, 0.39628130197525024, 0.4620489478111267], [0.5322741866111755, -0.045910466462373734, -0.19907262921333313, 0.010250039398670197, -0.35176026821136475, -0.10812561959028244, 0.14265617728233337, 0.03647100180387497, 0.015992840752005577, -0.04541439563035965, 0.07609620690345764, 0.216237872838974, -0.11082859337329865, -0.020468445494771004, 0.17070430517196655], [0.4782657027244568, 0.20916295051574707, -0.19175642728805542, -0.18468843400478363, 0.2670060694217682, 0.1919356733560562, 0.41849032044410706, -0.48533889651298523, -0.09434633702039719, -0.02394435554742813, 0.6147889494895935, -0.378050297498703, -0.029461247846484184, -0.006398072000592947, -0.01436120830476284]], "bias": [0.19596682488918304, -0.15286985039710999, -0.17794670164585114, 0.3457333445549011]}, {"weight": [[0.06140829622745514, -0.014011399820446968, 0.6486150026321411, 0.35736891627311707], [-0.19514070451259613, 0.09065885841846466, 0.6797608137130737, 0.37681934237480164], [-0.18799299001693726, -0.14965522289276123, -0.011924617923796177, 0.05409514531493187], [-0.30166736245155334, -0.032503385096788406, 0.15462225675582886, 0.31263497471809387], [-0.7814404368400574, -0.3302965462207794, -0.20232973992824554, 0.07256922125816345], [-0.28610652685165405, 0.607556939125061, -0.08779092133045197, 0.22463884949684143], [-0.02605385333299637, -0.043745748698711395, 0.023057781159877777, -0.11423168331384659], [0.0733744353055954, 0.0016338529530912638, -0.0760049819946289, 0.05551799014210701], [-0.02252994291484356, 0.372075617313385, -0.5044189691543579, 0.1774807572364807], [-0.5074498653411865, 0.5662478804588318, -0.19839927554130554, -0.20663700997829437], [0.35836169123649597, 0.22012750804424286, 0.12743769586086273, 0.7114013433456421], [0.12564648687839508, 0.25071805715560913, 0.27543264627456665, 0.1638079732656479], [0.312654048204422, 0.35390666127204895, 0.1762077957391739, -0.20695480704307556], [0.2552865445613861, -0.03892344608902931, -0.38309213519096375, -0.10397614538669586], [-0.005972669459879398, 0.30532556772232056, 0.2754182517528534, -0.07505850493907928]], "bias": [-0.045805756002664566, 0.08879400044679642, -0.0008156661060638726, 0.008915945887565613, -0.008673371747136116, 0.04460731893777847, 0.001638674410060048, -0.049914728850126266, -0.07122232019901276, 0.15236081182956696, -0.25315579771995544, 0.023999130353331566, 0.007501790765672922, -0.1439906507730484, 0.054767295718193054]}]}, {"n_features": 15, "sizes": [4], "activation": "relu", "lr": 0.00390625, "parameters": [{"weight": [[-0.09914003312587738, -0.13040907680988312, -0.08129841834306717, -0.1407688856124878, 0.01022849790751934, -0.014753728173673153, -0.10252807289361954, -0.6862677931785583, -0.16039438545703888, -0.4675430655479431, 0.5236387252807617, -0.1427040547132492, 0.0062073152512311935, 0.1422324776649475, 0.11721286922693253], [-0.09620320796966553, -0.10646969079971313, -0.5502327084541321, 0.18384569883346558, -0.04487081989645958, 0.07611020654439926, -0.504539430141449, -0.11075190454721451, 0.29846441745758057, -0.013434948399662971, 0.26588863134384155, -9.042596502695233e-06, 0.21352669596672058, 0.4132947325706482, 0.2579645812511444], [0.2820627689361572, 0.2577688992023468, -0.19907262921333313, 0.010250039398670197, -0.19063211977481842, -0.040580570697784424, 0.14265617728233337, 0.03647100180387497, 0.1768718957901001, -0.07867243885993958, 0.22746390104293823, 0.15233752131462097, 0.07569834589958191, 0.02147209830582142, 0.13956868648529053], [-0.015133796259760857, -0.056791625916957855, -0.19175642728805542, -0.18468843400478363, 0.4202806353569031, 0.13973800837993622, 0.41849032044410706, -0.48533889651298523, 0.05880362540483475, -0.1460154503583908, 0.7452235221862793, -0.26448604464530945, -0.06058943271636963, 0.09004569053649902, 0.04393918439745903]], "bias": [1.183225154876709, 1.2272783517837524, 1.0711640119552612, 1.2140092849731445]}, {"weight": [[-0.5026673674583435, -0.5614235997200012, 1.4648493528366089, 0.09128601849079132], [-0.4916059076786041, -0.5317192673683167, 1.4383641481399536, 0.13167159259319305], [-3.551626104325578e-09, -1.2003080751554762e-09, 1.3904233320261028e-10, -2.0773760489589677e-09], [2.4344237772311317e-06, 7.674854032302392e-07, -1.3329572823295166e-07, 2.2115837055025622e-06], [-0.8720487356185913, 0.3523167371749878, -0.19116093218326569, 0.7030345797538757], [-0.9955195784568787, 0.3268801271915436, -0.1922471970319748, 0.4725498855113983], [-1.6171933339137468e-06, -6.516997927974444e-07, -1.0275221029587556e-07, -1.4002914667798905e-06], [-1.1002470828703834e-24, -4.534319235099273e-25, -1.2317158310175424e-25, -9.415261979800396e-25], [-0.8592802286148071, 0.3560173809528351, -0.18817605078220367, 0.7141356468200684], [-1.0131340026855469, 0.31650951504707336, -0.182430237531662, 0.46767497062683105], [0.48784324526786804, -0.05939523130655289, 0.3386128842830658, 0.7743185758590698], [0.03575370833277702, 0.9002894163131714, 0.30263200402259827, -0.46628284454345703], [0.04930533468723297, 0.8955069184303284, 0.2751942574977875, -0.43747764825820923], [0.05249030515551567, 0.8982560038566589, 0.3179211914539337, -0.46501249074935913], [0.07008379697799683, 0.8941103219985962, 0.2872144877910614, -0.42694219946861267]], "bias": [-0.39269518852233887, -0.46781620383262634, 9.414883983538402e-09, -7.445786195603432e-06, -0.05407267436385155, 0.4146611988544464, 5.321364369592629e-06, 3.691772795403898e-24, -0.09715733677148819, 0.4488055109977722, -1.794538974761963, -0.8964510560035706, -0.9274265170097351, -0.935833215713501, -0.976112425327301]}]}, {"n_features": 15, "sizes": [4], "activation": "relu", "lr": 0.0009765625, "parameters": [{"weight": [[-0.24843309819698334, -0.2589445114135742, -0.08129841834306717, -0.1407688856124878, -0.11132549494504929, -0.11243155598640442, -0.10252807289361954, -0.6862677931785583, -0.28205642104148865, -0.7505271434783936, 0.6367277503013611, -0.06007779389619827, -0.0716324895620346, 0.24541889131069183, 0.22882236540317535], [0.11303576081991196, -0.4252585470676422, -0.5502327084541321, 0.18384569883346558, 0.060894448310136795, 0.16981141269207, -0.504539430141449, -0.11075190454721451, 0.40459907054901123, 0.2117634266614914, 0.30238717794418335, 0.09510986506938934, 0.20847143232822418, 0.620574951171875, 0.6622217297554016], [0.6069477796554565, 0.12001708894968033, -0.19907262921333313, 0.010250039398670197, -0.21278735995292664, -0.10668819397687912, 0.14265617728233337, 0.03647100180387497, 0.15491968393325806, -0.05305144563317299, 0.19019007682800293, 0.20456527173519135, -0.0013423836790025234, -0.049066558480262756, 0.16232778131961823], [0.126671701669693, -0.12736304104328156, -0.19175642728805542, -0.18468843400478363, 0.4428535997867584, 0.19318680465221405, 0.41849032044410706, -0.48533889651298523, 0.08148635178804398, -0.02651923894882202, 0.8921456933021545, -0.3691521883010864, -0.045743174850940704, -0.006078472826629877, -0.043280862271785736]], "bias": [0.4495042562484741, 0.49784883856773376, 0.6894479393959045, 0.45433488488197327]}, {"weight": [[-0.30878594517707825, -0.18357419967651367, 1.146849274635315, 0.09670959413051605], [-0.4180203378200531, -0.20503656566143036, 1.1227281093597412, 0.015603499487042427], [-0.010504181496798992, -0.0029570129700005054, -0.0015099173178896308, -0.00808569137006998], [0.02478783018887043, 0.0068931784480810165, -0.0025633512996137142, 0.042109034955501556], [-0.613305389881134, 0.2081228792667389, -0.16557389497756958, 0.4525105059146881], [-0.533183217048645, 0.3052138090133667, -0.2721429765224457, 0.40257060527801514], [-0.0053734323009848595, -0.001871274784207344, -0.0011540765408426523, -0.007250807248055935], [5.3961593948770314e-05, 1.9081933714915067e-05, 1.9923872969229706e-05, 4.62948446511291e-05], [-0.5490556955337524, 0.27983397245407104, -0.1943412572145462, 0.4906395673751831], [-0.671555757522583, 0.2722277343273163, -0.25655847787857056, 0.21011845767498016], [0.3059811592102051, 0.029873639345169067, 0.32317841053009033, 0.6585395336151123], [0.1420746147632599, 0.5900541543960571, 0.16186268627643585, -0.2789897322654724], [0.18246585130691528, 0.5980591773986816, 0.2050972878932953, -0.3284423053264618], [0.23031167685985565, 0.5854366421699524, 0.24081748723983765, -0.31614047288894653], [0.2347905933856964, 0.5969103574752808, 0.2274051457643509, -0.28684884309768677]], "bias": [-0.5386173129081726, -0.32181254029273987, 0.021061284467577934, -0.06054103374481201, 0.12042442709207535, 0.024921203032135963, 0.014200491830706596, -0.00013162058894522488, -0.012626438401639462, 0.3269729018211365, -0.7860773205757141, -0.4993384778499603, -0.5821492075920105, -0.6455316543579102, -0.6752203106880188]}]}, {"n_features": 15, "sizes": [4], "activation": "relu", "lr": 0.000244140625, "parameters": [{"weight": [[-0.17712412774562836, -0.19200065732002258, -0.08129841834306717, -0.1407688856124878, 0.019190216436982155, -0.030943389981985092, -0.10252807289361954, -0.6862677931785583, -0.1515861451625824, -0.6661694049835205, 0.26276203989982605, -0.015950387343764305, -0.08145145326852798, 0.2863730192184448, 0.23868826031684875], [0.002003542147576809, -0.3991057276725769, -0.5502327084541321, 0.18384569883346558, 0.1879565417766571, 0.380558580160141, -0.504539430141449, -0.11075190454721451, 0.5317063331604004, 0.43028414249420166, 0.09160716831684113, -0.11755471676588058, 0.00596883799880743, 0.38954177498817444, 0.4518061876296997], [0.5646885633468628, -0.016136538237333298, -0.19907262921333313, 0.010250039398670197, -0.3436780571937561, -0.11350089311599731, 0.14265617728233337, 0.03647100180387497, 0.024085208773612976, -0.05162779986858368, 0.22539931535720825, 0.19126544892787933, -0.14610493183135986, -0.04718061164021492, 0.13159023225307465], [0.4017094671726227, 0.15054816007614136, -0.19175642728805542, -0.18468843400478363, 0.2758350074291229, 0.2412494570016861, 0.41849032044410706, -0.48533889651298523, -0.0855163186788559, 0.024455023929476738, 0.517107367515564, -0.366366982460022, -0.019629130139946938, 0.006136559881269932, -0.0020240829326212406]], "bias": [0.052611272782087326, -0.4381604790687561, 0.08039078116416931, 0.03261588141322136]}, {"weight": [[0.05637383833527565, -0.16958725452423096, 0.6608253717422485, 0.37357601523399353], [-0.225066676735878, -0.27073773741722107, 0.6571028232574463, 0.37813225388526917], [-0.1891338974237442, -0.1495692878961563, 0.02362704649567604, 0.0666346475481987], [-0.28855040669441223, -0.09495888650417328, 0.026929086074233055, 0.3498418629169464], [-0.7151329517364502, -0.3218315541744232, -0.10668327659368515, 0.2870803475379944], [-0.2272575944662094, 0.6671611070632935, -0.305562287569046, 0.23171979188919067], [0.07586107403039932, -0.048298198729753494, 0.22964699566364288, -0.1561592072248459], [0.08077771961688995, 0.0013579439837485552, -0.022520529106259346, 0.04475270211696625], [-0.007472142111510038, 0.3889652192592621, -0.47447469830513, 0.17602166533470154], [-0.5116013288497925, 0.5803864002227783, -0.26285797357559204, -0.23524682223796844], [0.22623541951179504, 0.16853636503219604, 0.5561829209327698, 0.6423343420028687], [0.11737460643053055, 0.20237205922603607, 0.03215997293591499, 0.18410031497478485], [0.29848405718803406, 0.3440842926502228, 0.1443084180355072, -0.2092706561088562], [0.24137365818023682, -0.03854462131857872, -0.3604176938533783, -0.10949299484491348], [-0.019213184714317322, 0.29415977001190186, 0.23386462032794952, -0.05944132059812546]], "bias": [-0.202447310090065, 0.014756300486624241, 0.05040929466485977, -0.025799641385674477, -0.03844182565808296, -0.020355582237243652, -0.05462312698364258, -0.047773487865924835, -0.05257915332913399, 0.10909083485603333, -0.34025779366493225, -0.006996817421168089, -0.14772936701774597, 0.03645039722323418, -0.17564156651496887]}]}, {"n_features": 15, "sizes": [6], "activation": "tanh", "lr": 0.00390625, "parameters": [{"weight": [[-0.23451602458953857, -0.20783092081546783, -0.07733023166656494, -0.13389793038368225, 0.26345619559288025, 0.16095519065856934, -0.09752365946769714, -0.6527709364891052, 0.10202376544475555, -0.44610869884490967, -0.21841555833816528, -0.04662826657295227, -0.08710260689258575, 0.17093612253665924, 0.07308228313922882], [0.062324389815330505, 0.15500153601169586, -0.5233757495880127, 0.17487215995788574, -0.2083139717578888, 0.2906181514263153, -0.47991275787353516, -0.10534607619047165, 0.11592062562704086, 0.34678351879119873, -0.41995102167129517, -0.2545323371887207, 0.06848164647817612, 0.13168251514434814, -0.09212406724691391], [0.0983787477016449, 0.03566122427582741, -0.18935585021972656, 0.009749732911586761, -0.34899166226387024, 0.05482995882630348, 0.13569310307502747, 0.034690845757722855, 0.0014279646566137671, 0.012425282038748264, -0.10035069286823273, 0.2850123345851898, 0.010482262820005417, -0.012721565552055836, 0.1918942630290985], [0.4463994801044464, 0.10512061417102814, -0.489662766456604, -0.2077200710773468, 0.3880893588066101, -0.10060020536184311, 0.054883893579244614, -0.07108307629823685, -0.00504604447633028, -0.1746577024459839, -0.032011568546295166, -0.19370423257350922, -0.08644730597734451, 0.24823421239852905, 0.07279068976640701], [-0.12469857931137085, -0.11483301967382431, 0.5615794658660889, -0.17020545899868011, 0.1635374128818512, 0.18206286430358887, 0.34280532598495483, 0.3980637192726135, -0.11850428581237793, 0.39420029520988464, 0.2997596561908722, 0.20000965893268585, -0.07022230327129364, -0.07769005000591278, 0.09580115228891373], [-0.12154050171375275, 0.0345693863928318, 0.24426162242889404, -0.006249849684536457, -0.19388720393180847, 0.20197215676307678, -0.41975727677345276, 0.29820767045021057, 0.43978607654571533, -0.28842005133628845, -0.030723009258508682, 0.07111698389053345, 0.26270779967308044, 0.12404858320951462, 0.09469838440418243]], "bias": [0.09044995158910751, -0.04557962715625763, 0.1242532804608345, -0.028488824144005775, -0.19570735096931458, -0.10715302079916]}, {"weight": [[-0.976959228515625, 0.2715648114681244, 0.1745082288980484, 1.0713945627212524, -0.23268724977970123, 0.08928381651639938], [-0.8357296586036682, 0.1791028529405594, 0.13371767103672028, 1.1833727359771729, -0.1414271593093872, 0.05544986575841904], [0.10522007197141647, -0.020889516919851303, 0.10707268118858337, 0.07677491754293442, 0.0816098302602768, -0.1464572548866272], [-0.017926758155226707, 0.0033058160915970802, -0.017772912979125977, -0.013094591908156872, -0.01323169656097889, 0.02404947765171528], [0.5477166771888733, 0.3247303366661072, -1.208820104598999, 1.001455545425415, 0.6270298957824707, 0.7692772746086121], [0.10889758169651031, 0.8342493176460266, 0.09555387496948242, 0.22877873480319977, 1.2156610488891602, -0.21349070966243744], [0.06682606786489487, -0.012120867148041725, 0.06620243191719055, 0.04741378501057625, 0.04897363856434822, -0.08965035527944565], [-0.007141011767089367, 0.001366410288028419, -0.0073251873254776, -0.005204130429774523, -0.005512246862053871, 0.009846040047705173], [0.6044305562973022, 0.31547436118125916, -1.1562188863754272, 1.0407578945159912, 0.6665796041488647, 0.6961285471916199], [-0.3111424148082733, 0.8585081100463867, -0.3128831684589386, -0.05607668682932854, 0.9301125407218933, 0.3170958161354065], [-1.338862657546997, -1.3172720670700073, -0.7741165161132812, 0.032179079949855804, 0.891811728477478, 0.36105942726135254], [0.2932490110397339, -0.19488203525543213, 1.234809398651123, 0.33027443289756775, 0.4659956693649292, 0.757524847984314], [-0.13367025554180145, -0.07961347699165344, 0.8223391175270081, -0.00801384449005127, 0.1470443606376648, 1.3082692623138428], [-0.18097542226314545, -0.10229244828224182, 0.8091734647750854, -0.013232200406491756, 0.11803267896175385, 1.3770594596862793], [0.02214067429304123, -0.14952076971530914, 0.96343994140625, 0.13055840134620667, 0.27599048614501953, 1.096455693244934]], "bias": [0.0776987373828888, 0.0754510685801506, -0.020239854231476784, 0.0033667865209281445, 0.3107200264930725, 0.207956001162529, -0.012764276005327702, 0.0013724411837756634, 0.3009456694126129, 0.2814169228076935, 0.31743305921554565, -0.010698993690311909, 0.06272987276315689, 0.07723528891801834, 0.03695044293999672]}]}, {"n_features": 15, "sizes": [6], "activation": "tanh", "lr": 0.0009765625, "parameters": [{"weight": [[-0.26132917404174805, -0.20489095151424408, -0.07733023166656494, -0.13389793038368225, 0.24605348706245422, 0.1695488542318344, -0.09752365946769714, -0.6527709364891052, 0.0835874006152153, -0.437478631734848, -0.39778032898902893, -0.07289885729551315, -0.12228517979383469, 0.20807291567325592, 0.1631111204624176], [0.2332708090543747, -0.20050771534442902, -0.5233757495880127, 0.17487215995788574, -0.09936429560184479, 0.44957345724105835, -0.47991275787353516, -0.10534607619047165, 0.22650814056396484, 0.4479868710041046, -0.08799441903829575, -0.2811763882637024, -0.19164259731769562, 0.1973157376050949, 0.17597050964832306], [0.265575647354126, -0.25372034311294556, -0.18935585021972656, 0.009749732911586761, -0.4960940182209015, 0.09234713762998581, 0.13569310307502747, 0.034690845757722855, -0.14624392986297607, 0.08042998611927032, -0.016218319535255432, 0.4055829644203186, 0.1186554953455925, 0.17697449028491974, 0.3655920922756195], [1.0432392358779907, -0.06411893665790558, -0.489662766456604, -0.2077200710773468, 0.41192448139190674, -0.08826708048582077, 0.054883893579244614, -0.07108307629823685, 0.021220339462161064, -0.24625611305236816, 0.05718740448355675, -0.4263148009777069, -0.12602487206459045, 0.16418837010860443, 0.5912443995475769], [-0.2828657627105713, -0.15300975739955902, 0.5615794658660889, -0.17020545899868011, 0.2323356717824936, 0.16380654275417328, 0.34280532598495483, 0.3980637192726135, -0.04838228225708008, 0.6787336468696594, 0.4760808050632477, 0.2377576231956482, -0.29799458384513855, -0.051222413778305054, 0.4531376361846924], [-0.20403064787387848, 0.2534758150577545, 0.24426162242889404, -0.006249849684536457, -0.06673545390367508, 0.2449982911348343, -0.41975727677345276, 0.29820767045021057, 0.569511890411377, -0.3604031801223755, -0.2777089774608612, 0.1514367312192917, 0.27051424980163574, 0.19824542105197906, 0.13879020512104034]], "bias": [0.34851959347724915, -0.027973713353276253, 0.07983666658401489, 0.06552595645189285, -0.14350207149982452, -0.15615016222000122]}, {"weight": [[-0.6321067214012146, 0.5443946123123169, 0.21373799443244934, 0.8140279650688171, -0.4553791284561157, -0.05364537984132767], [-0.47679978609085083, -0.2500550150871277, -0.2509121000766754, 0.9360706806182861, 0.09700433909893036, 0.21253296732902527], [0.18217290937900543, -0.22267848253250122, -0.035531461238861084, 0.15536309778690338, 0.26978036761283875, -0.14297044277191162], [-0.12268778681755066, 0.002348067006096244, -0.03421865031123161, -0.08889283239841461, -0.04613015055656433, 0.11056739091873169], [0.40576446056365967, 0.5314440131187439, -0.6250595450401306, 0.4635568857192993, 0.2519717812538147, 0.5481647849082947], [0.4128192961215973, 0.972136378288269, 0.022744806483387947, 0.32534053921699524, 0.41056519746780396, -0.29642385244369507], [0.18935339152812958, -0.16033343970775604, -0.07805615663528442, 0.12989453971385956, 0.1541886180639267, -0.06610477715730667], [0.036921869963407516, 0.052284080535173416, 0.03896919637918472, 0.022756826132535934, -0.020401066169142723, -0.05047140643000603], [0.5712178349494934, 0.3957320749759674, -0.671870231628418, 0.5782306790351868, 0.3830154836177826, 0.46766623854637146], [-0.5167968273162842, 0.23104014992713928, -0.3629397749900818, -0.2621768116950989, 0.6410452723503113, 0.5017131567001343], [-1.0157650709152222, -0.43331584334373474, 0.0153333880007267, 0.08320929110050201, 0.6454315185546875, -0.19205375015735626], [0.3415200412273407, -0.291825532913208, 0.7498787045478821, 0.35867583751678467, 0.481133371591568, 0.30420973896980286], [-0.11059029400348663, -0.31027525663375854, 0.6746912002563477, 0.040573008358478546, 0.35400673747062683, 0.684974193572998], [-0.31611472368240356, -0.16824300587177277, 0.5774337649345398, -0.14339730143547058, 0.10153921693563461, 0.9941109418869019], [0.008318230509757996, -0.11435803771018982, 0.7459615468978882, 0.12841619551181793, 0.23991070687770844, 0.5916056036949158]], "bias": [0.11335446685552597, 0.11835192143917084, -0.06630152463912964, 0.047390166670084, 0.06421137601137161, -0.10931889712810516, -0.05802883580327034, -0.016837269067764282, 0.021402716636657715, 0.25206807255744934, 0.3876457214355469, -0.06952778995037079, 0.09047050029039383, 0.1918279081583023, 0.04861854016780853]}]}, {"n_features": 15, "sizes": [6], "activation": "tanh", "lr": 0.000244140625, "parameters": [{"weight": [[-0.24491725862026215, -0.2606870234012604, -0.07733023166656494, -0.13389793038368225, 0.21835875511169434, 0.35809555649757385, -0.09752365946769714, -0.6527709364891052, 0.05569055303931236, -0.2457646131515503, -0.17397288978099823, -0.05693869665265083, -0.11711335927248001, 0.22944529354572296, 0.18948176503181458], [0.145992249250412, -0.39343389868736267, -0.5233757495880127, 0.17487215995788574, 0.19178028404712677, 0.32008495926856995, -0.47991275787353516, -0.10534607619047165, 0.5184938907623291, 0.3606112003326416, -0.0337303951382637, -0.17645572125911713, -0.07229217886924744, 0.3063047528266907, 0.36355161666870117], [0.16298384964466095, -0.3893798589706421, -0.18935585021972656, 0.009749732911586761, -0.29900407791137695, -0.04319627955555916, 0.13569310307502747, 0.034690845757722855, 0.05088624730706215, -0.004914595279842615, -0.24445468187332153, 0.4553624987602234, 0.12417903542518616, 0.2276066690683365, 0.3744196593761444], [0.946815013885498, -0.21590374410152435, -0.489662766456604, -0.2077200710773468, 0.47385501861572266, 0.051062267273664474, 0.054883893579244614, -0.07108307629823685, 0.08359425514936447, -0.1042480319738388, 0.10461228340864182, -0.3297092914581299, 0.032541073858737946, 0.27616387605667114, 0.8540992140769958], [-0.29916325211524963, -0.2035142034292221, 0.5615794658660889, -0.17020545899868011, 0.12950663268566132, 0.13192008435726166, 0.34280532598495483, 0.3980637192726135, -0.15104059875011444, 0.641137421131134, 0.06937262415885925, 0.2980289161205292, -0.30439937114715576, 0.02340666577219963, 0.5559946894645691], [-0.06746229529380798, 0.4040803611278534, 0.24426162242889404, -0.006249849684536457, 0.0015941158635541797, 0.37068432569503784, -0.41975727677345276, 0.29820767045021057, 0.6382037401199341, -0.24700842797756195, -0.1918451189994812, 0.18965278565883636, 0.2978670597076416, 0.23507031798362732, 0.18317267298698425]], "bias": [0.468631386756897, 0.05965889245271683, -0.20921868085861206, 0.2898225784301758, -0.1776624470949173, 0.02556554786860943]}, {"weight": [[-0.5188327431678772, 0.18238720297813416, -0.11296124756336212, 0.6082730889320374, -0.33590397238731384, -0.1879851371049881], [-0.2164003700017929, -0.39738523960113525, -0.03580627962946892, 0.4767833948135376, 0.21850816905498505, 0.31013554334640503], [-0.02054237574338913, -0.24776442348957062, -0.05979369580745697, 0.1803610622882843, 0.44631674885749817, -0.1914341002702713], [0.17956911027431488, -0.13127325475215912, -0.045492276549339294, -0.3750898540019989, -0.15901616215705872, 0.48171404004096985], [0.1379803717136383, 0.33495619893074036, -0.19315814971923828, 0.30371391773223877, -0.129242405295372, 0.24299268424510956], [0.6526336669921875, 0.637042224407196, -0.06114935129880905, 0.14027900993824005, -0.03347800299525261, -0.268795371055603], [0.34142038226127625, -0.2977019250392914, -0.29371997714042664, 0.03106839396059513, 0.09209904819726944, 0.24385815858840942], [-0.006199277006089687, 0.13966798782348633, 0.0104930205270648, 0.0035897342022508383, 0.06476619094610214, -0.14886786043643951], [0.1030917540192604, 0.3961503803730011, -0.467162549495697, 0.133585587143898, 0.413368821144104, 0.35335665941238403], [-0.5145314335823059, -0.14102376997470856, 0.14195162057876587, -0.2870633900165558, 0.290401816368103, 0.552540123462677], [-0.6384249329566956, -0.030258553102612495, -0.3594840168952942, 0.35842305421829224, 0.36101439595222473, 0.013934961520135403], [0.3279997408390045, -0.2907126247882843, 0.42564061284065247, 0.25196102261543274, 0.22140102088451385, -0.00399142736569047], [-0.28813448548316956, -0.2677713930606842, 0.5787644982337952, 0.14973783493041992, 0.39580193161964417, 0.4726833403110504], [-0.28378942608833313, 0.23045188188552856, 0.13698863983154297, -0.23156976699829102, 0.1937047839164734, 0.6671673059463501], [-0.06927741318941116, 0.21236176788806915, 0.39899972081184387, 0.15824800729751587, -0.010276968590915203, 0.27369534969329834]], "bias": [-0.007667866535484791, 0.05274719372391701, 0.028299542143940926, -0.016009539365768433, -0.148641437292099, -0.19927383959293365, -0.10678555816411972, -0.03195612132549286, -0.06813713163137436, 0.27155619859695435, 0.3499722182750702, 0.0008572110673412681, 0.3083670139312744, 0.17942088842391968, 0.022747009992599487]}]}, {"n_features": 15, "sizes": [6], "activation": "relu", "lr": 0.00390625, "parameters": [{"weight": [[-0.0662868320941925, -0.22249503433704376, -0.07733023166656494, -0.13389793038368225, 0.07063276320695877, 0.2708163261413574, -0.09752365946769714, -0.6527709364891052, -0.09010391682386398, -0.33473604917526245, -0.20962868630886078, -0.14716637134552002, -0.16803166270256042, 0.1324620097875595, 0.17345204949378967], [0.17661605775356293, -0.020354196429252625, -0.5233757495880127, 0.17487215995788574, 0.3935375213623047, -0.11524851620197296, -0.47991275787353516, -0.10534607619047165, 0.7205783724784851, -0.17282086610794067, -0.10887721180915833, -0.2676432430744171, -0.16626282036304474, 0.16240528225898743, 0.14353105425834656], [-0.20005439221858978, -0.3830379545688629, -0.18935585021972656, 0.009749732911586761, 0.10670527815818787, -0.3582502007484436, 0.13569310307502747, 0.034690845757722855, 0.45702803134918213, -0.1777353733778, 0.27532482147216797, 0.15136434137821198, -0.03756895288825035, 0.026242142543196678, 0.3591180145740509], [0.5241895318031311, -0.009844583459198475, -0.489662766456604, -0.2077200710773468, 0.2818740904331207, -0.28161299228668213, 0.054883893579244614, -0.07108307629823685, -0.10852184891700745, -0.38785526156425476, 0.41270142793655396, -0.3185564875602722, -0.33782345056533813, 0.2513101100921631, 0.4753928780555725], [-0.136511892080307, -0.2676871418952942, 0.5615794658660889, -0.17020545899868011, 0.15435703098773956, 0.031194061040878296, 0.34280532598495483, 0.3980637192726135, -0.1262059211730957, 0.3481166660785675, 0.5877483487129211, 0.06336327642202377, -0.2936170697212219, -0.21696653962135315, 0.2709120810031891], [0.11257889121770859, -0.042935870587825775, 0.24426162242889404, -0.006249849684536457, -0.33612579107284546, 0.49664103984832764, -0.41975727677345276, 0.29820767045021057, 0.30306705832481384, -0.12918788194656372, 0.0019246968440711498, 0.15773296356201172, 0.07124901562929153, 0.2658146023750305, 0.37286442518234253]], "bias": [0.9101999402046204, 1.115634560585022, 1.1296286582946777, 1.2768762111663818, 0.7515158653259277, 1.2980777025222778]}, {"weight": [[-0.6741047501564026, 0.23867766559123993, -0.6799874305725098, 0.507538378238678, -0.24594636261463165, 0.3217467665672302], [-0.5249730348587036, 0.298598051071167, -0.6605356931686401, 0.5706077218055725, -0.2068466693162918, 0.33684733510017395], [0.02852976880967617, 0.0034610144793987274, -0.008184559643268585, 0.010146135464310646, 0.007328141946345568, 0.006238343194127083], [-0.006225671619176865, -0.0007560868980363011, 0.0017906291177496314, -0.0022176511120051146, -0.0015871075447648764, -0.0013561671366915107], [-0.47046634554862976, 0.8718007206916809, 0.12344750016927719, -0.2930169701576233, 0.14049404859542847, 0.10588862746953964], [0.11800543963909149, 0.4098573923110962, -0.6963865160942078, -0.38492444157600403, 0.7041867971420288, 0.6377776861190796], [0.11845258623361588, 0.014416251331567764, -0.03391905501484871, 0.042084239423274994, 0.030167505145072937, 0.025793053209781647], [0.03041842021048069, 0.0037068556994199753, -0.0087173692882061, 0.010819188319146633, 0.007758960593491793, 0.006627619732171297], [-0.4228453040122986, 0.8777803778648376, 0.11000765115022659, -0.2760562300682068, 0.152535542845726, 0.11631693691015244], [-0.4764905869960785, 0.3410038650035858, -0.5261679291725159, -0.5875077843666077, 0.5589616894721985, 0.5048981308937073], [-1.3978458642959595, -0.2822869122028351, 0.35746055841445923, 0.31885334849357605, 0.7543946504592896, -0.13014715909957886], [-0.47920548915863037, -0.21183061599731445, 0.4931930899620056, -0.06281661242246628, -0.4133537709712982, 0.7669239640235901], [-0.7006961107254028, -0.2375369518995285, 0.5502888560295105, -0.15733064711093903, -0.44600287079811096, 0.702037513256073], [-0.35573357343673706, -0.20396575331687927, 0.44988712668418884, -0.014859044924378395, -0.38426488637924194, 0.7983397841453552], [-0.2704393267631531, -0.18802770972251892, 0.43488502502441406, 0.021864473819732666, -0.3261021375656128, 0.7914890646934509]], "bias": [0.23633845150470734, -0.1231391429901123, -0.04727373272180557, 0.010297561064362526, -0.5524301528930664, -0.644271969795227, -0.19597728550434113, -0.0503552220761776, -0.6317264437675476, 0.32228851318359375, 0.37937936186790466, -0.48500990867614746, -0.09927111864089966, -0.6784997582435608, -0.8481621146202087]}]}, {"n_features": 15, "sizes": [6], "activation": "relu", "lr": 0.0009765625, "parameters": [{"weight": [[-0.14949250221252441, -0.20000098645687103, -0.07733023166656494, -0.13389793038368225, 0.06306559592485428, 0.22900672256946564, -0.09752365946769714, -0.6527709364891052, -0.09930158406496048, -0.37441596388816833, -0.2573963701725006, -0.12827011942863464, -0.18437804281711578, 0.15480150282382965, 0.11571729928255081], [0.4588982164859772, -0.147413969039917, -0.5233757495880127, 0.17487215995788574, 0.19551876187324524, 0.08162453025579453, -0.47991275787353516, -0.10534607619047165, 0.5226113796234131, 0.13998951017856598, -0.2682799994945526, -0.27482882142066956, -0.19023637473583221, 0.20863626897335052, 0.26626110076904297], [-0.22256411612033844, -0.7962405681610107, -0.18935585021972656, 0.009749732911586761, -0.18005740642547607, 0.012880081310868263, 0.13569310307502747, 0.034690845757722855, 0.17009101808071136, 0.06414343416690826, -0.05051160603761673, 0.36789485812187195, 0.013588528148829937, 0.1627301573753357, 0.31497278809547424], [0.9546356797218323, -0.16615134477615356, -0.489662766456604, -0.2077200710773468, -0.06506866216659546, -0.2651350796222687, 0.054883893579244614, -0.07108307629823685, -0.4551863372325897, -0.3974325656890869, 0.1593436300754547, -0.3813793659210205, -0.0623864009976387, 0.21757443249225616, 0.7552042603492737], [-0.2815150022506714, -0.1867004781961441, 0.5615794658660889, -0.17020545899868011, 0.3158756196498871, 0.1364697366952896, 0.34280532598495483, 0.3980637192726135, 0.03525824844837189, 0.6615728735923767, 0.5546941757202148, -0.03233708068728447, -0.5700327157974243, -0.31053197383880615, 0.25646281242370605], [-0.06138559803366661, 0.37696707248687744, 0.24426162242889404, -0.006249849684536457, -0.25504639744758606, 0.34344226121902466, -0.41975727677345276, 0.29820767045021057, 0.3815332055091858, -0.28011584281921387, 0.02327275276184082, 0.2321462333202362, 0.3032180666923523, 0.2874576449394226, 0.23081979155540466]], "bias": [0.6798824071884155, 0.6505762934684753, 0.5242998003959656, 0.6305779218673706, 0.05613230913877487, 0.7003283500671387]}, {"weight": [[-0.8617808222770691, 0.5913928747177124, -0.2190420925617218, 0.4791695773601532, -0.28389737010002136, -0.17745859920978546], [-0.37291255593299866, 0.16229860484600067, -0.49186933040618896, 0.3678538203239441, 0.08865813910961151, 0.28772804141044617], [0.04278835654258728, -0.029506586492061615, -0.017363589257001877, 0.007829884067177773, 0.051372647285461426, 0.0373738631606102], [0.007142707239836454, -0.062143389135599136, -0.04454241693019867, -0.05071978643536568, 0.006337887607514858, 0.05152231082320213], [-0.15206533670425415, 0.6410675644874573, -0.09123144298791885, -0.36394116282463074, 0.16424012184143066, 0.2695896029472351], [0.30791428685188293, 0.4878777265548706, -0.192042738199234, -0.313782662153244, 0.35104435682296753, 0.3300848603248596], [0.2260758876800537, -0.0024412148632109165, -0.08829891681671143, -0.00037368963239714503, 0.02970391884446144, 0.07780352979898453], [0.054554231464862823, 0.018934465944767, -0.009139735251665115, 0.014221860095858574, 0.006044185254722834, 0.005902410950511694], [-0.03915627673268318, 0.5581789016723633, -0.16261202096939087, -0.37955769896507263, 0.25162699818611145, 0.37336233258247375], [-0.6580467820167542, 0.04750131070613861, 0.05205191671848297, -0.4390554130077362, 0.5115309953689575, 0.35710614919662476], [-0.8558973670005798, -0.40734925866127014, -9.640600183047354e-06, 0.18107697367668152, 0.4762776494026184, 0.1579248458147049], [-0.43558281660079956, 0.01786648854613304, 0.5072087049484253, 0.07458917051553726, -0.24817505478858948, 0.5056940913200378], [-0.6418779492378235, -0.2677401304244995, 0.4362601041793823, -0.1205669716000557, -0.17625883221626282, 0.6716567277908325], [-0.2106645107269287, -0.08053029328584671, 0.34320494532585144, -0.055383749306201935, -0.21692344546318054, 0.7314479947090149], [-0.20688901841640472, 0.09839267283678055, 0.45388710498809814, 0.10439199209213257, -0.24209606647491455, 0.5259020924568176]], "bias": [0.170572429895401, -0.12625539302825928, -0.05874277278780937, 0.07152978330850601, -0.2436290830373764, -0.5658917427062988, -0.1580597311258316, -0.06289856880903244, -0.3211258351802826, 0.17175142467021942, 0.4713831841945648, -0.40860170125961304, -0.03274529427289963, -0.4560830891132355, -0.6201004385948181]}]}, {"n_features": 15, "sizes": [6], "activation": "relu", "lr": 0.000244140625, "parameters": [{"weight": [[-0.2030285894870758, -0.21929484605789185, -0.07733023166656494, -0.13389793038368225, 0.10369507968425751, 0.3772594928741455, -0.09752365946769714, -0.6527709364891052, -0.059619273990392685, -0.2268775850534439, -0.10655742883682251, -0.05052699148654938, -0.10973163694143295, 0.23599496483802795, 0.19672991335391998], [0.06515341252088547, -0.30292245745658875, -0.5233757495880127, 0.17487215995788574, 0.4095839560031891, 0.2415630966424942, -0.47991275787353516, -0.10534607619047165, 0.7365016937255859, 0.29028642177581787, 0.03156334534287453, -0.13832640647888184, -0.033647652715444565, 0.3438208997249603, 0.40494343638420105], [-0.0005080988048575819, -0.5716747045516968, -0.18935585021972656, 0.009749732911586761, -0.16223658621311188, 0.09546428918838501, 0.13569310307502747, 0.034690845757722855, 0.18766054511070251, 0.15299220383167267, -0.32847750186920166, 0.4764726161956787, 0.14398489892482758, 0.2497459352016449, 0.3970007002353668], [0.9491282105445862, -0.21322230994701385, -0.489662766456604, -0.2077200710773468, 0.1574869453907013, 0.11080437898635864, 0.054883893579244614, -0.07108307629823685, -0.232988178730011, -0.04578360170125961, 0.1699819713830948, -0.2556789815425873, 0.11079952865839005, 0.35203009843826294, 0.9331080913543701], [-0.36452460289001465, -0.26268601417541504, 0.5615794658660889, -0.17020545899868011, 0.16760502755641937, 0.1353219449520111, 0.34280532598495483, 0.3980637192726135, -0.1129545345902443, 0.6435489654541016, 0.06178750470280647, 0.17509044706821442, -0.42116808891296387, -0.09945233911275864, 0.4371040165424347], [-0.06795857101678848, 0.4260331690311432, 0.24426162242889404, -0.006249849684536457, -0.13874368369579315, 0.3893628716468811, -0.41975727677345276, 0.29820767045021057, 0.49783602356910706, -0.23197580873966217, -0.12627378106117249, 0.22459529340267181, 0.33031418919563293, 0.27052080631256104, 0.21906757354736328]], "bias": [0.609102189540863, 0.06598901748657227, -0.07468411326408386, 0.3719538152217865, -0.11901997029781342, 0.21537958085536957]}, {"weight": [[-0.6185089349746704, 0.23609915375709534, -0.13908492028713226, 0.5336946249008179, -0.342510849237442, -0.2067568600177765], [-0.15833716094493866, -0.30576810240745544, -0.07695300877094269, 0.3795420527458191, 0.2561146318912506, 0.2475339025259018], [0.009555130265653133, -0.12003732472658157, -0.027831589803099632, 0.19287286698818207, 0.44544920325279236, -0.16579881310462952], [0.16628314554691315, -0.07765144854784012, 0.04037715122103691, -0.4258033335208893, -0.21891124546527863, 0.4983745813369751], [0.08570622652769089, 0.3700253665447235, -0.20586717128753662, 0.027593782171607018, -0.14267763495445251, 0.14758269488811493], [0.6877923607826233, 0.5051878690719604, -0.36371320486068726, -0.08042716234922409, -0.13592253625392914, -0.1960345208644867], [0.3815757930278778, -0.04059179872274399, -0.29046300053596497, -0.12450584769248962, -0.0727282166481018, 0.24114109575748444], [0.07519000768661499, 0.13521987199783325, -0.048123326152563095, 0.004061312880367041, 0.09181089699268341, -0.0629674643278122], [0.11022140085697174, 0.48853543400764465, -0.4674513638019562, -0.1550544798374176, 0.469133198261261, 0.3973206877708435], [-0.5979354977607727, -0.16314959526062012, 0.2774824798107147, -0.33011144399642944, 0.24727317690849304, 0.5104648470878601], [-0.5510536432266235, 0.05874849110841751, -0.40062013268470764, 0.2131384313106537, 0.38152459263801575, 0.11938586086034775], [0.17654381692409515, -0.2996165156364441, 0.470747709274292, 0.24577340483665466, -0.13049587607383728, 0.03401748090982437], [-0.413013219833374, -0.4001469910144806, 0.5736584067344666, 0.09483340382575989, 0.11667794734239578, 0.46722152829170227], [-0.265505313873291, 0.29497280716896057, 0.15081354975700378, -0.22040659189224243, 0.07216142863035202, 0.6724182367324829], [-0.09544425457715988, 0.20325948297977448, 0.3825600743293762, 0.14282244443893433, -0.3246993124485016, 0.19278953969478607]], "bias": [0.04717686399817467, -0.1404726803302765, -0.09088484197854996, 0.020667383447289467, -0.21819709241390228, -0.20067588984966278, -0.0749845802783966, -0.11477317661046982, -0.3256189525127411, 0.35665765404701233, 0.3741154074668884, -0.054950565099716187, 0.2431393414735794, -0.1927880346775055, -0.20655758678913116]}]}, {"n_features": 15, "sizes": [8], "activation": "tanh", "lr": 0.00390625, "parameters": [{"weight": [[-0.11625134944915771, 0.046297915279865265, -0.07389158755540848, -0.12794388830661774, 0.4057193696498871, 0.10065015405416489, -0.09318707883358002, -0.6237441897392273, 0.25002753734588623, -0.2549307942390442, -0.040508169680833817, -0.3559320569038391, 0.5934670567512512, 0.005477230064570904, -0.11201062798500061], [-0.13545803725719452, -0.005437267012894154, -0.5001028180122375, 0.1670961230993271, -0.16892696917057037, 0.03753078728914261, -0.45857250690460205, -0.10066165775060654, 0.14391005039215088, 0.01676187664270401, 0.08173000067472458, -0.25453075766563416, 0.10742208361625671, 0.13786864280700684, 0.4573768675327301], [0.01638072356581688, -0.1079929918050766, -0.18093577027320862, 0.00931619107723236, -0.15900111198425293, 0.2154073417186737, 0.1296592354774475, 0.03314824774861336, 0.1752554476261139, 0.3420739769935608, 0.023400183767080307, 0.26837092638015747, -0.16397123038768768, 0.13269758224487305, -0.10009093582630157], [0.19187980890274048, 0.10622283816337585, -0.4678889513015747, -0.19848337769508362, 0.24550758302211761, -0.03843894228339195, 0.05244337022304535, -0.06792222708463669, -0.12755708396434784, -0.08683008700609207, -0.5669952034950256, -0.24509970843791962, -0.05093849450349808, 0.1844477355480194, 0.26255327463150024], [-0.10391828417778015, 0.007065929938107729, 0.5366076827049255, -0.16263693571090698, 0.2529484033584595, -0.29352137446403503, 0.32756179571151733, 0.3803630471229553, -0.016585474833846092, 0.30491533875465393, -0.03917183727025986, 0.05678220093250275, -0.2892366945743561, -0.13467174768447876, -0.07002656906843185], [-0.29456543922424316, -0.05326828733086586, 0.3287777304649353, -0.04148174077272415, 0.019301725551486015, -0.07802329957485199, 0.20260006189346313, -0.2472057044506073, -0.21794991195201874, 0.15269377827644348, -0.19405847787857056, 0.2594708800315857, 0.25839483737945557, -0.09570647031068802, -0.2585808336734772], [-0.07382430136203766, 0.06148376315832138, -0.3081473708152771, -0.28205665946006775, -0.25129371881484985, 0.3079338073730469, 0.4853396713733673, -0.40109193325042725, -0.1645064800977707, 0.17668725550174713, -0.12055507302284241, -0.5030714273452759, 0.21150298416614532, 0.0350947342813015, -0.06378231197595596], [-0.09676788747310638, -0.3554705083370209, -0.3770873248577118, 0.027409523725509644, -0.15287812054157257, 0.008872679434716702, -0.21527111530303955, 0.40547654032707214, 0.23789823055267334, -0.0844246968626976, -0.13150827586650848, -0.09518151730298996, -0.28869858384132385, 0.16107210516929626, 0.16811586916446686]], "bias": [-0.04038434475660324, -0.014655220322310925, -0.10726059973239899, 0.02601885423064232, -0.039380237460136414, 0.03484940901398659, 0.05469473451375961, 0.12064945697784424]}, {"weight": [[-0.21453207731246948, -0.6293598413467407, 0.3095436096191406, 0.6008018851280212, -0.5679899454116821, -0.9780121445655823, -0.11588823050260544, -1.0350682735443115], [-0.13276351988315582, -0.12439584732055664, 0.05799908936023712, 0.5829352140426636, 0.010474289767444134, -0.6944953203201294, -0.0935937911272049, -1.458956003189087], [0.10654523968696594, -0.2276429533958435, 0.023870868608355522, -0.040717314928770065, -0.3348848223686218, -0.12412998825311661, 0.07184486836194992, 0.191297248005867], [-0.013104568235576153, 0.0897519662976265, -0.02834618091583252, 0.009187960997223854, 0.09170538187026978, 0.024332957342267036, 0.010920638218522072, -0.05359554663300514], [1.1329108476638794, -0.15335485339164734, 0.7007330656051636, 0.07621549069881439, 0.6972894668579102, -0.16319896280765533, -0.4532153308391571, -0.21252205967903137], [0.3537357747554779, 0.2880590260028839, 1.4214088916778564, 0.05451573431491852, 0.16594363749027252, -0.32235392928123474, 0.7945577502250671, -0.19034713506698608], [0.02110324800014496, -0.105412058532238, 0.02599160373210907, -0.020784132182598114, -0.045950643718242645, 0.07535182684659958, -0.03369751200079918, -0.03769252821803093], [-0.010599342174828053, 0.024540208280086517, -0.0034762080758810043, 0.0030564283952116966, 0.04052060842514038, 0.021817924454808235, -0.008900930173695087, -0.028886862099170685], [1.0361714363098145, 0.03008187934756279, 0.7171218991279602, 0.17262786626815796, 0.5348058342933655, -0.7296411991119385, -0.3250811994075775, 0.2754061222076416], [0.28140848875045776, 0.29562318325042725, 1.4572581052780151, 0.0553712360560894, 0.38331639766693115, -0.10504622757434845, 0.6550096869468689, -0.4127826690673828], [-0.04194262623786926, 0.4791969060897827, -0.10667284578084946, -1.47078275680542, -0.13856156170368195, -0.8693844676017761, -0.23598667979240417, -0.3573829233646393], [-0.12235251069068909, -0.02834819257259369, 0.9073632955551147, 0.2234317511320114, -1.3291430473327637, 0.4032987654209137, -1.0896031856536865, -0.006876503583043814], [0.33857229351997375, 1.1505780220031738, 0.10945027321577072, 0.18670417368412018, -0.6481994390487671, 0.6405338644981384, -0.23713767528533936, -0.672472357749939], [-0.3704686462879181, 0.5805099010467529, 0.8295798897743225, 0.3445718288421631, -0.6471459269523621, 0.5007064342498779, -1.1558713912963867, -0.3012159764766693], [0.023188984021544456, 1.5126651525497437, 0.18537986278533936, 0.33712875843048096, -0.48796141147613525, 0.10522646456956863, -0.31010663509368896, -0.26363497972488403]], "bias": [0.12844550609588623, 0.17211797833442688, -0.030579695478081703, 0.006238025613129139, 0.1804564893245697, 0.1506696194410324, 0.004064960405230522, 0.004142520017921925, 0.13069021701812744, 0.18466302752494812, 0.1037961021065712, 0.06810645014047623, 0.07400554418563843, 0.12152117490768433, 0.05505815148353577]}]}, {"n_features": 15, "sizes": [8], "activation": "tanh", "lr": 0.0009765625, "parameters": [{"weight": [[-0.13171006739139557, -0.10459678620100021, -0.07389158755540848, -0.12794388830661774, 0.3529352843761444, 0.35089874267578125, -0.09318707883358002, -0.6237441897392273, 0.19763608276844025, -0.20541757345199585, 0.21236437559127808, -0.2669465243816376, 0.48977792263031006, -0.01083686389029026, -0.05411963909864426], [0.019364340230822563, -0.19910553097724915, -0.5001028180122375, 0.1670961230993271, -0.10075213760137558, -0.018406802788376808, -0.45857250690460205, -0.10066165775060654, 0.2116795927286148, 0.017618680372834206, 0.1638483703136444, -0.15642783045768738, 0.1094936653971672, 0.3002176880836487, 0.4854208528995514], [0.0695427879691124, -0.2880859673023224, -0.18093577027320862, 0.00931619107723236, -0.03465723618865013, 0.2510210871696472, 0.1296592354774475, 0.03314824774861336, 0.29955410957336426, 0.31938913464546204, -0.0005039527313783765, 0.35816341638565063, -0.20958904922008514, 0.13701684772968292, 0.016904637217521667], [0.5630261898040771, -0.10503591597080231, -0.4678889513015747, -0.19848337769508362, 0.27032271027565, 0.09552155435085297, 0.05244337022304535, -0.06792222708463669, -0.10282258689403534, -0.05071147531270981, -0.9643908739089966, -0.3589988052845001, 0.10187247395515442, 0.166316956281662, 0.44657525420188904], [-0.14558500051498413, -0.02036120556294918, 0.5366076827049255, -0.16263693571090698, 0.43679341673851013, -0.315197616815567, 0.32756179571151733, 0.3803630471229553, 0.16876965761184692, 0.15862300992012024, -0.16758260130882263, 0.03600391000509262, -0.45255976915359497, -0.21936731040477753, -0.14253957569599152], [-0.2016078680753708, -0.32217270135879517, 0.3287777304649353, -0.04148174077272415, -8.849590085446835e-05, -0.14001914858818054, 0.20260006189346313, -0.2472057044506073, -0.237433061003685, 0.13347552716732025, -0.23081961274147034, 0.2980259358882904, 0.11538850516080856, -0.09498900175094604, 0.05828196182847023], [-0.2969433069229126, 0.23924101889133453, -0.3081473708152771, -0.28205665946006775, -0.6316478252410889, 0.6882184743881226, 0.4853396713733673, -0.40109193325042725, -0.539774477481842, 0.5849844217300415, -0.30800002813339233, -0.5357699394226074, -0.06232862174510956, 0.04938758164644241, -0.1770503968000412], [-0.16590715944766998, -0.5416017770767212, -0.3770873248577118, 0.027409523725509644, -0.1675528585910797, -0.035752471536397934, -0.21527111530303955, 0.40547654032707214, 0.22342245280742645, -0.07880448549985886, -0.2721908986568451, 0.09838678687810898, -0.07647933810949326, -0.181302011013031, -0.01066538505256176]], "bias": [0.30605706572532654, -0.03558499366044998, -0.0916907861828804, 0.012607421725988388, -0.18101710081100464, 0.12564337253570557, 0.22419509291648865, 0.1828024536371231]}, {"weight": [[-0.3502747118473053, -0.7349684238433838, 0.3846531808376312, 0.36120980978012085, -0.5516607761383057, -0.7005860209465027, -0.2762133777141571, -0.6904681921005249], [-0.04365989565849304, 0.021015778183937073, -0.23166468739509583, 0.3923596143722534, 0.00565850967541337, -0.48974791169166565, 0.03892608359456062, -1.0250205993652344], [0.20230944454669952, -0.27821439504623413, 0.049004096537828445, -0.03194412961602211, -0.378694087266922, -0.11259209364652634, 0.04579358175396919, 0.14759434759616852], [0.10521458089351654, 0.17634834349155426, -0.1682453155517578, 0.017193689942359924, 0.09528355300426483, 0.0389561653137207, 0.10491744428873062, -0.07833024114370346], [0.7879222631454468, -0.23135587573051453, 0.5373890399932861, 0.18956618010997772, 0.5988897681236267, -0.004900243133306503, -0.3501034379005432, -0.3310125768184662], [0.6240002512931824, 0.15660955011844635, 0.7423194646835327, 0.16456696391105652, 0.0297781340777874, -0.35668355226516724, 0.6635848879814148, -0.18480665981769562], [-0.17470327019691467, -0.17975102365016937, 0.19897732138633728, 0.008865599520504475, -0.010998880490660667, 0.032034438103437424, -0.1239059641957283, -0.0033829002641141415], [-0.040665242820978165, 0.03404446318745613, 0.009036226198077202, -0.008541279472410679, 0.07137488573789597, 0.06395149976015091, 0.002765093697234988, -0.0676737129688263], [0.49820226430892944, 0.060938432812690735, 0.6705405712127686, 0.20528987050056458, 0.34861430525779724, -0.8030664324760437, -0.3367237150669098, 0.3287448585033417], [0.3660207986831665, -0.06518708914518356, 1.0119197368621826, 0.11918004602193832, 0.16681502759456635, -0.08069442957639694, 0.46581292152404785, -0.38428738713264465], [0.3060697615146637, 0.3550582230091095, -0.13242734968662262, -0.9292815923690796, -0.24182870984077454, -0.6101039052009583, -0.025934021919965744, -0.21091097593307495], [-0.1544654369354248, -0.20268841087818146, 0.7557052969932556, 0.16924886405467987, -0.9973717927932739, 0.2886338233947754, -0.5784195065498352, 0.006075035780668259], [0.22858884930610657, 0.5753389596939087, 0.005039871670305729, 0.32958629727363586, -0.3730264902114868, 0.46404021978378296, -0.24553900957107544, -0.2890765964984894], [-0.3017469048500061, 0.5585616230964661, 0.5023361444473267, 0.16086508333683014, -0.49151429533958435, 0.3328743577003479, -0.3490479290485382, -0.2042323648929596], [-0.1937905102968216, 1.0286234617233276, 0.21751417219638824, 0.1325758546590805, -0.28179028630256653, 0.274903267621994, -0.050731509923934937, -0.2908836305141449]], "bias": [0.21928757429122925, 0.1846175342798233, -0.1323476880788803, -0.026348048821091652, 0.0276448056101799, -0.13837158679962158, 0.08091088384389877, 0.02633761428296566, 0.05481797456741333, -0.005957556888461113, 0.0015052431263029575, -0.0006585644441656768, -0.04802248999476433, 0.10331323742866516, 0.07173562049865723]}]}, {"n_features": 15, "sizes": [8], "activation": "tanh", "lr": 0.000244140625, "parameters": [{"weight": [[-0.16291938722133636, -0.1669267863035202, -0.07389158755540848, -0.12794388830661774, 0.4227175712585449, 0.3695506155490875, -0.09318707883358002, -0.6237441897392273, 0.26747480034828186, -0.20542995631694794, 0.2595965564250946, -0.059207484126091, 0.02136383205652237, 0.2118910402059555, 0.2049572914838791], [0.09227784723043442, -0.231075257062912, -0.5001028180122375, 0.1670961230993271, 0.06796091794967651, 0.02123578079044819, -0.45857250690460205, -0.10066165775060654, 0.3803858757019043, 0.06545175611972809, 0.022228162735700607, 0.07694901525974274, 0.2002052664756775, 0.5373051166534424, 0.6087676286697388], [0.190922811627388, -0.27855414152145386, -0.18093577027320862, 0.00931619107723236, -1.3779634173261002e-05, 0.2225220501422882, 0.1296592354774475, 0.03314824774861336, 0.33422428369522095, 0.28029677271842957, -0.09938682615756989, 0.28512895107269287, -0.05930795893073082, 0.0675281435251236, 0.18721485137939453], [0.898030698299408, -0.2115476429462433, -0.4678889513015747, -0.19848337769508362, 0.25388047099113464, 0.40940600633621216, 0.05244337022304535, -0.06792222708463669, -0.11906026303768158, 0.25766414403915405, -0.4145146608352661, -0.2871133089065552, 0.07948295772075653, 0.2946323752403259, 0.8391266465187073], [-0.24764542281627655, -0.15683452785015106, 0.5366076827049255, -0.16263693571090698, 0.08457513153553009, 0.17162759602069855, 0.32756179571151733, 0.3803630471229553, -0.18345476686954498, 0.6653092503547668, -0.004745161160826683, -0.030016938224434853, -0.6032677888870239, -0.29173266887664795, -0.2696476876735687], [-0.09108778834342957, -0.28504684567451477, 0.3287777304649353, -0.04148174077272415, 0.05794071778655052, -0.18278402090072632, 0.20260006189346313, -0.2472057044506073, -0.17940157651901245, 0.09266622364521027, -0.05631410703063011, 0.37940889596939087, 0.06168054789304733, 0.01887098141014576, 0.5138705372810364], [-0.3796810507774353, 0.16006876528263092, -0.3081473708152771, -0.28205665946006775, -0.2592809498310089, 0.22139030694961548, 0.4853396713733673, -0.40109193325042725, -0.16757020354270935, 0.24751420319080353, -0.5791206359863281, -0.6702449917793274, -0.23435087502002716, -0.08753763884305954, -0.37446537613868713], [0.03349439054727554, -0.45789122581481934, -0.3770873248577118, 0.027409523725509644, -0.3005916476249695, 0.07251386344432831, -0.21527111530303955, 0.40547654032707214, 0.09034883975982666, 0.03351036086678505, -0.13770604133605957, -0.05265803262591362, -0.11985144019126892, -0.3391830027103424, -0.12831151485443115]], "bias": [0.6372811794281006, 0.17609773576259613, 0.17523957788944244, -0.41480734944343567, -0.32056087255477905, 0.37852340936660767, 0.42422884702682495, 0.17087531089782715]}, {"weight": [[-0.3734176754951477, -0.6858024001121521, 0.6161077618598938, 0.24952448904514313, -0.6369879841804504, -0.4325728118419647, -0.2188708782196045, -0.26617711782455444], [-0.005812452174723148, 0.11193952709436417, -0.11747169494628906, 0.2126973420381546, 0.06908708810806274, -0.1980753391981125, 0.14254982769489288, -0.552215576171875], [0.04096103087067604, -0.17996367812156677, 0.35546618700027466, 0.0047284383326768875, -0.5355655550956726, -0.39424559473991394, 0.19975805282592773, -0.11357104033231735], [-0.0012408143375068903, 0.1682833880186081, -0.404494971036911, 0.0496649332344532, -0.013322606682777405, 0.08396802842617035, 0.14643093943595886, -0.17818187177181244], [0.5613511800765991, -0.2996934652328491, 0.3974502682685852, 0.21868282556533813, 0.276968777179718, -0.23276132345199585, 0.14082856476306915, -0.6203123927116394], [0.59886234998703, 0.05002034828066826, 0.4189869463443756, 0.4872508645057678, 0.14414475858211517, -0.30800318717956543, 0.40069156885147095, -0.0006626118556596339], [-0.07703359425067902, -0.355702668428421, 0.032500769942998886, 0.00024503495660610497, -0.019465016201138496, -0.30330535769462585, -0.163362056016922, -0.5244140028953552], [-0.1981571763753891, -0.07048695534467697, 0.1249866709113121, 0.02554977685213089, 0.07449299842119217, 0.141929030418396, 0.08370961248874664, -0.15680840611457825], [0.3474940061569214, 0.12461686134338379, 0.6203845739364624, 0.10097213834524155, 0.004844691604375839, -0.8079448342323303, -0.3504044711589813, 0.2894544303417206], [0.3103688061237335, -0.17425203323364258, 0.7533214092254639, 0.1501942127943039, 0.4932882487773895, 0.17772263288497925, 0.11806343495845795, -0.09074026346206665], [0.12344352155923843, 0.3697691261768341, -0.15210121870040894, -0.3059122562408447, -0.10504794865846634, -0.09004618227481842, -0.019928086549043655, 0.15429942309856415], [-0.1766662746667862, -0.33414003252983093, 0.6371710300445557, 0.11472064256668091, -0.660954475402832, 0.18623557686805725, -0.42906513810157776, 0.0007574434275738895], [0.3264380097389221, 0.17846094071865082, -0.011941497214138508, 0.29411324858665466, -0.07181540876626968, 0.2943194508552551, -0.18349872529506683, -0.053649187088012695], [-0.2557385563850403, 0.30294033885002136, 0.30121728777885437, 0.15411785244941711, -0.4294810891151428, 0.2705534100532532, -0.1291811317205429, -0.08720073848962784], [-0.25932785868644714, 0.5554362535476685, 0.18753200769424438, 0.05909691005945206, -0.32206299901008606, 0.04516834393143654, 0.1358945369720459, -0.5262910723686218]], "bias": [0.22518444061279297, 0.11423961818218231, -0.07125899940729141, 0.021933939307928085, -0.04043092951178551, -0.1972728967666626, 0.3302361071109772, 0.09728802740573883, 0.02867176942527294, -0.19951598346233368, -0.1497495025396347, -0.046300336718559265, -0.1324617564678192, 0.0482327975332737, 0.1433822363615036]}]}, {"n_features": 15, "sizes": [8], "activation": "relu", "lr": 0.00390625, "parameters": [{"weight": [[-0.19554302096366882, -0.1260409951210022, -0.07389158755540848, -0.12794388830661774, 0.558689296245575, -0.044358156621456146, -0.09318707883358002, -0.6237441897392273, 0.4032042920589447, -0.401174932718277, 0.03654953092336655, -0.2640485465526581, 0.16034089028835297, 0.023128708824515343, 0.20778855681419373], [-0.07571247965097427, -0.028537577018141747, -0.5001028180122375, 0.1670961230993271, -0.09029228240251541, 0.01500820741057396, -0.45857250690460205, -0.10066165775060654, 0.22212019562721252, 0.008720062673091888, 0.5640525221824646, -0.29330816864967346, 0.11411178112030029, 0.06114669144153595, 0.16484324634075165], [-0.040519434958696365, -0.07235119491815567, -0.18093577027320862, 0.00931619107723236, -0.08448611199855804, 0.2427038550376892, 0.1296592354774475, 0.03314824774861336, 0.2494504600763321, 0.3038630187511444, 0.10499352216720581, 0.17294016480445862, 0.01225018035620451, 0.015590313822031021, 0.04660096392035484], [1.143507719039917, 0.7791825532913208, -0.4678889513015747, -0.19848337769508362, 0.5004151463508606, -0.09156983345746994, 0.05244337022304535, -0.06792222708463669, 0.12667499482631683, -0.31961748003959656, -0.15780168771743774, -0.27148640155792236, 0.37692880630493164, 0.2480177879333496, 0.9600311517715454], [0.299086332321167, 0.3261386752128601, 0.5366076827049255, -0.16263693571090698, 0.31295767426490784, -0.058188047260046005, 0.32756179571151733, 0.3803630471229553, 0.04491528123617172, 0.22041554749011993, -0.10663110762834549, -0.10967088490724564, -0.6117057800292969, -0.4060099124908447, -0.33140048384666443], [-0.3351389169692993, -0.23635584115982056, 0.3287777304649353, -0.04148174077272415, -0.04288093000650406, -0.21206903457641602, 0.20260006189346313, -0.2472057044506073, -0.28024154901504517, 0.06321006268262863, 0.09401827305555344, 0.4023818075656891, 0.3485380709171295, 0.03128711134195328, 0.5203362703323364], [-0.2780085802078247, 0.22351694107055664, -0.3081473708152771, -0.28205665946006775, -0.11585196107625961, 0.27582308650016785, 0.4853396713733673, -0.40109193325042725, -0.023822028189897537, 0.14808277785778046, -0.19927656650543213, -0.6585730910301208, 0.33508920669555664, -0.0785469338297844, 0.3216494619846344], [-0.14349263906478882, -0.7113568782806396, -0.3770873248577118, 0.027409523725509644, -0.3241373598575592, 0.10635080188512802, -0.21527111530303955, 0.40547654032707214, 0.0668211355805397, 0.0679289922118187, 0.05883544310927391, 0.204535111784935, -0.3457152545452118, -0.10750981420278549, -0.335487425327301]], "bias": [0.9927686452865601, 0.5895829200744629, 0.8586208820343018, -0.15515950322151184, -0.4741004705429077, 0.4203978478908539, 0.6884407997131348, 0.09985069930553436]}, {"weight": [[-0.45656535029411316, 0.005479228682816029, 0.13305561244487762, 0.35252973437309265, 0.33032944798469543, -0.354636013507843, -0.38964253664016724, -0.7137916684150696], [-0.3177241086959839, 0.20677681267261505, -0.10529065132141113, 0.34568047523498535, 0.2797583341598511, -0.3276081681251526, -0.009058896452188492, -0.8544453382492065], [-0.0007311321096494794, -0.0025840098969638348, 0.0032483709510415792, -0.0004995089257135987, 0.00029879788053222, -0.0005341958603821695, -0.005594617687165737, 0.0004872235585935414], [0.004554732237011194, 0.017900360748171806, -0.01915137842297554, 0.0030732546001672745, -0.000941766775213182, 0.003814146388322115, 0.03156048804521561, -0.0014656891580671072], [0.7719128131866455, -0.18085241317749023, 0.7444210648536682, 0.06660838425159454, 0.26661592721939087, -0.28965267539024353, -0.17621998488903046, -0.16098709404468536], [-0.2221929132938385, -0.07530727237462997, 1.3143470287322998, -0.009390185587108135, 0.15955987572669983, -0.1937301903963089, 0.373578816652298, 0.028121210634708405], [-0.015596509911119938, -0.0647185668349266, 0.07063405960798264, -0.010542894713580608, 0.004192212130874395, -0.013058437965810299, -0.11455989629030228, 0.007284599356353283], [-6.215222558836331e-09, -2.406366128582249e-08, 2.252179243100727e-08, -4.8630055538012584e-09, -2.7345345432472357e-10, -6.211577030512672e-09, -4.0916937393831176e-08, -1.299882645966477e-09], [0.759763240814209, -0.2153303027153015, 0.7803402543067932, 0.05772627890110016, 0.26630181074142456, -0.2992238700389862, -0.24079549312591553, -0.1673821359872818], [-0.23291829228401184, -0.09113936871290207, 1.3358888626098633, -0.00980943813920021, 0.18755002319812775, -0.19139085710048676, 0.32130491733551025, 0.03403691574931145], [-0.3133259117603302, 1.641596794128418, 0.024385470896959305, -0.003374862251803279, 0.036867476999759674, -0.07644767314195633, -0.47992581129074097, -0.02141430787742138], [-0.05882800370454788, -0.3829210698604584, 0.6734583377838135, 0.12811017036437988, -0.4316960871219635, 0.49307459592819214, -0.6372337341308594, -0.29629024863243103], [0.05083899572491646, -0.039577193558216095, 0.21748068928718567, 0.18293747305870056, -0.4817821681499481, 0.5447536706924438, 0.16285419464111328, -0.40365633368492126], [-0.06784868240356445, -0.39025014638900757, 0.6724026799201965, 0.1321280598640442, -0.4405320882797241, 0.4897799491882324, -0.6294755339622498, -0.30071526765823364], [0.041016701608896255, -0.06343113631010056, 0.24688969552516937, 0.17824915051460266, -0.485605388879776, 0.533594012260437, 0.0751449316740036, -0.4030669927597046]], "bias": [0.788316011428833, 0.5293620824813843, 0.003804614534601569, -0.025252941995859146, -1.0410946607589722, -1.0398197174072266, 0.08692841976881027, 3.979149454380604e-08, -0.9762126803398132, -1.015283226966858, -0.2952237129211426, -0.040345318615436554, -0.526741623878479, -0.022369757294654846, -0.45049670338630676]}]}, {"n_features": 15, "sizes": [8], "activation": "relu", "lr": 0.0009765625, "parameters": [{"weight": [[-0.24668720364570618, -0.22061781585216522, -0.07389158755540848, -0.12794388830661774, 0.5388439297676086, 0.11236094683408737, -0.09318707883358002, -0.6237441897392273, 0.3835735619068146, -0.46539101004600525, -0.0367225706577301, -0.12907764315605164, 0.03850187361240387, 0.1394670158624649, 0.21972359716892242], [0.10345171391963959, -0.16451390087604523, -0.5001028180122375, 0.1670961230993271, -0.07161214202642441, 0.004131013061851263, -0.45857250690460205, -0.10066165775060654, 0.24084022641181946, 0.04162387549877167, 0.6103489398956299, -0.28255003690719604, -0.14567479491233826, 0.1721651554107666, 0.23881813883781433], [0.1916552037000656, -0.3669099807739258, -0.18093577027320862, 0.00931619107723236, -0.0452282652258873, 0.22625324130058289, 0.1296592354774475, 0.03314824774861336, 0.28894832730293274, 0.2891780734062195, 0.14319631457328796, 0.20058761537075043, -0.025518156588077545, -0.016276761889457703, 0.1541362702846527], [1.4096599817276, 0.4568755626678467, -0.4678889513015747, -0.19848337769508362, 0.32086312770843506, -0.10754700750112534, 0.05244337022304535, -0.06792222708463669, -0.05215567350387573, -0.24751514196395874, 0.2937905788421631, -0.08231299370527267, 0.32983601093292236, 0.4878937602043152, 1.005046010017395], [0.1500752568244934, 0.24269990622997284, 0.5366076827049255, -0.16263693571090698, 0.3104272484779358, -0.12223262339830399, 0.32756179571151733, 0.3803630471229553, 0.04237084463238716, 0.3888292908668518, -0.036239881068468094, -0.14072634279727936, -0.6012982726097107, -0.4150405824184418, -0.2895682752132416], [-0.1492939442396164, -0.31724366545677185, 0.3287777304649353, -0.04148174077272415, -0.04720192030072212, -0.19507789611816406, 0.20260006189346313, -0.2472057044506073, -0.2845180630683899, 0.08021019399166107, 0.15366770327091217, 0.4128148555755615, 0.13766102492809296, 0.027341021224856377, 0.6271993517875671], [-0.39536890387535095, 0.13227064907550812, -0.3081473708152771, -0.28205665946006775, -0.2613953649997711, 0.5040222406387329, 0.4853396713733673, -0.40109193325042725, -0.16951332986354828, 0.44508638978004456, -0.4316074550151825, -0.4673282206058502, 0.012596704997122288, 0.11934998631477356, -0.0818442851305008], [-0.028083911165595055, -0.5785176753997803, -0.3770873248577118, 0.027409523725509644, -0.36152949929237366, 0.044993896037340164, -0.21527111530303955, 0.40547654032707214, 0.029580822214484215, 0.005878841504454613, 0.0030217336025089025, -0.0182541124522686, -0.21434427797794342, -0.3127523958683014, -0.1903267502784729]], "bias": [0.827232837677002, 0.42836934328079224, 0.6289474368095398, 0.07467897236347198, -0.16080352663993835, 0.4513753056526184, 0.3930266797542572, 0.33683571219444275]}, {"weight": [[-0.6021347045898438, -0.2881014943122864, 0.3489667773246765, 0.2863025665283203, 0.3664921224117279, -0.42956969141960144, -0.4622734785079956, -0.5384828448295593], [-0.19579188525676727, 0.1919521540403366, -0.22619913518428802, 0.3511572778224945, 0.23600223660469055, -0.36547577381134033, 0.047123607248067856, -0.6146262288093567], [-0.012701351195573807, 0.03808886185288429, 0.01122219953685999, -0.013396196998655796, -0.11010928452014923, -0.053892698138952255, 0.05772564560174942, -0.029041660949587822], [0.04472588747739792, 0.15956231951713562, -0.17200158536434174, 0.001062704366631806, -0.04227744787931442, 0.02611193060874939, 0.1546635627746582, -0.06635264307260513], [0.753376305103302, -0.1514003723859787, 0.4690568149089813, 0.05613360181450844, 0.329781174659729, -0.4525149166584015, -0.047939643263816833, -0.44495901465415955], [-0.14085477590560913, 0.08213654905557632, 0.9648217558860779, -0.013079998083412647, 0.0774192363023758, -0.16447873413562775, 0.5778664350509644, -0.28580597043037415], [0.0032386858947575092, -0.2953548729419708, 0.07979219406843185, -0.013899654150009155, 0.006704399362206459, -0.11246281862258911, -0.11495490372180939, -0.09398198127746582], [-0.0010103501845151186, -0.0019205427961423993, 0.0017054458148777485, -0.0004628294555004686, -5.438275547930971e-05, -0.00087339011952281, -0.001797606935724616, -0.0006604183581657708], [0.5763006210327148, 0.02915659360587597, 0.7091570496559143, 0.0035623519215732813, 0.19614671170711517, -0.5297423005104065, -0.21691347658634186, -0.3020933270454407], [-0.23047702014446259, -0.08772183954715729, 1.1798344850540161, -0.014971229247748852, 0.2215331643819809, -0.1223306655883789, 0.345232218503952, -0.18496516346931458], [-0.3402445614337921, 1.4291348457336426, 0.032841023057699203, -0.034451644867658615, -0.061537738889455795, 0.0037778043188154697, -0.2873186767101288, -0.012788387946784496], [-0.084962397813797, -0.3608935475349426, 0.6092376708984375, 0.11792215704917908, -0.3800470232963562, 0.36393290758132935, -0.22967906296253204, -0.2310464084148407], [0.05195270851254463, -0.22536145150661469, 0.34206411242485046, 0.1391705721616745, -0.2894364297389984, 0.49577346444129944, -0.08253134787082672, -0.23496420681476593], [-0.011724459007382393, -0.26850414276123047, 0.37190482020378113, 0.11778507381677628, -0.3561900854110718, 0.4633420407772064, -0.06420916318893433, -0.35012486577033997], [0.04406244680285454, -0.09004699438810349, 0.15522198379039764, 0.09054746478796005, -0.4702174663543701, 0.41458645462989807, 0.13041099905967712, -0.5075104236602783]], "bias": [0.8303906321525574, 0.3140467703342438, 0.07563848048448563, -0.0502183623611927, -0.47929173707962036, -0.6324124336242676, 0.31949594616889954, 0.003319965908303857, -0.40311676263809204, -0.6424164175987244,