{"encoders": [{"n_features": 15, "sizes": [2], "activation": "tanh", "lr": 0.00390625, "parameters": [{"weight": [[-0.35489022731781006, -0.3639495074748993, -0.11688703298568726, -0.17975087463855743, 0.3216208517551422, 0.26740801334381104, -0.13933061063289642, -0.7564460039138794, 0.14105390012264252, -0.4032730460166931, 0.15084291994571686, 0.0745803713798523, 0.009993445128202438, 0.3933752477169037, -0.08033525198698044], [-0.007201401516795158, -0.17935973405838013, 0.041678763926029205, -0.13812081515789032, 0.11625003814697266, 0.1818050891160965, 0.06939978897571564, -0.25761672854423523, -0.763351321220398, -0.004101315978914499, 0.2403525859117508, -0.13084249198436737, -0.013477844186127186, 0.14790208637714386, 0.7582134008407593]], "bias": [-0.4695509672164917, -0.1048809140920639]}, {"weight": [[0.3307580351829529, 0.031685490161180496], [-0.11024904251098633, -0.12728218734264374], [0.15519261360168457, -0.10449947416782379], [0.039512716233730316, -0.12403764575719833], [0.5025521516799927, 1.1387850046157837], [-0.4939623475074768, -0.4537440836429596], [0.5930660963058472, -0.1575888842344284], [-0.06278727948665619, 0.2046017348766327], [-0.2561207115650177, -0.030832182615995407], [0.2603278160095215, -0.1682094782590866], [0.36391133069992065, 0.09203451871871948], [-0.05372972786426544, 0.7605445981025696], [-0.614438533782959, 0.01403346098959446], [-0.3276074230670929, -0.29694271087646484], [0.04248837009072304, 0.2749091386795044]], "bias": [0.5000401139259338, -0.03968324139714241, 0.0030223997309803963, -0.16690176725387573, 0.2530704140663147, 0.6805214881896973, 0.07578486949205399, -0.20943398773670197, -0.35751405358314514, -0.13967463374137878, 0.31059199571609497, -0.02067350037395954, -0.10453707724809647, -0.06529424339532852, 0.4575839638710022]}]}, {"n_features": 15, "sizes": [2], "activation": "tanh", "lr": 0.0009765625, "parameters": [{"weight": [[-0.37834489345550537, -0.3874383568763733, -0.09374331682920456, -0.15661431849002838, 0.29889029264450073, 0.24513135850429535, -0.11618705093860626, -0.7333094477653503, 0.11832443624734879, -0.42554616928100586, 0.12783117592334747, 0.09788479655981064, 0.033300794661045074, 0.416706919670105, -0.05701654031872749], [-0.03048098459839821, -0.2026560753583908, 0.01862454041838646, -0.16119767725467682, 0.0930071771144867, 0.15861362218856812, 0.046345055103302, -0.2806936800479889, -0.7865942120552063, -0.02729274518787861, 0.2639854848384857, -0.10719895362854004, 0.010167534463107586, 0.17150624096393585, 0.7818167805671692]], "bias": [-0.4927455186843872, -0.08301973342895508]}, {"weight": [[0.354173868894577, 0.05324949696660042], [-0.0868166983127594, -0.13985152542591095], [0.17855656147003174, -0.1277364194393158], [0.06269646435976028, -0.1466866433620453], [0.5140714049339294, 1.1619932651519775], [-0.5173807740211487, -0.4310844838619232], [0.6163574457168579, -0.18131738901138306], [-0.039807118475437164, 0.22785499691963196], [-0.2796548902988434, -0.0075004734098911285], [0.2810306251049042, -0.14501000940799713], [0.35145917534828186, 0.11505573242902756], [-0.07659213244915009, 0.782010555267334], [-0.6376164555549622, -0.009252727031707764], [-0.3506336212158203, -0.3202711343765259], [0.01930001750588417, 0.2513773739337921]], "bias": [0.5234566926956177, -0.016929617151618004, 0.01838642917573452, -0.19006235897541046, 0.2760356664657593, 0.7039249539375305, 0.05303949862718582, -0.2327144891023636, -0.3809060752391815, -0.16286601126194, 0.33384376764297485, 0.0018097477732226253, -0.08136165887117386, -0.04224735498428345, 0.48093992471694946]}]}, {"n_features": 15, "sizes": [2], "activation": "tanh", "lr": 0.000244140625, "parameters": [{"weight": [[-0.3842065632343292, -0.3933027982711792, -0.08789969235658646, -0.1507711410522461, 0.2930568754673004, 0.2393082231283188, -0.11034343391656876, -0.7274662256240845, 0.11249095946550369, -0.43136918544769287, 0.12199489772319794, 0.10373643785715103, 0.039152663201093674, 0.4225604236125946, -0.051163941621780396], [-0.03632929176092148, -0.2085048407316208, 0.012787706218659878, -0.1670352965593338, 0.08715803176164627, 0.15276676416397095, 0.0405082069337368, -0.2865312695503235, -0.7924433350563049, -0.033139582723379135, 0.26985257863998413, -0.10131058841943741, 0.016054607927799225, 0.17738504707813263, 0.7876953482627869]], "bias": [-0.49859270453453064, -0.07721047848463058]}, {"weight": [[0.3600316047668457, 0.059050220996141434], [-0.08095753192901611, -0.1362817883491516], [0.18439707159996033, -0.13358552753925323], [0.0685424655675888, -0.1525108814239502], [0.5197464823722839, 1.1678404808044434], [-0.5232387781143188, -0.42525604367256165], [0.6222079992294312, -0.18721669912338257], [-0.03396989777684212, 0.2337038666009903], [-0.2855798900127411, -0.0016468536341562867], [0.2868180572986603, -0.1391630470752716], [0.35462844371795654, 0.12089372426271439], [-0.08242610096931458, 0.787807047367096], [-0.6434618830680847, -0.0151036586612463], [-0.35647284984588623, -0.32612428069114685], [0.013453621417284012, 0.2455112785100937]], "bias": [0.5293146371841431, -0.011097315698862076, 0.018034737557172775, -0.19590725004673004, 0.281873494386673, 0.7097821235656738, 0.04720930755138397, -0.23856517672538757, -0.386762797832489, -0.16871263086795807, 0.33969646692276, 0.007631962653249502, -0.07551553845405579, -0.036406468600034714, 0.48679453134536743]}]}, {"n_features": 15, "sizes": [2], "activation": "relu", "lr": 0.00390625, "parameters": [{"weight": [[-0.35537081956863403, -0.3644982576370239, -0.05538304150104523, -0.11825450509786606, 0.32043588161468506, 0.2535206973552704, -0.07782678306102753, -0.6949495077133179, 0.13985323905944824, -0.41737523674964905, 0.08947707712650299, 0.07493700832128525, 0.010382157750427723, 0.39383429288864136, -0.07981984317302704], [-0.008034732192754745, -0.181100532412529, 0.04163825884461403, -0.1381779909133911, 0.11584073305130005, 0.18128639459609985, 0.06935890763998032, -0.2576739192008972, -0.7637606263160706, -0.004620117135345936, 0.24059465527534485, -0.13026127219200134, -0.012941336259245872, 0.14827919006347656, 0.7586297392845154]], "bias": [-0.5311118364334106, -0.10602845996618271]}, {"weight": [[0.3311736285686493, 0.03018966317176819], [-0.10999979823827744, -0.10378845781087875], [0.1556595116853714, -0.1041012704372406], [0.10066784918308258, -0.12380082905292511], [0.49155446887016296, 1.1389667987823486], [-0.5545386672019958, -0.45436421036720276], [0.5935578346252441, -0.21632547676563263], [-0.001323622651398182, 0.26270046830177307], [-0.2564070224761963, 0.02945895493030548], [0.3202875852584839, -0.16799771785736084], [0.3260200023651123, 0.09202062338590622], [-0.11401990056037903, 0.7712310552597046], [-0.6148895621299744, 0.013855919241905212], [-0.3277580142021179, -0.29714685678482056], [-0.019257301464676857, 0.24677960574626923]], "bias": [0.5000971555709839, 0.018446071073412895, -0.014188994653522968, -0.16686752438545227, 0.25274816155433655, 0.6804909706115723, 0.014678752981126308, -0.2094549834728241, -0.3575827181339264, -0.13960479199886322, 0.31057503819465637, -0.02136903628706932, -0.047221388667821884, -0.003945683129131794, 0.4575675427913666]}]}, {"n_features": 15, "sizes": [2], "activation": "relu", "lr": 0.0009765625, "parameters": [{"weight": [[-0.37837839126586914, -0.38747403025627136, -0.07820215076208115, -0.14107362926006317, 0.2989003360271454, 0.23583632707595825, -0.10064589232206345, -0.717768669128418, 0.11833316832780838, -0.43493959307670593, 0.11229733377695084, 0.09792940318584442, 0.033348362892866135, 0.4167543053627014, -0.05696040764451027], [-0.03056611679494381, -0.2027403861284256, 0.018619123846292496, -0.16120371222496033, 0.09297420084476471, 0.15857253968715668, 0.046339623630046844, -0.280699759721756, -0.7866271138191223, -0.02733382023870945, 0.26400941610336304, -0.10716509073972702, 0.010197865776717663, 0.17152631282806396, 0.7818370461463928]], "bias": [-0.5082911252975464, -0.08304240554571152]}, {"weight": [[0.3541948199272156, 0.053211044520139694], [-0.08680553734302521, -0.1265871673822403], [0.17857006192207336, -0.12766224145889282], [0.07825817912817001, -0.14667923748493195], [0.5139201283454895, 1.1620028018951416], [-0.5329833030700684, -0.431104451417923], [0.6163850426673889, -0.19687286019325256], [-0.02425912581384182, 0.24333186447620392], [-0.2797482907772064, 0.00805234257131815], [0.29656991362571716, -0.1449890434741974], [0.34875738620758057, 0.11505529284477234], [-0.09212835133075714, 0.782181978225708], [-0.6376383304595947, -0.009261440485715866], [-0.3506430983543396, -0.320281058549881], [0.0037182793021202087, 0.23722772300243378]], "bias": [0.5234600901603699, -0.0014271961990743876, 0.008416367694735527, -0.1900610327720642, 0.27602294087409973, 0.7039228081703186, 0.037476956844329834, -0.23271583020687103, -0.38091033697128296, -0.16286247968673706, 0.33384692668914795, 0.0017866952111944556, -0.06586674600839615, -0.026675403118133545, 0.4809396266937256]}]}, {"n_features": 15, "sizes": [2], "activation": "relu", "lr": 0.000244140625, "parameters": [{"weight": [[-0.3842082917690277, -0.393304705619812, -0.08399614691734314, -0.14686761796474457, 0.293053537607193, 0.23538754880428314, -0.10643988847732544, -0.7235626578330994, 0.11248765140771866, -0.4352914094924927, 0.11809156090021133, 0.10373669117689133, 0.039152972400188446, 0.4225608706474304, -0.05116356164216995], [-0.03633005544543266, -0.20850567519664764, 0.012788252905011177, -0.16703477501869202, 0.08715764433145523, 0.15276643633842468, 0.04050874710083008, -0.2865307629108429, -0.7924436926841736, -0.033139921724796295, 0.26985281705856323, -0.10130660235881805, 0.016058392822742462, 0.17738768458366394, 0.7876980900764465]], "bias": [-0.5024967789649963, -0.07721222192049026]}, {"weight": [[0.3600328266620636, 0.059048332273960114], [-0.08095690608024597, -0.13241921365261078], [0.18439778685569763, -0.13357996940612793], [0.07244494557380676, -0.15251046419143677], [0.5197408199310303, 1.1678409576416016], [-0.5271444916725159, -0.4252570867538452], [0.6222097873687744, -0.1911202371120453], [-0.03006887622177601, 0.23760227859020233], [-0.28558817505836487, 0.0022554676979780197], [0.29071858525276184, -0.13916155695915222], [0.3545816242694855, 0.12089371681213379], [-0.08632740378379822, 0.7878133654594421], [-0.6434632539749146, -0.01510416530072689], [-0.356473445892334, -0.326124906539917], [0.009549906477332115, 0.24163652956485748]], "bias": [0.5293149352073669, -0.007197490427643061, 0.014242812991142273, -0.19590714573860168, 0.28187280893325806, 0.7097820043563843, 0.04330666735768318, -0.23856525123119354, -0.3867631256580353, -0.16871243715286255, 0.3396967351436615, 0.007630739826709032, -0.07161575555801392, -0.032503314316272736, 0.48679450154304504]}]}, {"n_features": 15, "sizes": [3], "activation": "tanh", "lr": 0.00390625, "parameters": [{"weight": [[-0.34392836689949036, -0.35278573632240295, -0.11392000317573547, -0.17495101690292358, 0.25175508856773376, 0.1995178908109665, -0.13572996854782104, -0.7353977560997009, 0.07627661526203156, -0.45226356387138367, 0.08510039001703262, 0.07722058147192001, 0.009994007647037506, 0.3851298391819, 0.34430742263793945], [-0.051309578120708466, -0.4197525978088379, -0.5959104895591736, 0.15837107598781586, 0.23322340846061707, 0.16834814846515656, -0.5489634871482849, -0.1442989706993103, 0.5863893032073975, 0.21879816055297852, -0.2261490374803543, -0.026698267087340355, 0.09226041287183762, 0.49426737427711487, -0.19511917233467102], [0.3437361717224121, 0.1939409226179123, -0.19460882246494293, 0.32069090008735657, 0.3831034004688263, 0.09052141010761261, -0.04702414944767952, -0.0724874883890152, -0.4956800937652588, 0.6001215577125549, -0.11770349740982056, 0.216850146651268, 0.4758230447769165, 1.1671816110610962, -0.5417317748069763]], "bias": [-0.27564361691474915, -0.21823467314243317, -1.2886673212051392]}, {"weight": [[0.824622631072998, -0.1880352646112442, 0.1014709398150444], [0.4719599485397339, 0.6628772020339966, 0.5379400253295898], [0.762538492679596, -0.38921406865119934, 0.34144288301467896], [-0.07733399420976639, 0.23749768733978271, 0.07847311347723007], [-0.22288954257965088, -0.5018596649169922, 0.037362296134233475], [-0.21977385878562927, -0.10223578661680222, 0.3773830533027649], [0.08855888247489929, -0.031026355922222137, -0.20880426466464996], [0.3586343824863434, 0.10035927593708038, 0.6160932779312134], [-0.2887817919254303, 0.04236003756523132, 0.20598234236240387], [-0.481025367975235, -0.10641772300004959, 0.006793661508709192], [-0.042180296033620834, 0.28961867094039917, 0.08528111129999161], [-0.27613937854766846, 0.012571906670928001, -0.20274809002876282], [0.3765970468521118, 0.6096978783607483, -0.10313472896814346], [0.07255037128925323, 0.35761845111846924, 0.33903032541275024], [0.44672998785972595, 0.4275400936603546, 0.25117892026901245]], "bias": [0.04889201000332832, 0.18405383825302124, 0.23820288479328156, 0.05037606135010719, -0.12459196895360947, 0.1383165717124939, -0.39293724298477173, 0.10884204506874084, -0.2209731638431549, -0.03728904575109482, -0.008314785547554493, -0.03789837285876274, 0.13576894998550415, 0.18858259916305542, 0.2733900249004364]}]}, {"n_features": 15, "sizes": [3], "activation": "tanh", "lr": 0.0009765625, "parameters": [{"weight": [[-0.3674602210521698, -0.37630173563957214, -0.09130264073610306, -0.1524006873369217, 0.27509617805480957, 0.22286225855350494, -0.11311398446559906, -0.7128476500511169, 0.09961772710084915, -0.4289190471172333, 0.10881555825471878, 0.09500383585691452, 0.03217613697052002, 0.4048154056072235, 0.3645164668560028], [-0.07461803406476974, -0.4430762231349945, -0.5730893611907959, 0.18111005425453186, 0.25668826699256897, 0.19179952144622803, -0.5261438488960266, -0.12156021595001221, 0.6098542809486389, 0.2422495037317276, -0.20297248661518097, -0.049989648163318634, 0.06896854937076569, 0.4709327220916748, -0.2184387743473053], [0.3205520808696747, 0.17075517773628235, -0.21660059690475464, 0.2987062931060791, 0.35960501432418823, 0.0670950785279274, -0.06901576370000839, -0.09447209537029266, -0.5191787481307983, 0.5766947865486145, -0.14093869924545288, 0.24019980430603027, 0.4991852641105652, 1.1446099281311035, -0.5182134509086609]], "bias": [-0.29850682616233826, -0.2412237673997879, -1.3118896484375]}, {"weight": [[0.8479397296905518, -0.16548220813274384, 0.1043839305639267], [0.49523743987083435, 0.6861810088157654, 0.5611066818237305], [0.7856617569923401, -0.38273727893829346, 0.36387553811073303], [-0.054667260497808456, 0.26078176498413086, 0.1014263778924942], [-0.24578244984149933, -0.525219738483429, 0.01397097297012806], [-0.2423659861087799, -0.12554028630256653, 0.35428082942962646], [0.11159418523311615, -0.008866038173437119, -0.18593226373195648], [0.3817669153213501, 0.12369503080844879, 0.6393522024154663], [-0.31106460094451904, 0.018985863775014877, 0.22890770435333252], [-0.5039739012718201, -0.12975344061851501, -0.016501184552907944], [-0.019120987504720688, 0.31302955746650696, 0.10858514904975891], [-0.29935458302497864, -0.010916218161582947, -0.22603756189346313], [0.3533591032028198, 0.6327994465827942, -0.12638068199157715], [0.04911225661635399, 0.3804762661457062, 0.3156030774116516], [0.45487889647483826, 0.4505557119846344, 0.2276957929134369]], "bias": [0.02585209161043167, 0.16085965931415558, 0.2160567343235016, 0.07409030944108963, -0.10261506587266922, 0.15867550671100616, -0.416172593832016, 0.08562371134757996, -0.24429373443126678, -0.01435566321015358, -0.031465526670217514, -0.014711681753396988, 0.15901298820972443, 0.16542139649391174, 0.26500388979911804]}]}, {"n_features": 15, "sizes": [3], "activation": "tanh", "lr": 0.000244140625, "parameters": [{"weight": [[-0.3733263611793518, -0.3821665942668915, -0.08547715842723846, -0.1465771645307541, 0.2809506356716156, 0.2287169098854065, -0.10728855431079865, -0.7070239782333374, 0.1054721474647522, -0.4230644702911377, 0.1147056445479393, 0.10076315701007843, 0.03799628093838692, 0.41060319542884827, 0.370309442281723], [-0.08047299832105637, -0.4489316940307617, -0.5672613978385925, 0.1869329810142517, 0.2625495493412018, 0.19765996932983398, -0.5203160047531128, -0.11573730409145355, 0.615715503692627, 0.24810995161533356, -0.1971185803413391, -0.055845994502305984, 0.06311231106519699, 0.46507522463798523, -0.2242957353591919], [0.3147059679031372, 0.16490896046161652, -0.22241279482841492, 0.2928942143917084, 0.3537394106388092, 0.06123460829257965, -0.07482799142599106, -0.10028417408466339, -0.5250443816184998, 0.5708343982696533, -0.14678670465946198, 0.24605411291122437, 0.5050402879714966, 1.1387853622436523, -0.5123482346534729]], "bias": [-0.3043403923511505, -0.2470635026693344, -1.317737102508545]}, {"weight": [[0.8537917137145996, -0.15965765714645386, 0.10990923643112183], [0.50108802318573, 0.6920326352119446, 0.5669517517089844], [0.7915037870407104, -0.37714314460754395, 0.3696957230567932], [-0.04884151741862297, 0.2666320502758026, 0.10725387930870056], [-0.2516174614429474, -0.5310745239257812, 0.00811509694904089], [-0.24819116294384003, -0.1313922256231308, 0.3484393060207367], [0.1174325942993164, -0.0030517801642417908, -0.18009844422340393], [0.387610524892807, 0.12954820692539215, 0.6452015042304993], [-0.31688281893730164, 0.013130166567862034, 0.2347438633441925], [-0.5098106861114502, -0.13560697436332703, -0.02235226519405842], [-0.013280775398015976, 0.31888651847839355, 0.1144367903470993], [-0.30520161986351013, -0.016778314486145973, -0.23188865184783936], [0.3475143611431122, 0.6386420726776123, -0.13222941756248474], [0.04325385391712189, 0.3863096833229065, 0.30974429845809937], [0.46048882603645325, 0.45639416575431824, 0.2218305617570877]], "bias": [0.020013529807329178, 0.15501298010349274, 0.210243359208107, 0.07999278604984283, -0.09680492430925369, 0.16445501148700714, -0.42202088236808777, 0.07977598905563354, -0.2501465082168579, -0.008519405499100685, -0.03731008619070053, -0.008865466341376305, 0.1648615002632141, 0.15957579016685486, 0.25939515233039856]}]}, {"n_features": 15, "sizes": [3], "activation": "relu", "lr": 0.00390625, "parameters": [{"weight": [[-0.3441692888736725, -0.35294878482818604, -0.052739277482032776, -0.1138242855668068, 0.2530111074447632, 0.20114019513130188, -0.07455035299062729, -0.6742711067199707, 0.07753235101699829, -0.4506438076496124, 0.08534983545541763, 0.07308998703956604, 0.009809881448745728, 0.3821583092212677, 0.34200990200042725], [-0.0511593222618103, -0.41960379481315613, -0.534332275390625, 0.2198794037103653, 0.233494371175766, 0.16859683394432068, -0.48738640546798706, -0.08279084414243698, 0.5866604447364807, 0.21904684603214264, -0.22644077241420746, -0.026510389521718025, 0.09244644641876221, 0.49437111616134644, -0.19495227932929993], [0.28272122144699097, 0.132831871509552, -0.1932072937488556, 0.32211023569107056, 0.38260018825531006, 0.09012509882450104, -0.04562225192785263, -0.07106813788414001, -0.49618324637413025, 0.5997249484062195, -0.1181010752916336, 0.21730872988700867, 0.47628673911094666, 1.1061477661132812, -0.5410823225975037]], "bias": [-0.3369968831539154, -0.27988988161087036, -1.3503632545471191]}, {"weight": [[0.8248080611228943, -0.1725083440542221, 0.1432550847530365], [0.4721963107585907, 0.6631144881248474, 0.5414814352989197], [0.7626411318778992, -0.34448522329330444, 0.3411470055580139], [-0.07717303186655045, 0.2377895563840866, 0.07957690209150314], [-0.2233063131570816, -0.5020379424095154, 0.036323145031929016], [-0.24283382296562195, -0.10230172425508499, 0.31571534276008606], [0.15008023381233215, 0.029795801267027855, -0.14724333584308624], [0.35898032784461975, 0.10078512877225876, 0.6165142059326172], [-0.28830549120903015, 0.042201366275548935, 0.20626020431518555], [-0.48147979378700256, -0.10656758397817612, -0.0015544319758191705], [-0.04018170014023781, 0.2900444269180298, 0.08535226434469223], [-0.2762075364589691, -0.048712752759456635, -0.20289643108844757], [0.3203312158584595, 0.6097394824028015, -0.1031883955001831], [0.07257667183876038, 0.35746151208877563, 0.33885806798934937], [0.4331003725528717, 0.4274848699569702, 0.25098514556884766]], "bias": [-0.012312072329223156, 0.12202805280685425, 0.17720024287700653, 0.051002584397792816, -0.06396064162254333, 0.13522998988628387, -0.3928331732749939, 0.04688653349876404, -0.2210593968629837, 0.023189421743154526, -0.007996847853064537, -0.034026309847831726, 0.13572575151920319, 0.12655219435691833, 0.226349338889122]}]}, {"n_features": 15, "sizes": [3], "activation": "relu", "lr": 0.0009765625, "parameters": [{"weight": [[-0.36747705936431885, -0.37630900740623474, -0.07575353235006332, -0.1368529498577118, 0.27521228790283203, 0.22301192581653595, -0.09756489843130112, -0.6972998976707458, 0.09973379224538803, -0.42876961827278137, 0.10885858535766602, 0.09494246542453766, 0.03216991573572159, 0.4047914147377014, 0.3644874393939972], [-0.07462725788354874, -0.4430849850177765, -0.557512640953064, 0.1966812014579773, 0.25670430064201355, 0.1918146163225174, -0.5105672478675842, -0.10598905384540558, 0.6098703145980835, 0.24226459860801697, -0.20296351611614227, -0.050000011920928955, 0.06895852088928223, 0.4709233343601227, -0.21844929456710815], [0.30498945713043213, 0.15518975257873535, -0.2165566384792328, 0.29875099658966064, 0.3595759868621826, 0.06707266718149185, -0.06897179037332535, -0.09442736208438873, -0.5192078948020935, 0.5766725540161133, -0.14095576107501984, 0.24022120237350464, 0.499207079410553, 1.1290489435195923, -0.5181800723075867]], "bias": [-0.31406137347221375, -0.25681331753730774, -1.3274743556976318]}, {"weight": [[0.8479490280151367, -0.16519027948379517, 0.11967474967241287], [0.49525055289268494, 0.6861929893493652, 0.5612037777900696], [0.7856654524803162, -0.3674028217792511, 0.3638676702976227], [-0.0546557679772377, 0.2607956528663635, 0.10145801305770874], [-0.2458048015832901, -0.525229275226593, 0.013908960856497288], [-0.24303320050239563, -0.12554393708705902, 0.33869850635528564], [0.12716729938983917, 0.006691304501146078, -0.17035380005836487], [0.3817833364009857, 0.12371795624494553, 0.639371395111084], [-0.31105825304985046, 0.018977077677845955, 0.2289218008518219], [-0.5039969086647034, -0.1297617405653, -0.016685442999005318], [-0.01905466429889202, 0.313056081533432, 0.10858934372663498], [-0.29935771226882935, -0.0265105701982975, -0.22604510188102722], [0.33791792392730713, 0.6328016519546509, -0.12638214230537415], [0.049117930233478546, 0.3804705739021301, 0.3155948221683502], [0.4546954035758972, 0.4505535066127777, 0.22768336534500122]], "bias": [0.01028824970126152, 0.14526046812534332, 0.20048962533473969, 0.07415313273668289, -0.08706084638834, 0.15859454870224, -0.41616731882095337, 0.07002784311771393, -0.2442985475063324, 0.0011901778634637594, -0.0314435139298439, -0.014630164951086044, 0.1590108871459961, 0.14982110261917114, 0.24964836239814758]}]}, {"n_features": 15, "sizes": [3], "activation": "relu", "lr": 0.000244140625, "parameters": [{"weight": [[-0.3733273148536682, -0.38216733932495117, -0.08157399296760559, -0.1426740437746048, 0.28095152974128723, 0.22871774435043335, -0.10338538885116577, -0.7031209468841553, 0.10547301173210144, -0.42306357622146606, 0.11470713466405869, 0.1007617861032486, 0.037996869534254074, 0.4106011986732483, 0.3703082799911499], [-0.08047361671924591, -0.4489322304725647, -0.5633582472801208, 0.19083569943904877, 0.2625505030155182, 0.1976608783006668, -0.5164128541946411, -0.1118345782160759, 0.6157165169715881, 0.24811086058616638, -0.1971179097890854, -0.05584670603275299, 0.06311161816120148, 0.4650745689868927, -0.2242964506149292], [0.31080323457717896, 0.16100609302520752, -0.22241057455539703, 0.2928965389728546, 0.35373756289482117, 0.061233192682266235, -0.07482575625181198, -0.10028192400932312, -0.5250462889671326, 0.5708329081535339, -0.1467876434326172, 0.24605534970760345, 0.5050414800643921, 1.1348826885223389, -0.5123463869094849]], "bias": [-0.3082440495491028, -0.25096768140792847, -1.3216410875320435]}, {"weight": [[0.8537922501564026, -0.15964727103710175, 0.11380414664745331], [0.5010888576507568, 0.6920334100723267, 0.5669564008712769], [0.7915040254592896, -0.3732483685016632, 0.36969536542892456], [-0.04884085804224014, 0.2666328251361847, 0.10725528746843338], [-0.2516186833381653, -0.5310751795768738, 0.008111581206321716], [-0.24820993840694427, -0.1313924640417099, 0.34453561902046204], [0.1213357076048851, 0.0008506251033395529, -0.17619498074054718], [0.3876114785671234, 0.1295495331287384, 0.6452025175094604], [-0.3168826103210449, 0.013129634782671928, 0.23474474251270294], [-0.5098119378089905, -0.13560748100280762, -0.02236044779419899], [-0.01327732764184475, 0.3188880383968353, 0.1144370436668396], [-0.30520185828208923, -0.02068275772035122, -0.23188908398151398], [0.3436169922351837, 0.6386422514915466, -0.1322294920682907], [0.043254248797893524, 0.3863093852996826, 0.3097437918186188], [0.46048277616500854, 0.4563940763473511, 0.22182978689670563]], "bias": [0.01611081324517727, 0.1511082798242569, 0.20634035766124725, 0.07999730855226517, -0.09290263801813126, 0.16445091366767883, -0.4220205545425415, 0.07587148994207382, -0.250146746635437, -0.004617574159055948, -0.037308745086193085, -0.008861489593982697, 0.16486136615276337, 0.15567103028297424, 0.25549957156181335]}]}, {"n_features": 15, "sizes": [4], "activation": "tanh", "lr": 0.00390625, "parameters": [{"weight": [[-0.3338351249694824, -0.3424755036830902, -0.11218379437923431, -0.1716611087322235, 0.2442239224910736, 0.19338494539260864, -0.13341361284255981, -0.7171599864959717, 0.07342562079429626, -0.441012442111969, 0.14452894032001495, 0.06897816061973572, 0.007868656888604164, 0.3705883324146271, 0.3313356637954712], [-0.1112123653292656, -0.4697546660900116, -0.581765353679657, 0.15231719613075256, 0.22668667137622833, 0.16411074995994568, -0.5360720157623291, -0.14228036999702454, 0.5704330205917358, 0.21321456134319305, -0.1584642380475998, -0.08762089908123016, 0.02816346287727356, 0.4194459617137909, 0.4833204448223114], [0.33841603994369507, -0.24231897294521332, -0.1680648773908615, 0.04125995561480522, -0.1908503621816635, 0.049581531435251236, 0.17366395890712738, 0.06748092174530029, 0.17689566314220428, 0.11211511492729187, -0.002528937766328454, 0.22632744908332825, -0.12477991729974747, -0.01382354274392128, 0.16200701892375946], [0.4690139591693878, 0.1333920806646347, -0.1609385460615158, -0.15387095510959625, 0.2671741545200348, 0.32909318804740906, 0.4493081569671631, -0.4545214772224426, -0.09419303387403488, 0.11324009299278259, 0.40156370401382446, -0.4975055456161499, -0.14723284542560577, -0.12452215701341629, -0.13097220659255981]], "bias": [0.16752102971076965, -0.4903729259967804, -0.051373306661844254, 0.13713856041431427]}, {"weight": [[0.24198701977729797, -0.1191808357834816, 0.36868053674697876, 0.14738227427005768], [-0.0323270782828331, -0.14244583249092102, 0.41048359870910645, 0.15910787880420685], [-0.3081018328666687, -0.2794055640697479, 0.04121622443199158, 0.199307382106781], [-0.4670475721359253, -0.10292232036590576, 0.3434038460254669, 0.49605274200439453], [-0.8169847130775452, -0.5193159580230713, -0.043570734560489655, 0.12184635549783707], [-0.007533596828579903, 0.3923960328102112, 0.1224002093076706, 0.1720554381608963], [0.11735501885414124, -0.2495381236076355, 0.2843189835548401, -0.2696816325187683], [0.09625441581010818, -0.07834798097610474, -0.1084989681839943, 0.09500535577535629], [0.321586549282074, 0.14442308247089386, -0.2681993246078491, 0.012911664322018623], [-0.20678681135177612, 0.367369145154953, -0.16533075273036957, -0.3837422728538513], [0.04158481955528259, 0.3468151390552521, 0.2686305344104767, 0.48158425092697144], [-0.05335883051156998, 0.06950311362743378, 0.11019079387187958, 0.3467046916484833], [0.12429243326187134, 0.1563977748155594, -0.034202300012111664, -0.06936390697956085], [0.09314367920160294, -0.21950463950634003, -0.5856618285179138, 0.011238628067076206], [-0.19749954342842102, 0.13313107192516327, 0.08198914676904678, 0.09386810660362244]], "bias": [0.003092654515057802, 0.2321852743625641, -0.11068560183048248, 0.08585526049137115, -0.22073762118816376, 0.15275782346725464, -0.16476760804653168, -0.1356971561908722, -0.136183962225914, -0.009909181855618954, -0.42804670333862305, 0.18774881958961487, 0.03260234370827675, -0.06489302217960358, -0.01517533604055643]}]}, {"n_features": 15, "sizes": [4], "activation": "tanh", "lr": 0.0009765625, "parameters": [{"weight": [[-0.35744211077690125, -0.36605027318000793, -0.08908917754888535, -0.14856024086475372, 0.26755306124687195, 0.2167125642299652, -0.11031884700059891, -0.6940590143203735, 0.09675487130880356, -0.41768473386764526, 0.12134865671396255, 0.09217259287834167, 0.031081560999155045, 0.39375150203704834, 0.35453104972839355], [-0.08802606910467148, -0.4466536343097687, -0.558059811592102, 0.1760164350271225, 0.24965782463550568, 0.18651577830314636, -0.5123665928840637, -0.11858117580413818, 0.593404233455658, 0.2356201857328415, -0.18212588131427765, -0.06407888233661652, 0.05170648545026779, 0.44295135140419006, 0.5068538188934326], [0.3148397207260132, -0.26590365171432495, -0.1912708878517151, 0.018051819875836372, -0.1676459014415741, 0.07279545068740845, 0.15045791864395142, 0.044272784143686295, 0.2001001238822937, 0.13532902300357819, -0.02539963275194168, 0.24931010603904724, -0.1017739474773407, 0.00924077071249485, 0.1850302666425705], [0.4924563467502594, 0.15678787231445312, -0.1839655637741089, -0.1768975853919983, 0.29065749049186707, 0.352576345205307, 0.42628124356269836, -0.4775480329990387, -0.07070968300104141, 0.13672320544719696, 0.42226067185401917, -0.5208197832107544, -0.17055641114711761, -0.14787255227565765, -0.15431265532970428]], "bias": [0.14447152614593506, -0.4668801426887512, -0.02801988646388054, 0.13673369586467743]}, {"weight": [[0.2653389275074005, -0.12239189445972443, 0.34507301449775696, 0.12400902062654495], [-0.008884967304766178, -0.16559824347496033, 0.38698962330818176, 0.13579998910427094], [-0.3312395513057709, -0.30253639817237854, 0.018651394173502922, 0.22258169949054718], [-0.49031156301498413, -0.1260945349931717, 0.32127025723457336, 0.5193454027175903], [-0.8400794863700867, -0.5426053404808044, -0.06627191603183746, 0.09862962365150452], [0.015872454270720482, 0.36901673674583435, 0.09937193244695663, 0.1486901044845581], [0.1404569298028946, -0.2729533910751343, 0.26128411293029785, -0.2928909659385681], [0.07471782714128494, -0.10043023526668549, -0.13135412335395813, 0.08313777297735214], [0.3197222054004669, 0.12109049409627914, -0.2911732494831085, -0.010425171814858913], [-0.21997107565402985, 0.34414565563201904, -0.18807660043239594, -0.4070797562599182], [0.03339513763785362, 0.3701021373271942, 0.2917856276035309, 0.4579415023326874], [-0.07644524425268173, 0.046197980642318726, 0.08695123344659805, 0.3700404465198517], [0.10141080617904663, 0.1332269161939621, -0.057433515787124634, -0.04606427624821663], [0.07014739513397217, -0.24272063374519348, -0.6087595224380493, 0.03459087759256363], [-0.22070404887199402, 0.10990921407938004, 0.058860234916210175, 0.11722084879875183]], "bias": [0.026241952553391457, 0.255497545003891, -0.121323361992836, 0.10891950130462646, -0.24417012929916382, 0.17584605515003204, -0.187975212931633, -0.15839239954948425, -0.15905089676380157, -0.03327113762497902, -0.451438844203949, 0.21105828881263733, 0.05570712313055992, -0.04166716709733009, -0.03829529136419296]}]}, {"n_features": 15, "sizes": [4], "activation": "tanh", "lr": 0.000244140625, "parameters": [{"weight": [[-0.36331650614738464, -0.3719210922718048, -0.08325009047985077, -0.14272058010101318, 0.2734053432941437, 0.22256477177143097, -0.10447974503040314, -0.6882194876670837, 0.1026071235537529, -0.4118325710296631, 0.11550187319517136, 0.09801948815584183, 0.03692932426929474, 0.3995969891548157, 0.3603779673576355], [-0.08217974007129669, -0.440810889005661, -0.5521849393844604, 0.1818927824497223, 0.2554962933063507, 0.1923382431268692, -0.5064917206764221, -0.1127048060297966, 0.5992427468299866, 0.24144265055656433, -0.18800576031208038, -0.05821111425757408, 0.05757439136505127, 0.4488164782524109, 0.5127211213111877], [0.3089733123779297, -0.27177125215530396, -0.19712017476558685, 0.012202492915093899, -0.1617979258298874, 0.07864395529031754, 0.14460863173007965, 0.03842345252633095, 0.2059480994939804, 0.14117754995822906, -0.031241577118635178, 0.25515079498291016, -0.09593259543180466, 0.015083574689924717, 0.19087181985378265], [0.4983189105987549, 0.16264790296554565, -0.18980470299720764, -0.18273670971393585, 0.29652443528175354, 0.3584427237510681, 0.42044201493263245, -0.48338720202445984, -0.06484273821115494, 0.14258959889411926, 0.4280279874801636, -0.526670515537262, -0.1764078289270401, -0.15372605621814728, -0.16016559302806854]], "bias": [0.1386355310678482, -0.4610043168067932, -0.02216353267431259, 0.1421206146478653]}, {"weight": [[0.27119365334510803, -0.12784942984580994, 0.33920004963874817, 0.11815308779478073], [-0.0030250719282776117, -0.17144326865673065, 0.3811258375644684, 0.12994632124900818], [-0.33708369731903076, -0.30837783217430115, 0.012829998508095741, 0.2284301072359085], [-0.49616047739982605, -0.1319386512041092, 0.31546032428741455, 0.5251966118812561], [-0.8459216356277466, -0.5484564900398254, -0.07210014015436172, 0.09278177469968796], [0.02180253528058529, 0.36316102743148804, 0.09353151172399521, 0.14283429086208344], [0.14629916846752167, -0.2788105607032776, 0.25544172525405884, -0.29873788356781006], [0.06891985982656479, -0.10623488575220108, -0.1371798813343048, 0.0775115042924881], [0.31422245502471924, 0.11523779481649399, -0.29701003432273865, -0.016279222443699837], [-0.22565898299217224, 0.3382979929447174, -0.19390521943569183, -0.4129335284233093], [0.03826961666345596, 0.3759530484676361, 0.29762980341911316, 0.45205286145210266], [-0.08228683471679688, 0.04034622386097908, 0.08110292255878448, 0.37589359283447266], [0.09557784348726273, 0.1273811310529709, -0.06328139454126358, -0.040213149040937424], [0.06430940330028534, -0.24856840074062347, -0.6146014332771301, 0.04044461250305176], [-0.2265508621931076, 0.10406134277582169, 0.05301707610487938, 0.12307537347078323]], "bias": [0.03208531439304352, 0.26135000586509705, -0.11729094386100769, 0.11475977301597595, -0.25002947449684143, 0.1816885769367218, -0.1938209980726242, -0.1642211675643921, -0.1648842990398407, -0.03912480175495148, -0.4572960138320923, 0.2169100046157837, 0.06155009940266609, -0.03581973537802696, -0.04414103925228119]}]}, {"n_features": 15, "sizes": [4], "activation": "relu", "lr": 0.00390625, "parameters": [{"weight": [[-0.3340773284435272, -0.34269413352012634, -0.05027033016085625, -0.10973162949085236, 0.24427424371242523, 0.19345054030418396, -0.0714997798204422, -0.6552304625511169, 0.07347607612609863, -0.4409467875957489, 0.1341974288225174, 0.06928040832281113, 0.008152586407959461, 0.37071454524993896, 0.3315706253051758], [-0.11102432012557983, -0.46967610716819763, -0.519927442073822, 0.2140204906463623, 0.22725579142570496, 0.1642286330461502, -0.47423654794692993, -0.08057746291160583, 0.5710020065307617, 0.21333280205726624, -0.15893466770648956, -0.08724573254585266, 0.02854500338435173, 0.4197973906993866, 0.4836897850036621], [0.2779254913330078, -0.3017469644546509, -0.1680016815662384, 0.04132987558841705, -0.19040115177631378, 0.04993128404021263, 0.17372733354568481, 0.06755085289478302, 0.17734478414058685, 0.1124647855758667, -0.0031433214899152517, 0.22661398351192474, -0.1244804784655571, -0.01349862664937973, 0.1623353809118271], [0.46969687938690186, 0.1339862048625946, -0.16077108681201935, -0.1537039875984192, 0.26773297786712646, 0.3296279013156891, 0.4494756758213043, -0.454354465007782, -0.09363418817520142, 0.11377478390932083, 0.3991875648498535, -0.49776607751846313, -0.14749008417129517, -0.12470687925815582, -0.1312214732170105]], "bias": [0.10569778084754944, -0.48966097831726074, -0.05068732425570488, 0.11326959729194641]}, {"weight": [[0.2420971393585205, -0.1605519950389862, 0.36833465099334717, 0.14765872061252594], [-0.03214537724852562, -0.20425596833229065, 0.4104737341403961, 0.1302131861448288], [-0.308249831199646, -0.279662162065506, 0.04114222154021263, 0.1988585889339447], [-0.4668457508087158, -0.1642320156097412, 0.2883346676826477, 0.4963178336620331], [-0.8170382380485535, -0.5195086002349854, -0.04405513033270836, 0.12177155911922455], [-0.007230809889733791, 0.3927810490131378, 0.06191762164235115, 0.1722671091556549], [0.17850111424922943, -0.25001612305641174, 0.28335630893707275, -0.2698213756084442], [0.09649781137704849, -0.07867684960365295, -0.10925035178661346, 0.10416874289512634], [0.28081101179122925, 0.14427495002746582, -0.26938581466674805, 0.012758269906044006], [-0.1976710706949234, 0.36723729968070984, -0.16619186103343964, -0.38394051790237427], [0.07166209071874619, 0.3474830687046051, 0.2694435119628906, 0.4213045835494995], [-0.0529421791434288, 0.0076406667940318584, 0.11056887358427048, 0.346907377243042], [0.12452957779169083, 0.1559978872537613, -0.0344516858458519, -0.06919927895069122], [0.09313751012086868, -0.2198609709739685, -0.5862287282943726, 0.013379731215536594], [-0.19746190309524536, 0.132968008518219, 0.08179844915866852, 0.09414639323949814]], "bias": [0.0032108942978084087, 0.2322811335325241, -0.08449862152338028, 0.08577068150043488, -0.22095364332199097, 0.15252266824245453, -0.16478845477104187, -0.13592728972434998, -0.14242419600486755, -0.010425384156405926, -0.4278135597705841, 0.18775025010108948, 0.032409071922302246, -0.004084097687155008, -0.07540412992238998]}]}, {"n_features": 15, "sizes": [4], "activation": "relu", "lr": 0.0009765625, "parameters": [{"weight": [[-0.3574613332748413, -0.36606648564338684, -0.07349858433008194, -0.13296860456466675, 0.2675553858280182, 0.21671567857265472, -0.09472823143005371, -0.6784674525260925, 0.0967571809887886, -0.4176816940307617, 0.12117660790681839, 0.0921863317489624, 0.031094767153263092, 0.39375802874565125, 0.35454216599464417], [-0.08801722526550293, -0.446649432182312, -0.5424606204032898, 0.19161397218704224, 0.2496785819530487, 0.18652328848838806, -0.49676740169525146, -0.10298364609479904, 0.5934249758720398, 0.2356276959180832, -0.18216082453727722, -0.06405521184206009, 0.051730550825595856, 0.4429728090763092, 0.5068771839141846], [0.2992749512195587, -0.28145137429237366, -0.19126847386360168, 0.018054714426398277, -0.16763237118721008, 0.07280822098255157, 0.15046033263206482, 0.0442756786942482, 0.20011365413665771, 0.1353418231010437, -0.02543368563055992, 0.24932795763015747, -0.1017569750547409, 0.009257866069674492, 0.18504799902439117], [0.4924888014793396, 0.15681606531143188, -0.18395934998989105, -0.17689140141010284, 0.29069066047668457, 0.3526080250740051, 0.42628735303878784, -0.47754186391830444, -0.07067647576332092, 0.13675493001937866, 0.422186940908432, -0.5208313465118408, -0.17056810855865479, -0.147882342338562, -0.1543249785900116]], "bias": [0.128885880112648, -0.46683260798454285, -0.02799360826611519, 0.13626930117607117]}, {"weight": [[0.26534587144851685, -0.13757339119911194, 0.34506118297576904, 0.12403050810098648], [-0.008873491548001766, -0.18118074536323547, 0.38702353835105896, 0.12139013409614563], [-0.3312474191188812, -0.3025468587875366, 0.01864563301205635, 0.22253771126270294], [-0.49029797315597534, -0.14166198670864105, 0.30584263801574707, 0.5193586349487305], [-0.8400827646255493, -0.542615532875061, -0.06628946214914322, 0.09862518310546875], [0.01596680097281933, 0.36906370520591736, 0.08383926004171371, 0.14870497584342957], [0.1560198813676834, -0.27297723293304443, 0.2612448036670685, -0.29289814829826355], [0.07471733540296555, -0.10044007748365402, -0.13138411939144135, 0.08329319953918457], [0.3043995499610901, 0.12108273804187775, -0.29120996594429016, -0.010434144176542759], [-0.21984292566776276, 0.3441386818885803, -0.18810392916202545, -0.4070903956890106], [0.04808405786752701, 0.3701305389404297, 0.2918178141117096, 0.4423642158508301], [-0.07642200589179993, 0.03060787171125412, 0.08698424696922302, 0.3700505495071411], [0.10141948610544205, 0.13321053981781006, -0.05744325742125511, -0.04605677351355553], [0.07014607638120651, -0.24273709952831268, -0.6087820529937744, 0.03484884649515152], [-0.2207026481628418, 0.10990177094936371, 0.0588536262512207, 0.11723470687866211]], "bias": [0.026245400309562683, 0.2555043399333954, -0.1075800359249115, 0.10891571640968323, -0.24418234825134277, 0.17583568394184113, -0.18797530233860016, -0.15840208530426025, -0.15916799008846283, -0.03329302743077278, -0.451421320438385, 0.21105796098709106, 0.0556979775428772, -0.026106802746653557, -0.05384710431098938]}]}, {"n_features": 15, "sizes": [4], "activation": "relu", "lr": 0.000244140625, "parameters": [{"weight": [[-0.3633177578449249, -0.3719221353530884, -0.07934612035751343, -0.13881656527519226, 0.273405522108078, 0.2225649654865265, -0.1005757749080658, -0.6843154430389404, 0.10260727256536484, -0.41183239221572876, 0.11549459397792816, 0.0980202928185463, 0.03693009912967682, 0.3995974063873291, 0.3603786826133728], [-0.08217921108007431, -0.4408106207847595, -0.5482820272445679, 0.18579614162445068, 0.25549736618995667, 0.19233866035938263, -0.5025887489318848, -0.1088014617562294, 0.5992438793182373, 0.24144306778907776, -0.18800801038742065, -0.05820963904261589, 0.05757588893175125, 0.44881778955459595, 0.5127226114273071], [0.305070161819458, -0.27567365765571594, -0.1971200704574585, 0.012202629819512367, -0.1617971509695053, 0.07864470034837723, 0.144608736038208, 0.03842359408736229, 0.2059488743543625, 0.14117829501628876, -0.031243406236171722, 0.25515180826187134, -0.09593161195516586, 0.015084542334079742, 0.19087281823158264], [0.4983207583427429, 0.1626494973897934, -0.18980427086353302, -0.18273627758026123, 0.2965264618396759, 0.3584446907043457, 0.4204424321651459, -0.4833867847919464, -0.06484073400497437, 0.14259153604507446, 0.42802420258522034, -0.526671290397644, -0.17640846967697144, -0.15372665226459503, -0.16016632318496704]], "bias": [0.13473162055015564, -0.4610014259815216, -0.022161955013871193, 0.14210666716098785]}, {"weight": [[0.27119410037994385, -0.1317397952079773, 0.339199423789978, 0.11815451830625534], [-0.0030243578366935253, -0.17534689605236053, 0.38112878799438477, 0.1260673850774765], [-0.3370841443538666, -0.3083783984184265, 0.012829632498323917, 0.22842711210250854], [-0.4961596429347992, -0.1358415186405182, 0.3115639090538025, 0.5251973867416382], [-0.8459219336509705, -0.5484570264816284, -0.07210107147693634, 0.09278151392936707], [0.021811969578266144, 0.3631645739078522, 0.08963054418563843, 0.14283524453639984], [0.15020176768302917, -0.27881184220314026, 0.2554396986961365, -0.2987382709980011], [0.0689198225736618, -0.10623535513877869, -0.13718144595623016, 0.07751718163490295], [0.31032252311706543, 0.11523734033107758, -0.29701194167137146, -0.016279764473438263], [-0.22565403580665588, 0.3382975161075592, -0.19390660524368286, -0.41293415427207947], [0.042159415781497955, 0.3759547173976898, 0.29763150215148926, 0.4481489956378937], [-0.08228547126054764, 0.0364421047270298, 0.08110514283180237, 0.3758942186832428], [0.09557829797267914, 0.1273801624774933, -0.06328195333480835, -0.040212709456682205], [0.06430931389331818, -0.24856936931610107, -0.61460280418396, 0.04043686017394066], [-0.22655080258846283, 0.10406090319156647, 0.05301671475172043, 0.1230761930346489]], "bias": [0.03208550810813904, 0.2613503634929657, -0.11342134326696396, 0.11475957185029984, -0.25003018975257874, 0.18168799579143524, -0.193820983171463, -0.16422168910503387, -0.1648894101381302, -0.03912604972720146, -0.45729488134384155, 0.2169099897146225, 0.06154954805970192, -0.03191708028316498, -0.048043154180049896]}]}, {"n_features": 15, "sizes": [6], "activation": "tanh", "lr": 0.00390625, "parameters": [{"weight": [[-0.3170654773712158, -0.3250386118888855, -0.04628714919090271, -0.10286751389503479, 0.28771695494651794, 0.24247995018959045, -0.066480852663517, -0.6217406392097473, 0.12525150179862976, -0.36095619201660156, 0.1395394206047058, 0.06374094635248184, 0.0056537133641541, 0.35068702697753906, 0.31335651874542236], [-0.10476778447628021, -0.44534459710121155, -0.5543209910392761, 0.14388668537139893, 0.21431653201580048, 0.15449146926403046, -0.510858952999115, -0.13633166253566742, 0.5412842631340027, 0.20119807124137878, -0.1493067890405655, -0.0847025066614151, 0.02542397938668728, 0.3976803421974182, 0.45838209986686707], [0.30266985297203064, -0.23324112594127655, -0.2198842316865921, -0.020762532949447632, -0.12086254358291626, 0.10793577134609222, 0.10516504943370819, 0.0041786194778978825, 0.22893387079238892, 0.16741721332073212, -0.062411922961473465, 0.27559539675712585, -0.05833962559700012, 0.0472220815718174, 0.19240765273571014], [0.741740345954895, -0.4220533072948456, -0.519542396068573, -0.23761825263500214, 0.3002970814704895, 0.33284425735473633, 0.025003895163536072, -0.10098129510879517, -0.08996393531560898, 0.17424671351909637, -0.09078349173069, -0.1688215285539627, 0.1984899640083313, 0.4382864236831665, 1.0213875770568848], [-0.4414372146129608, -0.3497959077358246, 0.5926151275634766, -0.1391722559928894, -0.2064576894044876, 0.25284409523010254, 0.3738408088684082, 0.42909693717956543, -0.4869590401649475, 0.761199951171875, -0.17695030570030212, 0.13432292640209198, -0.4720204472541809, -0.1387564241886139, 0.3914857804775238], [0.09039732813835144, 0.5677527189254761, 0.21330007910728455, -0.037209875881671906, -0.1644314080476761, 0.4777809679508209, -0.4507187604904175, 0.26724764704704285, 0.47190219163894653, -0.14297571778297424, -0.3711704909801483, 0.06183185055851936, 0.16751697659492493, 0.10736486315727234, 0.054880354553461075]], "bias": [0.6768323183059692, -0.02395305223762989, -0.3103604316711426, 0.43351665139198303, -0.0331919826567173, -0.0077645136043429375]}, {"weight": [[-0.31523990631103516, 0.013327295891940594, -0.18495674431324005, 0.3511720597743988, -0.2175024002790451, -0.3634871244430542], [-0.0025991592556238174, -0.23696036636829376, 0.2687705159187317, 0.45863965153694153, 0.39326703548431396, 0.2346143126487732], [0.1167902946472168, -0.283028244972229, 0.08676502108573914, 0.0644908919930458, 0.5709825754165649, -0.2971038520336151], [0.37652140855789185, -0.058472175151109695, 0.2008657455444336, -0.5392445921897888, -0.037301987409591675, 0.45270684361457825], [-0.06532073765993118, 0.10697482526302338, 0.09051806479692459, 0.37099629640579224, -0.32175934314727783, 0.04238583892583847], [0.8010615110397339, 0.4121982455253601, -0.03080953285098076, -0.0050513832829892635, -0.2256234735250473, -0.4032711684703827], [0.4710004925727844, 0.0759025290608406, -0.46624404191970825, -0.17868293821811676, 0.01781206764280796, 0.15009692311286926], [0.1455964595079422, 0.2769136130809784, 0.1365673691034317, -0.006653845775872469, 0.235152006149292, -0.03664223104715347], [0.2244853526353836, 0.2218799740076065, -0.06091634929180145, -0.02677357755601406, 0.5600596070289612, 0.24409177899360657], [-0.6852083802223206, -0.338034987449646, 0.10580243915319443, -0.399688184261322, 0.06618613749742508, 0.3721032440662384], [-0.46164339780807495, 0.11584199965000153, -0.28259631991386414, 0.25426802039146423, 0.5170643925666809, 0.21035809814929962], [0.2738803029060364, -0.42818307876586914, 0.2123022973537445, 0.07989254593849182, 0.0034471761900931597, -0.22167637944221497], [-0.338107705116272, -0.3381046950817108, 0.3926214873790741, 0.06090853735804558, 0.2675650715827942, 0.2902847230434418], [-0.35598060488700867, 0.3356994688510895, -0.12115603685379028, -0.3648284673690796, 0.263823926448822, 0.4275846481323242], [-0.17450441420078278, 0.20542341470718384, 0.12036187201738358, 0.020740199834108353, -0.3579162061214447, -0.004052945412695408]], "bias": [-0.11323245614767075, -0.0007163318805396557, -0.07158724963665009, -0.037073057144880295, -0.25009220838546753, -0.030010875314474106, 0.029032904654741287, -0.18068841099739075, -0.1439734697341919, 0.3985954821109772, 0.476209431886673, 0.16715148091316223, 0.4826070964336395, 0.21602001786231995, -0.09732744097709656]}]}, {"n_features": 15, "sizes": [6], "activation": "tanh", "lr": 0.0009765625, "parameters": [{"weight": [[-0.33966726064682007, -0.3478451073169708, -0.06952983140945435, -0.12609820067882538, 0.26960450410842896, 0.22129514813423157, -0.08972325921058655, -0.6449712514877319, 0.10714294761419296, -0.38213714957237244, 0.11588136851787567, 0.08727218210697174, 0.029165595769882202, 0.37413614988327026, 0.3368297517299652], [-0.0840504989027977, -0.42516836524009705, -0.5311720371246338, 0.16707409918308258, 0.23709724843502045, 0.17702792584896088, -0.48770904541015625, -0.11314414441585541, 0.5640653371810913, 0.2237354964017868, -0.1728661060333252, -0.0613214410841465, 0.048812031745910645, 0.42096227407455444, 0.4817441403865814], [0.2995122969150543, -0.25265228748321533, -0.19713813066482544, 0.0019678871612995863, -0.1442263424396515, 0.0844866931438446, 0.1279108226299286, 0.02690899930894375, 0.20556993782520294, 0.14396800100803375, -0.03936581313610077, 0.2523557245731354, -0.08159050345420837, 0.024005426093935966, 0.16916091740131378], [0.7182900309562683, -0.44549694657325745, -0.4974130392074585, -0.21547092497348785, 0.27720171213150024, 0.32771700620651245, 0.04713362827897072, -0.0788339376449585, -0.11305784434080124, 0.16932952404022217, -0.1141393706202507, -0.14551155269145966, 0.2218036949634552, 0.4615793228149414, 1.0446982383728027], [-0.46472877264022827, -0.37305906414985657, 0.5693815350532532, -0.1624034196138382, -0.18347521126270294, 0.27610060572624207, 0.35060736536979675, 0.40586575865745544, -0.4639759063720703, 0.7844566702842712, -0.1538103073835373, 0.111346036195755, -0.4950268864631653, -0.16185738146305084, 0.368459552526474], [0.11392628401517868, 0.5913243293762207, 0.23646488785743713, -0.014046527445316315, -0.14267326891422272, 0.5001515746116638, -0.42755401134490967, 0.2904110252857208, 0.4936591386795044, -0.12060660868883133, -0.39415106177330017, 0.03848590701818466, 0.14415909349918365, 0.08401228487491608, 0.03153659775853157]], "bias": [0.7001039981842041, -0.04674499109387398, -0.3331504762172699, 0.41015625, -0.009937266819179058, -0.030762089416384697]}, {"weight": [[-0.29215648770332336, -0.00955438707023859, -0.20864903926849365, 0.3277411162853241, -0.1941068172454834, -0.3868287205696106], [0.020870087668299675, -0.21338613331317902, 0.27763456106185913, 0.43591153621673584, 0.41654297709465027, 0.21136875450611115], [0.13929738104343414, -0.30585628747940063, 0.06347024440765381, 0.04123393073678017, 0.5941867828369141, -0.32028135657310486], [0.35959815979003906, -0.035607606172561646, 0.21763372421264648, -0.561706006526947, -0.015478051267564297, 0.43036362528800964], [-0.08867388963699341, 0.08365646749734879, 0.10870519280433655, 0.34765103459358215, -0.3448730707168579, 0.019389642402529716], [0.8242894411087036, 0.38915643095970154, -0.05423705279827118, -0.02857794053852558, -0.24817374348640442, -0.4264892637729645], [0.494253933429718, 0.06079253554344177, -0.48951807618141174, -0.1557503640651703, 0.040780436247587204, 0.12673260271549225], [0.1692025065422058, 0.3001660704612732, 0.15995119512081146, 0.016520770266652107, 0.2584788203239441, -0.013800344429910183], [0.2274559736251831, 0.1986142098903656, -0.08455880731344223, -0.05014169588685036, 0.583450973033905, 0.22080285847187042], [-0.7086771726608276, -0.36141133308410645, 0.08214931935071945, -0.42307624220848083, 0.042850371450185776, 0.34873446822166443], [-0.43836477398872375, 0.1388348639011383, -0.2590070068836212, 0.27742812037467957, 0.49343937635421753, 0.23336462676525116], [0.29693982005119324, -0.45135000348091125, 0.18886975944042206, 0.05665220320224762, 0.026239043101668358, -0.24489165842533112], [-0.3592876195907593, -0.3612799346446991, 0.3692185878753662, 0.03787999600172043, 0.289544016122818, 0.2671268880367279], [-0.3790912628173828, 0.31235212087631226, -0.14481747150421143, -0.38814976811408997, 0.2869897484779358, 0.4039514660835266], [-0.19768983125686646, 0.1822049468755722, 0.09664711356163025, -0.0024981554597616196, -0.3354809284210205, -0.027499746531248093]], "bias": [-0.13659167289733887, -0.023141823709011078, -0.04997929558157921, -0.05695032328367233, -0.2731839418411255, -0.006668597459793091, 0.05230323597788811, -0.20395758748054504, -0.16749176383018494, 0.375742107629776, 0.4994921386241913, 0.19045130908489227, 0.5059840679168701, 0.19323745369911194, -0.12044241279363632]}]}, {"n_features": 15, "sizes": [6], "activation": "tanh", "lr": 0.000244140625, "parameters": [{"weight": [[-0.3454907536506653, -0.3536747992038727, -0.07537805289030075, -0.13194580376148224, 0.2638648450374603, 0.21550780534744263, -0.09557148069143295, -0.6508187651634216, 0.10140332579612732, -0.387924462556839, 0.10996542870998383, 0.09313860535621643, 0.03503042459487915, 0.3799963891506195, 0.34269165992736816], [-0.0782608762383461, -0.41938701272010803, -0.5253275036811829, 0.17292030155658722, 0.24293050169944763, 0.18285471200942993, -0.4818645417690277, -0.10729795694351196, 0.5698984861373901, 0.22956231236457825, -0.1787346452474594, -0.05546444281935692, 0.05466953292489052, 0.4268150329589844, 0.48760050535202026], [0.29397550225257874, -0.2584160566329956, -0.19130711257457733, 0.007798521779477596, -0.15008990466594696, 0.07861648499965668, 0.1337418407201767, 0.032739631831645966, 0.19970636069774628, 0.13809779286384583, -0.03352539986371994, 0.24650603532791138, -0.08744078129529953, 0.01815662905573845, 0.16331078112125397], [0.7124291658401489, -0.45135733485221863, -0.491611510515213, -0.2096688449382782, 0.27132031321525574, 0.32456517219543457, 0.0529351569712162, -0.07303185015916824, -0.11893929541110992, 0.16643032431602478, -0.11999548971652985, -0.13965846598148346, 0.22765691578388214, 0.46743157505989075, 1.050551176071167], [-0.4705810844898224, -0.37890973687171936, 0.5635318160057068, -0.1682530641555786, -0.17762631177902222, 0.28195634484291077, 0.34475770592689514, 0.40001609921455383, -0.45812711119651794, 0.7903123497962952, -0.14796046912670135, 0.10550519078969955, -0.5008687973022461, -0.16770236194133759, 0.36261704564094543], [0.11979267001152039, 0.5971943736076355, 0.24230964481830597, -0.008201837539672852, -0.13686390221118927, 0.5059744715690613, -0.4217092990875244, 0.2962556481361389, 0.49946847558021545, -0.11478385329246521, -0.3999900221824646, 0.03262954205274582, 0.13830223679542542, 0.07815609127283096, 0.025680771097540855]], "bias": [0.7059549689292908, -0.052577681839466095, -0.33898037672042847, 0.40429940819740295, -0.004086568485945463, -0.036602213978767395]}, {"weight": [[-0.28632089495658875, -0.01539031881839037, -0.2145393043756485, 0.32188162207603455, -0.1882496178150177, -0.3926827609539032], [0.026731794700026512, -0.2075165957212448, 0.2830238938331604, 0.43008023500442505, 0.42239341139793396, 0.20551912486553192], [0.14511792361736298, -0.31168779730796814, 0.05761532858014107, 0.0353843979537487, 0.6000335216522217, -0.3261270821094513], [0.35386666655540466, -0.029708381742239, 0.22327576577663422, -0.5675270557403564, -0.009671698324382305, 0.4245484173297882], [-0.09452953934669495, 0.07780376821756363, 0.11445349454879761, 0.34180012345314026, -0.35071685910224915, 0.013551115989685059], [0.8301366567611694, 0.38331687450408936, -0.06009655073285103, -0.03444049134850502, -0.25399723649024963, -0.4323364496231079], [0.500103235244751, 0.05510874092578888, -0.49536797404289246, -0.14991258084774017, 0.046620551496744156, 0.12087827175855637], [0.17507925629615784, 0.30601581931114197, 0.1658085137605667, 0.022367408499121666, 0.26433175802230835, -0.007966157980263233], [0.23294416069984436, 0.1927643120288849, -0.09043752402067184, -0.0559968501329422, 0.5893060564994812, 0.2149515002965927], [-0.7145393490791321, -0.36726734042167664, 0.07627030462026596, -0.428932249546051, 0.03699573874473572, 0.3428786098957062], [-0.43251216411590576, 0.14467303454875946, -0.253081738948822, 0.2832733988761902, 0.4875592589378357, 0.2392026036977768], [0.30277785658836365, -0.4571951627731323, 0.18300895392894745, 0.05080345645546913, 0.03207116201519966, -0.2507387399673462], [-0.36509567499160767, -0.36712580919265747, 0.36335909366607666, 0.032039955258369446, 0.295353502035141, 0.2612816095352173], [-0.3849341571331024, 0.30649706721305847, -0.15069910883903503, -0.39400291442871094, 0.2928355634212494, 0.39807501435279846], [-0.2035369873046875, 0.1763564497232437, 0.09074416756629944, -0.008347336202859879, -0.3296569883823395, -0.03335956484079361]], "bias": [-0.14244772493839264, -0.028958091512322426, -0.04417721554636955, -0.06272085011005402, -0.2790263295173645, -0.0008148090564645827, 0.058153316378593445, -0.20980717241764069, -0.1733677089214325, 0.36990660429000854, 0.5053434371948242, 0.19630275666713715, 0.5118395090103149, 0.18740351498126984, -0.1262865662574768]}]}, {"n_features": 15, "sizes": [6], "activation": "relu", "lr": 0.00390625, "parameters": [{"weight": [[-0.31631264090538025, -0.324503630399704, -0.04644794762134552, -0.1030021384358406, 0.2808256447315216, 0.20311522483825684, -0.06664108484983444, -0.6218751072883606, 0.11806478351354599, -0.4010559916496277, 0.07646586745977402, 0.06436984986066818, 0.006218024529516697, 0.35106512904167175, 0.3138186037540436], [-0.10242842137813568, -0.44592443108558655, -0.49368610978126526, 0.20439288020133972, 0.21480748057365417, 0.154466912150383, -0.4502262473106384, -0.07582581788301468, 0.5417745113372803, 0.201173797249794, -0.15011334419250488, -0.0840991660952568, 0.026039766147732735, 0.39836636185646057, 0.4590478837490082], [0.3225771188735962, -0.2294740229845047, -0.2206864356994629, -0.021083489060401917, -0.12095271795988083, 0.1075756773352623, 0.10436692833900452, 0.0038600158877670765, 0.2288445681333542, 0.16705888509750366, -0.0626790001988411, 0.2758360207080841, -0.05807330831885338, 0.04751969873905182, 0.19266726076602936], [0.7209150195121765, -0.42180606722831726, -0.4591856300830841, -0.17728191614151, 0.23940566182136536, 0.2950229346752167, 0.08536028116941452, -0.04064500331878662, -0.15085646510124207, 0.1369960904121399, -0.09113205224275589, -0.16857504844665527, 0.1987396478652954, 0.4385666847229004, 1.0216411352157593], [-0.44181784987449646, -0.3501571714878082, 0.5721875429153442, -0.15850965678691864, -0.20542091131210327, 0.25369682908058167, 0.35343801975250244, 0.4097619354724884, -0.4859222173690796, 0.7620530724525452, -0.1765967756509781, 0.13452304899692535, -0.47183436155319214, -0.13867612183094025, 0.3916439414024353], [0.0910620167851448, 0.5683011412620544, 0.21303299069404602, -0.0374801829457283, -0.1643541008234024, 0.47812411189079285, -0.45098593831062317, 0.26697736978530884, 0.4719788432121277, -0.1426321566104889, -0.3714943528175354, 0.060813598334789276, 0.16660641133785248, 0.10662597417831421, 0.05404529348015785]], "bias": [0.677094042301178, -0.0846024602651596, -0.3095409572124481, 0.3717574179172516, -0.032723113894462585, -0.06442331522703171]}, {"weight": [[-0.25629183650016785, 0.013049905188381672, -0.18492653965950012, 0.35091814398765564, -0.21710467338562012, -0.3636297881603241], [-0.0022656877990812063, -0.23629721999168396, 0.25339245796203613, 0.39752694964408875, 0.3934970498085022, 0.17508839070796967], [0.1161569356918335, -0.2830645442008972, 0.08716504275798798, 0.0641610249876976, 0.5714735388755798, -0.2972028851509094], [0.3687452971935272, -0.0011152175720781088, 0.25654980540275574, -0.5391204953193665, -0.03875309228897095, 0.45286524295806885], [-0.06550554186105728, 0.10692139714956284, 0.08491862565279007, 0.30826371908187866, -0.32203516364097595, 0.04207972064614296], [0.8011435270309448, 0.3516956567764282, -0.09296396374702454, -0.06703170388936996, -0.28713226318359375, -0.4029693305492401], [0.4712373912334442, 0.022594012320041656, -0.5260750651359558, -0.17812630534172058, 0.018024984747171402, 0.0903315469622612], [0.14652767777442932, 0.2774471640586853, 0.13629445433616638, -0.005831580609083176, 0.23655331134796143, -0.03553571552038193], [0.20435872673988342, 0.22238701581954956, -0.12272074073553085, -0.08577516674995422, 0.5603483319282532, 0.2444794774055481], [-0.6855446696281433, -0.3382694721221924, 0.10590077191591263, -0.40001681447029114, 0.06572676450014114, 0.3717719316482544], [-0.46137571334838867, 0.11602554470300674, -0.28268927335739136, 0.2542743980884552, 0.45512405037879944, 0.21017029881477356], [0.2733801305294037, -0.4287428557872772, 0.21262046694755554, 0.07977136969566345, 0.0030423039570450783, -0.2216954231262207], [-0.3411565124988556, -0.3389416038990021, 0.3929292559623718, 0.0606473833322525, 0.26639294624328613, 0.2581064999103546], [-0.3560256063938141, 0.33526167273521423, -0.12107212096452713, -0.36488932371139526, 0.2639215290546417, 0.42742928862571716], [-0.1746586561203003, 0.2049616277217865, 0.1203634962439537, 0.020689839497208595, -0.29769307374954224, -0.004298560321331024]], "bias": [-0.11352965980768204, -0.06176387518644333, -0.07297534495592117, -0.05479750782251358, -0.2504240572452545, -0.029937701299786568, 0.029223650693893433, -0.2416658252477646, -0.20608089864253998, 0.39880526065826416, 0.4763556122779846, 0.16697460412979126, 0.482469379901886, 0.2045431286096573, -0.0976579487323761]}]}, {"n_features": 15, "sizes": [6], "activation": "relu", "lr": 0.0009765625, "parameters": [{"weight": [[-0.3396383225917816, -0.34782278537750244, -0.06953716278076172, -0.12610428035259247, 0.2689844071865082, 0.21143454313278198, -0.08973057568073273, -0.6449772715568542, 0.10650601983070374, -0.39243197441101074, 0.1001635193824768, 0.08730532228946686, 0.029195230454206467, 0.374155730009079, 0.3368538022041321], [-0.08401104062795639, -0.42517217993736267, -0.5156202912330627, 0.1826237291097641, 0.2371147871017456, 0.17703115940093994, -0.47215735912323, -0.09759452193975449, 0.5640828013420105, 0.22373875975608826, -0.1729077398777008, -0.06129273772239685, 0.048841431736946106, 0.4209927022457123, 0.4817750155925751], [0.2998370826244354, -0.25255608558654785, -0.19715963304042816, 0.0019512618891894817, -0.14426234364509583, 0.08443716913461685, 0.12788940966129303, 0.026892399415373802, 0.2055339813232422, 0.14391855895519257, -0.0393826887011528, 0.25236567854881287, -0.0815812200307846, 0.024015337228775024, 0.16916999220848083], [0.7063155770301819, -0.44542840123176575, -0.48188602924346924, -0.1999446004629135, 0.261625736951828, 0.3179209232330322, 0.0626605972647667, -0.06330762058496475, -0.12863393127918243, 0.15989486873149872, -0.11415910720825195, -0.14549753069877625, 0.22181783616542816, 0.46159446239471436, 1.0447123050689697], [-0.46475204825401306, -0.3730800151824951, 0.568917989730835, -0.16283412277698517, -0.1834392249584198, 0.27613669633865356, 0.3501445949077606, 0.40543514490127563, -0.46393993496894836, 0.7844927906990051, -0.1537838578224182, 0.11136645823717117, -0.49500709772109985, -0.1618451625108719, 0.368476927280426], [0.11394201219081879, 0.5913421511650085, 0.23645223677158356, -0.014059290289878845, -0.14264804124832153, 0.5001766085624695, -0.42756664752960205, 0.2903982102870941, 0.4936843812465668, -0.12058154493570328, -0.3940490782260895, 0.038469817489385605, 0.14414530992507935, 0.08400589227676392, 0.031525857746601105]], "bias": [0.7001173496246338, -0.06229491904377937, -0.3331224322319031, 0.39456552267074585, -0.00990995205938816, -0.04629772529006004]}, {"weight": [[-0.27663519978523254, -0.009566379711031914, -0.20865049958229065, 0.32772549986839294, -0.1941843181848526, -0.3868367671966553], [0.020888956263661385, -0.21334870159626007, 0.27710390090942383, 0.42034682631492615, 0.4165551960468292, 0.19584380090236664], [0.13927671313285828, -0.30586203932762146, 0.06349971145391464, 0.04121778532862663, 0.5942079424858093, -0.32028672099113464], [0.35947614908218384, -0.02005307748913765, 0.23304839432239532, -0.5617085099220276, -0.015529060736298561, 0.43036577105522156], [-0.08867678791284561, 0.08365322649478912, 0.1085614413022995, 0.33199381828308105, -0.3448856770992279, 0.01937755197286606], [0.8242944478988647, 0.3736005425453186, -0.06989165395498276, -0.044178590178489685, -0.26375719904899597, -0.4264753758907318], [0.4942646026611328, 0.04538271948695183, -0.5051255226135254, -0.15573148429393768, 0.040793076157569885, 0.11118606477975845], [0.1692533940076828, 0.3001898527145386, 0.15991802513599396, 0.016551600769162178, 0.25853100419044495, -0.013765574432909489], [0.22710765898227692, 0.19866356253623962, -0.10021832585334778, -0.065675288438797, 0.5834663510322571, 0.22083055973052979], [-0.7086941599845886, -0.361423522233963, 0.0821712538599968, -0.4230920672416687, 0.0428287573158741, 0.3487181067466736], [-0.438351035118103, 0.13884390890598297, -0.2589692771434784, 0.27743014693260193, 0.47782859206199646, 0.23335754871368408], [0.296914279460907, -0.45137450098991394, 0.18890443444252014, 0.05664539709687233, 0.026223406195640564, -0.24489326775074005], [-0.35935235023498535, -0.3613124489784241, 0.36925214529037476, 0.037868283689022064, 0.289508581161499, 0.26609718799591064], [-0.3790944218635559, 0.3123316466808319, -0.14480076730251312, -0.38815420866012573, 0.2869947552680969, 0.403937965631485], [-0.1976979821920395, 0.18218478560447693, 0.09663939476013184, -0.0025018262676894665, -0.31995055079460144, -0.027513371780514717]], "bias": [-0.13660746812820435, -0.038700561970472336, -0.050017308443784714, -0.05726083740592003, -0.2731965482234955, -0.0066649774089455605, 0.052311744540929794, -0.21952250599861145, -0.18311119079589844, 0.3757474720478058, 0.4994998872280121, 0.19044072926044464, 0.505974292755127, 0.19305559992790222, -0.120456263422966]}]}, {"n_features": 15, "sizes": [6], "activation": "relu", "lr": 0.000244140625, "parameters": [{"weight": [[-0.3454892933368683, -0.35367366671562195, -0.07537829875946045, -0.13194596767425537, 0.2638235092163086, 0.21470442414283752, -0.09557171165943146, -0.650818943977356, 0.10136131942272186, -0.3888936936855316, 0.1060517430305481, 0.09314055740833282, 0.03503215312957764, 0.37999749183654785, 0.342693030834198], [-0.07825925946235657, -0.41938716173171997, -0.5214258432388306, 0.17682187259197235, 0.24293124675750732, 0.1828547567129135, -0.4779628813266754, -0.10339636355638504, 0.5698994398117065, 0.22956235706806183, -0.178737074136734, -0.055462777614593506, 0.054671235382556915, 0.42681682109832764, 0.48760226368904114], [0.29398661851882935, -0.2584114968776703, -0.19130747020244598, 0.007799359504133463, -0.1500919759273529, 0.07861360907554626, 0.13374149799346924, 0.032740477472543716, 0.19970428943634033, 0.1380949318408966, -0.033526383340358734, 0.24650664627552032, -0.08744022995233536, 0.01815723069012165, 0.16331136226654053], [0.7085815072059631, -0.4513505697250366, -0.4877118468284607, -0.20576924085617065, 0.26741260290145874, 0.32373982667922974, 0.05683480575680733, -0.0691322460770607, -0.12284693866968155, 0.16571378707885742, -0.11999651789665222, -0.13965754210948944, 0.22765785455703735, 0.4674326479434967, 1.0505521297454834], [-0.470583438873291, -0.37891170382499695, 0.563506007194519, -0.1682775765657425, -0.1776258945465088, 0.2819577753543854, 0.3447319269180298, 0.39999160170555115, -0.45812666416168213, 0.7903138399124146, -0.1479577124118805, 0.10550989210605621, -0.5008642077445984, -0.16769905388355255, 0.3626212179660797], [0.119793601334095, 0.5971954464912415, 0.24230867624282837, -0.008202791213989258, -0.136862114071846, 0.5059762001037598, -0.42171022295951843, 0.2962547242641449, 0.4994702935218811, -0.11478204280138016, -0.3999778628349304, 0.032628461718559265, 0.1383012980222702, 0.07815562933683395, 0.025680026039481163]], "bias": [0.7059557437896729, -0.05647973343729973, -0.33897870779037476, 0.40039512515068054, -0.004083780571818352, -0.04050324857234955]}, {"weight": [[-0.28241974115371704, -0.015390980988740921, -0.21453948318958282, 0.32188066840171814, -0.1882636994123459, -0.3926832377910614], [0.02673293650150299, -0.20751439034938812, 0.2830028831958771, 0.4261772632598877, 0.4223940968513489, 0.20161810517311096], [0.14511701464653015, -0.31168830394744873, 0.057617295533418655, 0.03538345918059349, 0.600034773349762, -0.32612746953964233], [0.3538629114627838, -0.02579151652753353, 0.22717417776584625, -0.5675272345542908, -0.009674322791397572, 0.42455050349235535], [-0.09452912211418152, 0.07780355215072632, 0.1144460067152977, 0.3378922641277313, -0.35071757435798645, 0.013550428673624992], [0.8301370739936829, 0.3794138431549072, -0.06400525569915771, -0.03834469988942146, -0.25790125131607056, -0.4323359727859497], [0.5001039505004883, 0.051213204860687256, -0.4992738664150238, -0.14991164207458496, 0.046621255576610565, 0.11697601526975632], [0.1750822812318802, 0.306017130613327, 0.16580602526664734, 0.022368915379047394, 0.26433447003364563, -0.007964454591274261], [0.2329331338405609, 0.1927676796913147, -0.09434623271226883, -0.059898387640714645, 0.5893070101737976, 0.2149531990289688], [-0.7145401835441589, -0.3672679662704468, 0.07627221941947937, -0.42893311381340027, 0.036994557827711105, 0.34287771582603455], [-0.4325113296508789, 0.14467357099056244, -0.25307703018188477, 0.28327345848083496, 0.48365333676338196, 0.23920220136642456], [0.30277663469314575, -0.4571966230869293, 0.1830114871263504, 0.050803057849407196, 0.03207023814320564, -0.2507389783859253], [-0.3650982081890106, -0.3671274185180664, 0.3633616268634796, 0.03203931078314781, 0.29535168409347534, 0.2612636983394623], [-0.38493436574935913, 0.3064960241317749, -0.15069769322872162, -0.3940032422542572, 0.2928359806537628, 0.3980741500854492], [-0.2035374492406845, 0.17635536193847656, 0.09074337780475616, -0.008347577415406704, -0.3257560431957245, -0.033360350877046585]], "bias": [-0.14244866371154785, -0.03286052867770195, -0.04417910426855087, -0.06272991746664047, -0.2790270149707794, -0.0008145948522724211, 0.058153800666332245, -0.2137100249528885, -0.17727380990982056, 0.36990684270858765, 0.5053438544273376, 0.1963021159172058, 0.5118389129638672, 0.1873963475227356, -0.1262873411178589]}]}, {"n_features": 15, "sizes": [8], "activation": "tanh", "lr": 0.00390625, "parameters": [{"weight": [[-0.30087345838546753, -0.3086872100830078, -0.10486222803592682, -0.15892159938812256, 0.2815643548965454, 0.23536083102226257, -0.1241578757762909, -0.6547218561172485, 0.12632706761360168, -0.3412385582923889, 0.1346624493598938, 0.12167154997587204, 0.06625290215015411, 0.3959342837333679, 0.3603367805480957], [-0.04146002233028412, -0.3675038814544678, -0.530660092830658, 0.136526420712471, 0.2029431015253067, 0.14549575746059418, -0.48913007974624634, -0.1312313824892044, 0.5153718590736389, 0.19012637436389923, -0.14176121354103088, -0.08168494701385498, 0.023496024310588837, 0.38065144419670105, 0.4372692406177521], [0.30817481875419617, -0.2189977616071701, -0.1513221561908722, 0.03894512727856636, -0.11435814201831818, 0.10417679697275162, 0.15927322208881378, 0.06277722120285034, 0.2198837548494339, 0.1610131561756134, -0.06030602380633354, 0.2637159824371338, -0.055335596203804016, 0.045468490570783615, 0.1842462718486786], [0.7096152305603027, -0.4022294282913208, -0.43662625551223755, -0.16722555458545685, 0.28862884640693665, 0.3424893617630005, 0.08370594680309296, -0.03666441887617111, -0.08427692949771881, 0.19149047136306763, -0.0863657221198082, -0.16281312704086304, 0.18812909722328186, 0.41695472598075867, 0.9743356108665466], [-0.4199599027633667, -0.3323986530303955, 0.505760133266449, -0.1934831291437149, -0.19805993139743805, 0.2410876303911209, 0.2967143952846527, 0.3495168089866638, -0.4660879671573639, 0.7268379926681519, -0.10883226245641708, 0.06831829994916916, -0.5110813975334167, -0.19271287322044373, -0.17213088274002075], [-0.11589351296424866, -0.28309279680252075, 0.29786908626556396, -0.07238946855068207, 0.20655618607997894, -0.05858127772808075, 0.1716913878917694, -0.2781134247779846, -0.03078461065888405, 0.21720661222934723, -0.0872439444065094, 0.27587276697158813, 0.0749204084277153, -0.10279934108257294, 0.6483175754547119], [-0.5237807631492615, 0.01643899828195572, -0.33920320868492126, -0.3131229877471924, -0.020458051934838295, 0.1793891340494156, 0.45428362488746643, -0.43215832114219666, 0.0712597668170929, 0.12329380959272385, -0.7392693161964417, -0.5312559008598328, -0.09824694693088531, 0.11398165673017502, -0.23691993951797485], [0.27482834458351135, -0.20884399116039276, -0.40777647495269775, -0.0032835579477250576, -0.22725987434387207, 0.14845605194568634, -0.2459603250026703, 0.3747835159301758, 0.16367681324481964, 0.10968177765607834, -0.2686477601528168, 0.022365445271134377, 0.0011534716468304396, -0.25311028957366943, 0.04132054001092911]], "bias": [0.5240163803100586, 0.4445435404777527, 0.12465968728065491, -0.5827166438102722, -0.441680908203125, 0.34434664249420166, 0.30249473452568054, 0.05115610733628273]}, {"weight": [[-0.275130957365036, -0.3844882547855377, 0.5111485123634338, 0.08160916715860367, -0.506706714630127, -0.11316832154989243, -0.07336641848087311, -0.0636223778128624], [0.13812045753002167, 0.2630990147590637, 0.19157250225543976, 0.054365113377571106, 0.22326456010341644, -0.03690650686621666, 0.2611274719238281, -0.20135660469532013], [-0.11931412667036057, -0.08615058660507202, 0.533383846282959, 0.17194503545761108, -0.6534844636917114, -0.32627376914024353, 0.08936488628387451, -0.3193378150463104], [0.002327749039977789, 0.2947429120540619, -0.44245249032974243, 0.10910134762525558, -0.20876237750053406, 0.24153418838977814, -0.09565934538841248, -0.39726418256759644], [0.3227575719356537, -0.40772902965545654, 0.20441541075706482, 0.07775866985321045, 0.05989941209554672, -0.21073299646377563, 0.2173338681459427, -0.5348926186561584], [0.41820189356803894, -0.030915670096874237, 0.26180946826934814, 0.32307684421539307, 0.09123371541500092, -0.4142042100429535, 0.6313170790672302, 0.06923224776983261], [-0.11916257441043854, -0.47448012232780457, -0.11896587163209915, -0.10905805230140686, -0.1560734659433365, -0.40213167667388916, -0.23185604810714722, -0.5830827951431274], [-0.3551453948020935, -0.21449433267116547, -0.013870114460587502, 0.13094298541545868, -0.046831145882606506, 0.4067211449146271, 0.011810896918177605, -0.2306007444858551], [0.1607665866613388, 0.027849825099110603, 0.42605143785476685, -0.05140083283185959, -0.1319686770439148, -0.8211450576782227, -0.4142862558364868, 0.33244788646698], [0.08894667774438858, -0.1862991750240326, 0.5325738787651062, 0.07387781888246536, 0.2555903494358063, 0.4584687352180481, 0.015889065340161324, -0.1544821560382843], [-0.16312681138515472, 0.4768865704536438, -0.31458547711372375, -0.21855410933494568, -0.00892524141818285, 0.13494695723056793, 0.18810997903347015, 0.3341901898384094], [-0.29525524377822876, -0.47542673349380493, 0.4836829900741577, 0.02989698387682438, -0.5036823749542236, 0.04812786728143692, -0.15500979125499725, 0.2494339942932129], [0.38134443759918213, -0.016252823173999786, 0.017688822001218796, 0.222291499376297, 0.12342272698879242, 0.09516113996505737, -0.012794611975550652, 0.19685204327106476], [-0.09997539967298508, 0.2305402159690857, 0.2023761123418808, 0.10984285175800323, -0.5763797163963318, 0.18709221482276917, -0.18911059200763702, -0.2552676796913147], [-0.03795875236392021, 0.3271683156490326, 0.14909693598747253, -0.027574963867664337, -0.33869239687919617, -0.06344621628522873, 0.24602685868740082, -0.32080551981925964]], "bias": [0.25527331233024597, 0.13873684406280518, -0.04057101532816887, 0.08717498928308487, 0.007089029066264629, -0.3355618715286255, 0.49677231907844543, 0.21804408729076385, 0.055520884692668915, -0.34183570742607117, -0.3263782560825348, -0.1749623417854309, -0.2089826613664627, 0.16907693445682526, 0.2882287800312042]}]}, {"n_features": 15, "sizes": [8], "activation": "tanh", "lr": 0.0009765625, "parameters": [{"weight": [[-0.324186235666275, -0.3320063352584839, -0.08169084042310715, -0.13574354350566864, 0.25808805227279663, 0.21187978982925415, -0.10098633915185928, -0.6315439343452454, 0.10285071283578873, -0.3647196590900421, 0.11104636639356613, 0.09864771366119385, 0.04313000291585922, 0.37276366353034973, 0.3371186852455139], [-0.0650872066617012, -0.39105328917503357, -0.5078838467597961, 0.15931463241577148, 0.22619041800498962, 0.16878342628479004, -0.46635356545448303, -0.10844314098358154, 0.5386192798614502, 0.21341407299041748, -0.16485923528671265, -0.05891479179263115, 0.046319786459207535, 0.4019530713558197, 0.4600021541118622], [0.28679168224334717, -0.24102771282196045, -0.17318400740623474, 0.01706831529736519, -0.13748641312122345, 0.08104953169822693, 0.1374109983444214, 0.04090037941932678, 0.19675546884536743, 0.1378859132528305, -0.03793519735336304, 0.24144457280635834, -0.07765131443738937, 0.02324874885380268, 0.16194987297058105], [0.686668872833252, -0.4253595471382141, -0.46000421047210693, -0.19059844315052032, 0.26519909501075745, 0.3190249800682068, 0.06032811477780342, -0.060037270188331604, -0.10770685225725174, 0.1680258959531784, -0.10875634849071503, -0.13939207792282104, 0.21158716082572937, 0.44066810607910156, 0.9978822469711304], [-0.4436510503292084, -0.3560490906238556, 0.5288169980049133, -0.17042745649814606, -0.17563319206237793, 0.26351362466812134, 0.31977128982543945, 0.37257254123687744, -0.4436608850955963, 0.7492644786834717, -0.13173049688339233, 0.09116565436124802, -0.4882444739341736, -0.16989253461360931, -0.14927852153778076], [-0.13946373760700226, -0.30676203966140747, 0.320980042219162, -0.04927936568856239, 0.22980166971683502, -0.03532947227358818, 0.19480237364768982, -0.25500333309173584, -0.0075391302816569805, 0.2404584288597107, -0.11017477512359619, 0.29873359203338623, 0.09782472997903824, -0.08031786233186722, 0.6711870431900024], [-0.5470750331878662, -0.006858663633465767, -0.31594884395599365, -0.2898586392402649, 0.002111762762069702, 0.20162545144557953, 0.47753819823265076, -0.4088939130306244, 0.09383051842451096, 0.14553287625312805, -0.7628072500228882, -0.5080567002296448, -0.07509654015302658, 0.09039226919412613, -0.2146192193031311], [0.29790446162223816, -0.1858084350824356, -0.38487541675567627, 0.01962125487625599, -0.2042151838541031, 0.17150966823101044, -0.2230592519044876, 0.39768823981285095, 0.18672148883342743, 0.13273534178733826, -0.29189008474349976, 0.045394398272037506, 0.02415352128446102, -0.23036816716194153, 0.06425587087869644]], "bias": [0.5008752346038818, 0.4218273162841797, 0.14553016424179077, -0.6053723096847534, -0.46457940340042114, 0.3214244842529297, 0.2793126404285431, 0.027990084141492844]}, {"weight": [[-0.2523452639579773, -0.40719884634017944, 0.4875645041465759, 0.05859176814556122, -0.48304587602615356, -0.1336568295955658, -0.050078101456165314, -0.08580608665943146], [0.16136042773723602, 0.28646570444107056, 0.16819621622562408, 0.031044041737914085, 0.2466350793838501, -0.01355455070734024, 0.28443872928619385, -0.2216133326292038], [-0.0960613489151001, -0.06325728446245193, 0.5571236610412598, 0.19566906988620758, -0.6768267750740051, -0.3451206088066101, 0.06591254472732544, -0.3396320343017578], [0.02567685768008232, 0.3179655075073242, -0.4192159175872803, 0.13230377435684204, -0.23214475810527802, 0.2647434175014496, -0.08053326606750488, -0.41294535994529724], [0.2990385890007019, -0.4309313893318176, 0.18083341419696808, 0.05448206141591072, 0.040214043110609055, -0.23366759717464447, 0.19437600672245026, -0.5574831366539001], [0.3946787714958191, -0.05408033728599548, 0.23833800852298737, 0.2996566593647003, 0.11448743939399719, -0.43717601895332336, 0.6081886291503906, 0.04657992348074913], [-0.14285950362682343, -0.49755722284317017, -0.14257554709911346, -0.13223959505558014, -0.17899592220783234, -0.42502155900001526, -0.25135064125061035, -0.6051280498504639], [-0.33229583501815796, -0.21941830217838287, -0.004034773912280798, 0.10798388719558716, -0.06989768147468567, 0.3853697180747986, 0.012920732609927654, -0.2519909739494324], [0.13717782497406006, 0.004642671439796686, 0.40248599648475647, -0.07459386438131332, -0.15493929386138916, -0.8441480994224548, -0.43747207522392273, 0.30977052450180054], [0.06543844193220139, -0.20955972373485565, 0.509145975112915, 0.09435777366161346, 0.27857574820518494, 0.43544629216194153, -0.00749785453081131, -0.17752371728420258], [-0.18505367636680603, 0.4993766248226166, -0.2911957800388336, -0.19577212631702423, 0.014241259545087814, 0.15735889971256256, 0.16457055509090424, 0.35644856095314026], [-0.31863757967948914, -0.4986233711242676, 0.46032795310020447, 0.006846893113106489, -0.4807083308696747, 0.024930743500590324, -0.17805838584899902, 0.2279152125120163], [0.3583173155784607, -0.03867420554161072, -0.005620580166578293, 0.19902770221233368, 0.1466846466064453, 0.07209095358848572, 0.010625689290463924, 0.19843488931655884], [-0.07678312808275223, 0.21621635556221008, 0.17890433967113495, 0.08690568804740906, -0.5993625521659851, 0.1652243435382843, -0.16569344699382782, -0.24785976111888885], [-0.014728512614965439, 0.3438580334186554, 0.12544472515583038, -0.05079784244298935, -0.3338630199432373, -0.08562294393777847, 0.2694647014141083, -0.3306364417076111]], "bias": [0.27818718552589417, 0.16203738749027252, -0.018684880807995796, 0.11046160012483597, 0.029613560065627098, -0.3587103486061096, 0.5199388861656189, 0.24106469750404358, 0.07689426839351654, -0.36509034037590027, -0.34943124651908875, -0.1984027773141861, -0.23172128200531006, 0.1922912746667862, 0.3115617632865906]}]}, {"n_features": 15, "sizes": [8], "activation": "tanh", "lr": 0.000244140625, "parameters": [{"weight": [[-0.3300393223762512, -0.33785974979400635, -0.0758436992764473, -0.12989601492881775, 0.2522244453430176, 0.20601584017276764, -0.09513919055461884, -0.6256964206695557, 0.09698712080717087, -0.3705836534500122, 0.10515963286161423, 0.09281501919031143, 0.037291038781404495, 0.3669176697731018, 0.3312719166278839], [-0.0709637701511383, -0.3969219923019409, -0.5020537972450256, 0.165145143866539, 0.23204034566879272, 0.17463549971580505, -0.46052348613739014, -0.10261264443397522, 0.5444691181182861, 0.2192661613225937, -0.1707017719745636, -0.05308328568935394, 0.052153266966342926, 0.4077521562576294, 0.4658331871032715], [0.2809976637363434, -0.24683649837970734, -0.17898592352867126, 0.011266037821769714, -0.143330380320549, 0.07520566880702972, 0.13160908222198486, 0.03509809449315071, 0.19091150164604187, 0.1320420205593109, -0.032119959592819214, 0.23562949895858765, -0.08346770703792572, 0.01743413135409355, 0.1561337262392044], [0.6808347702026367, -0.43120118975639343, -0.46592971682548523, -0.19652405381202698, 0.2593372166156769, 0.3131614029407501, 0.054402630776166916, -0.06596292555332184, -0.11356871575117111, 0.16216231882572174, -0.11457522213459015, -0.13353510200977325, 0.2174467146396637, 0.44655710458755493, 1.003748893737793], [-0.44956353306770325, -0.3619675934314728, 0.5346559286117554, -0.16458871960639954, -0.1698128879070282, 0.26933395862579346, 0.32561007142066956, 0.37841132283210754, -0.4378405809402466, 0.7550849318504333, -0.13756388425827026, 0.09699711203575134, -0.4824133813381195, -0.16406190395355225, -0.14344680309295654], [-0.14538820087909698, -0.31267696619033813, 0.32682549953460693, -0.043433960527181625, 0.23565126955509186, -0.02947941981256008, 0.20064783096313477, -0.24915793538093567, -0.0016895172884687781, 0.24630850553512573, -0.11601202189922333, 0.30456897616386414, 0.10366181284189224, -0.07449282705783844, 0.6770232915878296], [-0.5529271960258484, -0.012711027637124062, -0.31009963154792786, -0.2840089797973633, 0.007936866953969002, 0.20744241774082184, 0.48338741064071655, -0.4030442535877228, 0.0996556505560875, 0.15134991705417633, -0.7686731219291687, -0.5022151470184326, -0.06925671547651291, 0.0845089703798294, -0.20881791412830353], [0.3037499189376831, -0.1799648106098175, -0.37903913855552673, 0.025457734242081642, -0.19837406277656555, 0.17735131084918976, -0.2172228842973709, 0.4035247266292572, 0.19256260991096497, 0.13857698440551758, -0.29774007201194763, 0.05123535171151161, 0.029993422329425812, -0.22453662753105164, 0.07009381800889969]], "bias": [0.495029091835022, 0.41599833965301514, 0.15132023394107819, -0.611198902130127, -0.470412939786911, 0.31558752059936523, 0.2734662592411041, 0.022144753485918045]}, {"weight": [[-0.24651804566383362, -0.4130261540412903, 0.4816855788230896, 0.05275246873497963, -0.4771611988544464, -0.13943281769752502, -0.04422464966773987, -0.09161502867937088], [0.16720907390117645, 0.29232099652290344, 0.16226467490196228, 0.025190871208906174, 0.25249066948890686, -0.007699953392148018, 0.2902911901473999, -0.2273925542831421], [-0.09023435413837433, -0.05734095722436905, 0.5630123019218445, 0.20157082378864288, -0.6826796531677246, -0.35085538029670715, 0.060053501278162, -0.345235675573349], [0.031531862914562225, 0.32381343841552734, -0.4133661985397339, 0.13815246522426605, -0.23800165951251984, 0.2705901861190796, -0.0748797133564949, -0.4171248972415924], [0.29313600063323975, -0.4367782175540924, 0.1749589890241623, 0.04863135889172554, 0.03445744886994362, -0.23950305581092834, 0.18854399025440216, -0.5633061528205872], [0.3888096809387207, -0.05992578715085983, 0.2324734926223755, 0.2937975525856018, 0.12033960223197937, -0.4430135190486908, 0.6023465394973755, 0.04075494036078453], [-0.1487516611814499, -0.5033987164497375, -0.1484552025794983, -0.13808602094650269, -0.18482911586761475, -0.43085551261901855, -0.25710350275039673, -0.6109355688095093], [-0.32646507024765015, -0.2142878919839859, 0.0015753580955788493, 0.10214529186487198, -0.07573606073856354, 0.37953948974609375, 0.007653187494724989, -0.2577855587005615], [0.13130472600460052, -0.0012041374575346708, 0.3966132402420044, -0.08043978363275528, -0.160775288939476, -0.8499858975410461, -0.4433170258998871, 0.3039460778236389], [0.05957186594605446, -0.21540924906730652, 0.5032857060432434, 0.10014424473047256, 0.284417062997818, 0.4296072721481323, -0.013354167342185974, -0.18336234986782074], [-0.1908457726240158, 0.5051976442337036, -0.285324364900589, -0.1899406462907791, 0.020083019509911537, 0.16317541897296906, 0.1586606204509735, 0.3622581362724304], [-0.3244948983192444, -0.5044698119163513, 0.4544704854488373, 0.001006469945423305, -0.4747897982597351, 0.01908457651734352, -0.1838976889848709, 0.2221219837665558], [0.3524744212627411, -0.04449550434947014, -0.011475717648863792, 0.19317692518234253, 0.1525348573923111, 0.06624989211559296, 0.016484245657920837, 0.19305233657360077], [-0.07094217836856842, 0.21052227914333344, 0.17300407588481903, 0.08106964826583862, -0.605196475982666, 0.1594238132238388, -0.15983261168003082, -0.25275200605392456], [-0.008880604058504105, 0.3469494879245758, 0.1195252314209938, -0.05664566159248352, -0.33893582224845886, -0.09143107384443283, 0.2753255069255829, -0.33627474308013916]], "bias": [0.28402280807495117, 0.1678895205259323, -0.012877468951046467, 0.11631271243095398, 0.0354362316429615, -0.36455538868904114, 0.5257841944694519, 0.24690233170986176, 0.08269091695547104, -0.3709401786327362, -0.35527199506759644, -0.20426316559314728, -0.23755128681659698, 0.19813868403434753, 0.3174149990081787]}]}, {"n_features": 15, "sizes": [8], "activation": "relu", "lr": 0.00390625, "parameters": [{"weight": [[-0.3009316623210907, -0.3087342381477356, -0.04370208829641342, -0.09776517748832703, 0.28160184621810913, 0.2353653907775879, -0.06299781054258347, -0.5935654640197754, 0.12636449933052063, -0.3412340581417084, 0.07459571957588196, 0.05974630266427994, 0.004497189074754715, 0.3336443305015564, 0.2981002926826477], [-0.09916110336780548, -0.4177667796611786, -0.4694013297557831, 0.1978035420179367, 0.20317316055297852, 0.14577040076255798, -0.42787089943885803, -0.06995422393083572, 0.5156019926071167, 0.19040103256702423, -0.1423635482788086, -0.0813453271985054, 0.023842811584472656, 0.3794281780719757, 0.4376542568206787], [0.309646338224411, -0.21815182268619537, -0.19203411042690277, 0.03982213884592056, -0.11426284164190292, 0.10426460206508636, 0.11954295635223389, 0.06366091966629028, 0.21997904777526855, 0.16110093891620636, -0.060298603028059006, 0.26376619935035706, -0.05528669059276581, 0.04571434482932091, 0.18421508371829987], [0.7097919583320618, -0.4022020995616913, -0.49918225407600403, -0.22973209619522095, 0.2885188162326813, 0.3423897325992584, 0.02115095779299736, -0.09917083382606506, -0.08438686281442642, 0.19139111042022705, -0.13484841585159302, -0.15933586657047272, 0.19300782680511475, 0.4570951759815216, 0.9798268675804138], [-0.4234364628791809, -0.3341776132583618, 0.5054219365119934, -0.19382375478744507, -0.1954265683889389, 0.2435484081506729, 0.29637593030929565, 0.3491762578487396, -0.46345528960227966, 0.7292976379394531, -0.15805383026599884, 0.06783005595207214, -0.5116236805915833, -0.1936119794845581, -0.1730453222990036], [-0.1776781678199768, -0.3450790345668793, 0.34384697675704956, -0.07004304230213165, 0.2068077176809311, -0.05829804018139839, 0.21682621538639069, -0.27578362822532654, -0.030532995238900185, 0.21748995780944824, -0.08775561302900314, 0.2762725055217743, 0.07532738149166107, -0.10282581299543381, 0.6487706303596497], [-0.5239611864089966, 0.01624741405248642, -0.2774474322795868, -0.2513663172721863, -0.018723048269748688, 0.182058185338974, 0.5160393714904785, -0.37040162086486816, 0.07299450784921646, 0.12596139311790466, -0.8004934787750244, -0.4698162376880646, -0.03685006499290466, 0.11301921308040619, -0.17632141709327698], [0.27475160360336304, -0.2088332325220108, -0.3688580095767975, 0.02481694519519806, -0.22671464085578918, 0.14927200973033905, -0.20718608796596527, 0.4028444290161133, 0.16422206163406372, 0.1104976162314415, -0.2688545286655426, 0.02201210707426071, 0.0007674256339669228, -0.25380879640579224, 0.040820054709911346]], "bias": [0.46283334493637085, 0.38337069749832153, 0.1840617060661316, -0.5816908478736877, -0.4909050762653351, 0.28314876556396484, 0.24076803028583527, -0.001588738989084959]}, {"weight": [[-0.2165585607290268, -0.3847644627094269, 0.510872483253479, 0.08155111223459244, -0.5067828297615051, -0.11179722845554352, -0.07384194433689117, -0.06382156908512115], [0.13812951743602753, 0.2632671594619751, 0.12940143048763275, -0.006633813958615065, 0.22337086498737335, -0.03673892840743065, 0.26129767298698425, -0.2598482072353363], [-0.05922994017601013, -0.029234757646918297, 0.5821089744567871, 0.20316864550113678, -0.6538416147232056, -0.32569989562034607, 0.08828660845756531, -0.32483673095703125], [0.002708782209083438, 0.29510924220085144, -0.44243600964546204, 0.10939457267522812, -0.23904553055763245, 0.24191692471504211, -0.10338087379932404, -0.44688570499420166], [0.3221868872642517, -0.40796297788619995, 0.204219251871109, 0.07743534445762634, 0.057781022042036057, -0.2113402783870697, 0.2168550193309784, -0.535075306892395], [0.36667078733444214, -0.030983179807662964, 0.2617935836315155, 0.3217196762561798, 0.09081282466650009, -0.41579023003578186, 0.6314319968223572, 0.0691772922873497], [-0.11986858397722244, -0.47464519739151, -0.1192307099699974, -0.10916439443826675, -0.15639875829219818, -0.40216323733329773, -0.22865574061870575, -0.5829614996910095], [-0.3526746332645416, -0.18108604848384857, -0.02561762183904648, 0.06957482546567917, -0.047055575996637344, 0.3482476472854614, 0.036320727318525314, -0.28512492775917053], [0.1603333204984665, 0.02765589766204357, 0.425869882106781, -0.0515504851937294, -0.13234616816043854, -0.8213810324668884, -0.41467219591140747, 0.3321908116340637], [0.08838268369436264, -0.18658998608589172, 0.532407820224762, 0.07062322646379471, 0.31614524126052856, 0.4464411437511444, 0.015230255201458931, -0.15483038127422333], [-0.19314230978488922, 0.4777645766735077, -0.31397873163223267, -0.2186223864555359, 0.0522223562002182, 0.13541442155838013, 0.16206564009189606, 0.33479806780815125], [-0.29548367857933044, -0.47555142641067505, 0.4838106632232666, 0.030092664062976837, -0.4421529769897461, 0.04801799729466438, -0.15514712035655975, 0.2501879334449768], [0.3324003219604492, -0.06057276204228401, 0.018136166036128998, 0.2224811464548111, 0.12346455454826355, 0.09561149775981903, -0.01241072453558445, 0.20270000398159027], [-0.05475971847772598, 0.17705939710140228, 0.20157650113105774, 0.1100507602095604, -0.6384096741676331, 0.1881982833147049, -0.18890899419784546, -0.28619179129600525], [-0.03799811005592346, 0.3145066201686859, 0.08675380051136017, -0.027463292703032494, -0.3719196021556854, -0.07801990211009979, 0.24636217951774597, -0.3692418038845062]], "bias": [0.3152071535587311, 0.1388087421655655, 0.017160754650831223, 0.08750557154417038, 0.05670062452554703, -0.39761754870414734, 0.5577142834663391, 0.21776427328586578, 0.1145225241780281, -0.343343049287796, -0.3256864845752716, -0.17527762055397034, -0.27004170417785645, 0.1688622236251831, 0.28826621174812317]}]}, {"n_features": 15, "sizes": [8], "activation": "relu", "lr": 0.0009765625, "parameters": [{"weight": [[-0.3241930603981018, -0.33201372623443604, -0.06610913574695587, -0.12016130238771439, 0.2580951750278473, 0.21188607811927795, -0.08540462702512741, -0.6159616112709045, 0.1028578132390976, -0.3647134006023407, 0.09540808200836182, 0.08308865129947662, 0.027586396783590317, 0.357191801071167, 0.3215486407279968], [-0.0806162878870964, -0.4064820110797882, -0.4923178255558014, 0.17488129436969757, 0.22620274126529694, 0.16879813373088837, -0.4507875144481659, -0.09287647157907486, 0.5386316180229187, 0.213428795337677, -0.16488246619701385, -0.058900635689496994, 0.046334583312273026, 0.4019312858581543, 0.4600183069705963], [0.2868298888206482, -0.2410041242837906, -0.18822671473026276, 0.017187941819429398, -0.13748237490653992, 0.08105333149433136, 0.12239869683980942, 0.04102039337158203, 0.19675952196121216, 0.13788969814777374, -0.037940021604299545, 0.24144864082336426, -0.07764747738838196, 0.023257829248905182, 0.1619516909122467], [0.6866876482963562, -0.42534637451171875, -0.47571223974227905, -0.2063019722700119, 0.2651958763599396, 0.3190229833126068, 0.044620223343372345, -0.07574082165956497, -0.10771007835865021, 0.1680239588022232, -0.11817218363285065, -0.13927415013313293, 0.21173380315303802, 0.443617582321167, 0.9980505704879761], [-0.4437964856624603, -0.356167197227478, 0.5287976264953613, -0.17044702172279358, -0.17557097971439362, 0.26357370615005493, 0.3197517693042755, 0.3725529909133911, -0.4435987174510956, 0.74932461977005, -0.14711499214172363, 0.09105288237333298, -0.4883572459220886, -0.16994541883468628, -0.1493636816740036], [-0.15516765415668488, -0.32245922088623047, 0.3360172510147095, -0.04854091629385948, 0.22981886565685272, -0.03531205654144287, 0.2097790390253067, -0.25426894426345825, -0.007521932478994131, 0.2404758334159851, -0.1102014034986496, 0.2987520694732666, 0.09784102439880371, -0.08031877130270004, 0.6711994409561157], [-0.547082781791687, -0.006866655312478542, -0.300361692905426, -0.2742709815502167, 0.0021586467046290636, 0.20168425142765045, 0.4931253492832184, -0.3933062255382538, 0.0938774049282074, 0.14559167623519897, -0.7784126400947571, -0.49247443675994873, -0.059515614062547684, 0.0903436690568924, -0.1990775167942047], [0.2979173958301544, -0.18578413128852844, -0.36962804198265076, 0.032820235937833786, -0.20417840778827667, 0.1715647131204605, -0.20781943202018738, 0.4108670949935913, 0.18675824999809265, 0.13279037177562714, -0.2919142544269562, 0.04540211334824562, 0.024160901084542274, -0.2303764820098877, 0.06425753980875015]], "bias": [0.48529452085494995, 0.4062631130218506, 0.1610611528158188, -0.6053005456924438, -0.4799647033214569, 0.3058484196662903, 0.26372799277305603, 0.012459848076105118]}, {"weight": [[-0.23684147000312805, -0.40720829367637634, 0.48754146695137024, 0.0585881732404232, -0.4830693006515503, -0.1336284726858139, -0.05012962967157364, -0.0858139842748642], [0.16136117279529572, 0.2864750921726227, 0.15250414609909058, 0.015476057305932045, 0.24664287269115448, -0.013544278219342232, 0.28444790840148926, -0.2371070683002472], [-0.08054304122924805, -0.04768678545951843, 0.5725881457328796, 0.2104552686214447, -0.676846444606781, -0.34510472416877747, 0.06586416065692902, -0.3395940661430359], [0.025695640593767166, 0.3179818391799927, -0.4192189574241638, 0.13231942057609558, -0.24670347571372986, 0.2647605538368225, -0.08071164041757584, -0.4251157343387604], [0.2989765405654907, -0.4309428632259369, 0.180818572640419, 0.054466985166072845, 0.04017781466245651, -0.23368892073631287, 0.19436109066009521, -0.5574924349784851], [0.3792441785335541, -0.05408381670713425, 0.23833927512168884, 0.29961782693862915, 0.11445146799087524, -0.4372171461582184, 0.6081829071044922, 0.046574439853429794], [-0.14291614294052124, -0.4975655674934387, -0.14259879291057587, -0.1322464495897293, -0.1790098398923874, -0.42502424120903015, -0.25127825140953064, -0.6051296591758728], [-0.3322440981864929, -0.20446312427520752, -0.0042574359104037285, 0.09241288900375366, -0.069905586540699, 0.3698497414588928, 0.013486725278198719, -0.2674063742160797], [0.13714872300624847, 0.0046336473897099495, 0.402472585439682, -0.07460100948810577, -0.1549559384584427, -0.8441576957702637, -0.4374884068965912, 0.30976003408432007], [0.06540273874998093, -0.2095736414194107, 0.5091397166252136, 0.09426593035459518, 0.29412180185317993, 0.43525418639183044, -0.007527542300522327, -0.17754070460796356], [-0.19971956312656403, 0.4994058609008789, -0.29116061329841614, -0.19577191770076752, 0.029833247885107994, 0.15737482905387878, 0.1507173627614975, 0.3564659357070923], [-0.31865066289901733, -0.49862968921661377, 0.460334837436676, 0.006853899452835321, -0.4650406539440155, 0.024925317615270615, -0.17806479334831238, 0.22793112695217133], [0.343019038438797, -0.05377224460244179, -0.005574552807956934, 0.19903816282749176, 0.14669030904769897, 0.07212219387292862, 0.010647745802998543, 0.19870831072330475], [-0.06145422160625458, 0.20073238015174866, 0.1788306087255478, 0.08691246807575226, -0.6149612665176392, 0.1652592420578003, -0.16568103432655334, -0.2625156044960022], [-0.014727039262652397, 0.33770951628685, 0.10977780073881149, -0.05079177767038345, -0.3486674427986145, -0.09460478276014328, 0.2694840729236603, -0.3460101783275604]], "bias": [0.2937226891517639, 0.1620415896177292, -0.0032050530426204205, 0.11047635227441788, 0.04499998316168785, -0.37430840730667114, 0.5354998111724854, 0.24104918539524078, 0.09240341186523438, -0.36513686180114746, -0.34937724471092224, -0.19842015206813812, -0.24727605283260345, 0.1922786980867386, 0.31156420707702637]}]}, {"n_features": 15, "sizes": [8], "activation": "relu", "lr": 0.000244140625, "parameters": [{"weight": [[-0.33003973960876465, -0.3378601670265198, -0.07194032520055771, -0.12599262595176697, 0.25222495198249817, 0.20601625740528107, -0.09123581647872925, -0.6217927932739258, 0.09698759019374847, -0.3705832362174988, 0.10125204175710678, 0.08891360461711884, 0.03339046239852905, 0.36301490664482117, 0.32736942172050476], 